{
    "name": "Big Wadiya",
    "description": "Like Wadiya but big.",
	"version": "1.00",
	"creator": "Dissonant",
	"players":[10, 16],
    "planets": [
        {
            "name": "AAAAAAAAAAAAAAA",
            "mass": 5000,
            "position_x": 20500,
            "position_y": -17200,
            "velocity_x": 87.85929870605469,
            "velocity_y": 104.71602630615234,
            "required_thrust_to_move": 3,
            "starting_planet": true,
            "respawn": false,
            "start_destroyed": false,
            "min_spawn_delay": 0,
            "max_spawn_delay": 0,
            "planet": {
                "seed": 991571328,
                "radius": 596,
                "heightRange": 0,
                "waterHeight": 0,
                "waterDepth": 100,
                "temperature": 0,
                "metalDensity": 100,
                "metalClusters": 100,
                "metalSpotLimit": -1,
                "biomeScale": 50,
                "biome": "moon",
                "symmetryType": "none",
                "symmetricalMetal": false,
                "symmetricalStarts": false,
                "numArmies": 2,
                "landingZonesPerArmy": 0,
                "landingZoneSize": 0
            },
            "planetCSG": [
                {
                    "proj": "BP_Bend",
                    "spec": "/pa/terrain/moon/brushes/moon_crater_02.json",
                    "height": 595.9451904296875,
                    "op": "BO_Subtract",
                    "position": [
                        -208.759521484375,
                        -495.98638916015625,
                        -256.06182861328125
                    ],
                    "transform": [
                        0.023545803502202034,
                        -0.015335951000452042,
                        -0.010509230196475983,
                        -208.759521484375,
                        -0.015335951000452042,
                        -0.006435624789446592,
                        -0.02496861107647419,
                        -495.98638916015625,
                        0.010509230196475983,
                        0.02496861107647419,
                        -0.01289049070328474,
                        -256.06182861328125
                    ],
                    "scale": [
                        0.03000066988170147,
                        0.03000066988170147,
                        0.03000066988170147
                    ],
                    "rotation": 0,
                    "weight": [
                        0,
                        0,
                        0,
                        0
                    ],
                    "weightHard": false,
                    "weightScale": [
                        1,
                        1,
                        1
                    ],
                    "mirrored": false,
                    "twinId": 0,
                    "pathable": true,
                    "flooded": false,
                    "mergeable": true,
                    "no_features": false
                }
            ],
            "metal_spots": [
                [
                    -80.3961181640625,
                    588.9481811523438,
                    -28.87657928466797
                ],
                [
                    -118.08731842041016,
                    583.1845703125,
                    -25.905460357666016
                ],
                [
                    -31.09639549255371,
                    574.2056884765625,
                    159.19436645507812
                ],
                [
                    21.77375030517578,
                    592.897216796875,
                    64.81826782226562
                ],
                [
                    46.015357971191406,
                    584.531005859375,
                    -106.20721435546875
                ],
                [
                    30.507648468017578,
                    590.772216796875,
                    -70.3339614868164
                ],
                [
                    12.378948211669922,
                    578.3682250976562,
                    -141.49537658691406
                ],
                [
                    -97.37797546386719,
                    554.3463745117188,
                    198.40951538085938
                ],
                [
                    -133.07479858398438,
                    544.0399780273438,
                    204.51759338378906
                ],
                [
                    -166.1258087158203,
                    558.8192749023438,
                    125.71870422363281
                ],
                [
                    -135.59349060058594,
                    563.42236328125,
                    141.00692749023438
                ],
                [
                    -232.81240844726562,
                    546.2235107421875,
                    -51.41084289550781
                ],
                [
                    -203.69735717773438,
                    559.5139770507812,
                    -25.30988121032715
                ],
                [
                    -252.0021209716797,
                    526.4051513671875,
                    -118.33760070800781
                ],
                [
                    -207.68548583984375,
                    550.16552734375,
                    -92.59742736816406
                ],
                [
                    -286.021484375,
                    508.6313171386719,
                    119.70500946044922
                ],
                [
                    -286.16729736328125,
                    490.7238464355469,
                    176.1282196044922
                ],
                [
                    -193.62672424316406,
                    545.0497436523438,
                    143.9050750732422
                ],
                [
                    125.37480926513672,
                    559.735595703125,
                    -163.6835174560547
                ],
                [
                    174.21224975585938,
                    545.36328125,
                    -166.06466674804688
                ],
                [
                    134.02371215820312,
                    542.431640625,
                    -208.02354431152344
                ],
                [
                    186.5238494873047,
                    512.5626831054688,
                    -238.41099548339844
                ],
                [
                    -356.3040771484375,
                    478.7644348144531,
                    -19.219377517700195
                ],
                [
                    -291.0022277832031,
                    521.2166137695312,
                    12.555913925170898
                ],
                [
                    -268.954833984375,
                    532.6177978515625,
                    -6.923295497894287
                ],
                [
                    152.50209045410156,
                    547.1717529296875,
                    186.96800231933594
                ],
                [
                    215.44085693359375,
                    526.0843505859375,
                    185.03030395507812
                ],
                [
                    201.80430603027344,
                    507.95855712890625,
                    241.27569580078125
                ],
                [
                    225.8728485107422,
                    548.5740966796875,
                    -55.15223693847656
                ],
                [
                    252.34771728515625,
                    530.628662109375,
                    -98.77974700927734
                ],
                [
                    257.8634033203125,
                    537.206298828125,
                    -23.015918731689453
                ],
                [
                    201.3445587158203,
                    560.8253173828125,
                    -15.483307838439941
                ],
                [
                    -302.5252685546875,
                    479.460205078125,
                    -181.50450134277344
                ],
                [
                    -336.11102294921875,
                    446.4548034667969,
                    -206.0858917236328
                ],
                [
                    -343.945068359375,
                    476.17059326171875,
                    -97.80998992919922
                ],
                [
                    -276.53802490234375,
                    508.336669921875,
                    -139.76571655273438
                ],
                [
                    152.743408203125,
                    504.754150390625,
                    -260.8193664550781
                ],
                [
                    85.0677490234375,
                    504.98321533203125,
                    -284.2928161621094
                ],
                [
                    61.536109924316406,
                    535.2781982421875,
                    -252.8029327392578
                ],
                [
                    116.60264587402344,
                    475.72393798828125,
                    -338.67877197265625
                ],
                [
                    -390.3062438964844,
                    419.17938232421875,
                    162.73252868652344
                ],
                [
                    -332.4352111816406,
                    464.5453186035156,
                    165.47915649414062
                ],
                [
                    -351.14190673828125,
                    457.3529357910156,
                    146.89581298828125
                ],
                [
                    -346.461181640625,
                    472.2177734375,
                    109.50834655761719
                ],
                [
                    242.3984375,
                    515.2094116210938,
                    152.02500915527344
                ],
                [
                    296.873046875,
                    515.240966796875,
                    58.45215606689453
                ],
                [
                    -239.6341094970703,
                    469.623291015625,
                    -276.42230224609375
                ],
                [
                    -172.27174377441406,
                    506.3647155761719,
                    -257.7098388671875
                ],
                [
                    -221.1814727783203,
                    443.54730224609375,
                    -328.8320007324219
                ],
                [
                    -172.356201171875,
                    492.26312255859375,
                    -284.0938415527344
                ],
                [
                    -127.19922637939453,
                    457.5983581542969,
                    358.76531982421875
                ],
                [
                    -104.64434814453125,
                    484.89990234375,
                    329.7389221191406
                ],
                [
                    -166.28993225097656,
                    490.6291198730469,
                    292.52001953125
                ],
                [
                    -83.29902648925781,
                    454.0974426269531,
                    376.8028564453125
                ],
                [
                    -404.68817138671875,
                    439.1986999511719,
                    -4.974470138549805
                ],
                [
                    -371.8883056640625,
                    463.5823669433594,
                    -51.02725601196289
                ],
                [
                    127.945556640625,
                    465.254150390625,
                    348.2908630371094
                ],
                [
                    199.06040954589844,
                    490.6380615234375,
                    272.7868347167969
                ],
                [
                    143.25558471679688,
                    483.7333679199219,
                    316.6537780761719
                ],
                [
                    -15.304962158203125,
                    466.65277099609375,
                    -371.2164306640625
                ],
                [
                    -35.125030517578125,
                    485.84161376953125,
                    -343.25103759765625
                ],
                [
                    -19.730012893676758,
                    447.6903076171875,
                    -394.18963623046875
                ],
                [
                    -274.57061767578125,
                    479.20892333984375,
                    219.26109313964844
                ],
                [
                    -346.47308349609375,
                    409.7801513671875,
                    254.872802734375
                ],
                [
                    -290.638916015625,
                    473.1917724609375,
                    -215.43765258789062
                ],
                [
                    -343.64666748046875,
                    392.3996887207031,
                    -289.5163269042969
                ],
                [
                    -306.10693359375,
                    415.94549560546875,
                    -297.06781005859375
                ],
                [
                    -322.1398620605469,
                    433.7552185058594,
                    -251.85546875
                ],
                [
                    6.851677417755127,
                    465.03570556640625,
                    372.79400634765625
                ],
                [
                    40.50022506713867,
                    432.474365234375,
                    407.97344970703125
                ],
                [
                    -7.414303779602051,
                    442.4752502441406,
                    398.90631103515625
                ],
                [
                    234.16708374023438,
                    435.4373779296875,
                    -329.5204772949219
                ],
                [
                    166.3667755126953,
                    492.3753356933594,
                    -285.82080078125
                ],
                [
                    267.5792541503906,
                    469.3031311035156,
                    253.5540008544922
                ],
                [
                    297.3334655761719,
                    481.339599609375,
                    192.94696044921875
                ],
                [
                    332.7014465332031,
                    452.9705810546875,
                    203.98837280273438
                ],
                [
                    335.7712097167969,
                    455.4077453613281,
                    -187.9482421875
                ],
                [
                    350.4642639160156,
                    463.0447998046875,
                    -135.32131958007812
                ],
                [
                    -430.1559143066406,
                    376.35931396484375,
                    -171.15328979492188
                ],
                [
                    -458.6397399902344,
                    370.3105163574219,
                    -95.38517761230469
                ],
                [
                    -399.7223815917969,
                    382.8555908203125,
                    -204.16012573242188
                ],
                [
                    111.31031036376953,
                    392.2478942871094,
                    434.3548583984375
                ],
                [
                    96.20658874511719,
                    428.56097412109375,
                    401.73187255859375
                ],
                [
                    201.147216796875,
                    437.4678039550781,
                    348.9140319824219
                ],
                [
                    -429.189453125,
                    347.19757080078125,
                    201.19589233398438
                ],
                [
                    -407.8453063964844,
                    379.82318115234375,
                    179.47860717773438
                ],
                [
                    -434.9452209472656,
                    376.5173645019531,
                    155.50733947753906
                ],
                [
                    353.2168273925781,
                    459.3146667480469,
                    148.38723754882812
                ],
                [
                    370.4630432128906,
                    453.7808532714844,
                    120.157958984375
                ],
                [
                    417.2259826660156,
                    409.7967224121094,
                    128.70742797851562
                ],
                [
                    -235.10897827148438,
                    359.1285095214844,
                    -411.9325256347656
                ],
                [
                    -286.92352294921875,
                    355.4416809082031,
                    -381.22076416015625
                ],
                [
                    -32.22484588623047,
                    395.94281005859375,
                    445.02020263671875
                ],
                [
                    -129.14892578125,
                    424.4473571777344,
                    397.57403564453125
                ],
                [
                    -96.77755737304688,
                    345.6043395996094,
                    476.80975341796875
                ],
                [
                    -42.13410186767578,
                    362.3800354003906,
                    472.1871337890625
                ],
                [
                    277.23663330078125,
                    427.79962158203125,
                    -305.7764587402344
                ],
                [
                    320.62054443359375,
                    383.69940185546875,
                    -323.19476318359375
                ],
                [
                    323.1233215332031,
                    409.0535583496094,
                    -287.48370361328125
                ],
                [
                    281.9207763671875,
                    445.55938720703125,
                    278.80780029296875
                ],
                [
                    298.5555419921875,
                    400.80072021484375,
                    325.2929382324219
                ],
                [
                    280.62591552734375,
                    379.2004699707031,
                    363.5462646484375
                ],
                [
                    -4.384037494659424,
                    371.4114990234375,
                    -466.47955322265625
                ],
                [
                    -107.99433135986328,
                    375.6705322265625,
                    -450.0876159667969
                ],
                [
                    -49.3752326965332,
                    336.5005187988281,
                    -488.919921875
                ],
                [
                    -87.50375366210938,
                    395.0426940917969,
                    -438.3184814453125
                ],
                [
                    -372.0463562011719,
                    343.8409423828125,
                    314.4169921875
                ],
                [
                    -295.57769775390625,
                    384.44140625,
                    344.8578796386719
                ],
                [
                    -341.5990295410156,
                    300.1477355957031,
                    386.0636291503906
                ],
                [
                    455.5194091796875,
                    377.47515869140625,
                    -85.94635009765625
                ],
                [
                    401.9961853027344,
                    440.6116943359375,
                    -35.85618591308594
                ],
                [
                    192.03273010253906,
                    359.74603271484375,
                    -434.1086120605469
                ],
                [
                    260.04974365234375,
                    344.6121520996094,
                    -409.1970520019531
                ],
                [
                    184.61338806152344,
                    425.1976318359375,
                    -372.9723205566406
                ],
                [
                    228.7943878173828,
                    414.9136962890625,
                    -358.92816162109375
                ],
                [
                    387.2184753417969,
                    414.8152770996094,
                    189.3858642578125
                ],
                [
                    392.0460510253906,
                    391.4322814941406,
                    226.27052307128906
                ],
                [
                    206.5504608154297,
                    375.0674133300781,
                    412.5903015136719
                ],
                [
                    196.29336547851562,
                    332.4975280761719,
                    452.9458923339844
                ],
                [
                    81.40184783935547,
                    383.8077697753906,
                    -448.30780029296875
                ],
                [
                    59.5754280090332,
                    333.1576232910156,
                    -490.078369140625
                ],
                [
                    21.536325454711914,
                    362.3242492675781,
                    -472.57965087890625
                ],
                [
                    445.0816650390625,
                    389.0665283203125,
                    95.65118408203125
                ],
                [
                    493.86346435546875,
                    329.5414123535156,
                    76.126953125
                ],
                [
                    461.4779052734375,
                    377.5399169921875,
                    50.67280960083008
                ],
                [
                    -80.13856506347656,
                    291.76483154296875,
                    -512.3828125
                ],
                [
                    -137.53994750976562,
                    289.8060302734375,
                    -501.28118896484375
                ],
                [
                    -98.35578918457031,
                    313.2013854980469,
                    -496.7868957519531
                ],
                [
                    -262.60089111328125,
                    295.59967041015625,
                    447.71636962890625
                ],
                [
                    -339.1439514160156,
                    256.04864501953125,
                    420.0293273925781
                ],
                [
                    -253.96348571777344,
                    263.0682678222656,
                    472.6456298828125
                ],
                [
                    459.34521484375,
                    337.8812255859375,
                    -148.70852661132812
                ],
                [
                    439.51324462890625,
                    358.8101806640625,
                    -153.18701171875
                ],
                [
                    502.9075622558594,
                    313.7198181152344,
                    -76.69141387939453
                ],
                [
                    501.6453857421875,
                    303.1278991699219,
                    -119.97291564941406
                ],
                [
                    222.21624755859375,
                    304.2224426269531,
                    -460.9965515136719
                ],
                [
                    135.5210723876953,
                    335.0322265625,
                    -473.6003723144531
                ],
                [
                    227.24484252929688,
                    249.64637756347656,
                    -491.6531982421875
                ],
                [
                    135.24520874023438,
                    279.04388427734375,
                    -509.29034423828125
                ],
                [
                    -114.1172103881836,
                    281.6383361816406,
                    513.313720703125
                ],
                [
                    -89.03736114501953,
                    213.9677276611328,
                    549.1704711914062
                ],
                [
                    -82.8894271850586,
                    266.5055847167969,
                    527.0237426757812
                ],
                [
                    -153.90623474121094,
                    276.72900390625,
                    506.07672119140625
                ],
                [
                    419.6929931640625,
                    308.5172424316406,
                    -292.9086608886719
                ],
                [
                    388.212890625,
                    338.64593505859375,
                    -301.4646301269531
                ],
                [
                    403.4345703125,
                    271.3420715332031,
                    -346.00164794921875
                ],
                [
                    382.9550476074219,
                    303.0725402832031,
                    -342.8379821777344
                ],
                [
                    300.8441467285156,
                    298.4832763671875,
                    419.9739990234375
                ],
                [
                    366.9459228515625,
                    215.12399291992188,
                    420.3143310546875
                ],
                [
                    310.92620849609375,
                    238.46994018554688,
                    450.4897766113281
                ],
                [
                    49.72317123413086,
                    227.51522827148438,
                    -547.570068359375
                ],
                [
                    5.922511577606201,
                    213.25698852539062,
                    -555.0545654296875
                ],
                [
                    525.067138671875,
                    276.8197021484375,
                    -68.94942474365234
                ],
                [
                    519.8040771484375,
                    290.3782653808594,
                    -46.54787826538086
                ],
                [
                    535.7194213867188,
                    262.5763244628906,
                    26.63593101501465
                ],
                [
                    -412.3240051269531,
                    201.31893920898438,
                    -379.796875
                ],
                [
                    -472.1879577636719,
                    228.939208984375,
                    -285.8262634277344
                ],
                [
                    -475.0182800292969,
                    196.6585235595703,
                    -304.67242431640625
                ],
                [
                    6.101282119750977,
                    236.849365234375,
                    547.538818359375
                ],
                [
                    12.625689506530762,
                    191.86033630371094,
                    564.7914428710938
                ],
                [
                    113.89315795898438,
                    179.6414031982422,
                    557.1233520507812
                ],
                [
                    86.77769470214844,
                    269.369873046875,
                    524.8866577148438
                ],
                [
                    256.93463134765625,
                    211.6061248779297,
                    -495.0196228027344
                ],
                [
                    294.9874267578125,
                    227.3742218017578,
                    -465.3102111816406
                ],
                [
                    269.4969787597656,
                    235.69956970214844,
                    -476.6667175292969
                ],
                [
                    310.5709533691406,
                    284.6579284667969,
                    -420.83978271484375
                ],
                [
                    -538.8475952148438,
                    223.46607971191406,
                    125.56937408447266
                ],
                [
                    -553.5935668945312,
                    167.4999237060547,
                    146.541015625
                ],
                [
                    432.458740234375,
                    251.15951538085938,
                    331.39508056640625
                ],
                [
                    479.1424865722656,
                    287.284423828125,
                    218.55340576171875
                ],
                [
                    -556.4152221679688,
                    105.51050567626953,
                    -192.83856201171875
                ],
                [
                    -544.8834228515625,
                    127.67037963867188,
                    -212.24302673339844
                ],
                [
                    -530.8241577148438,
                    216.43402099609375,
                    -170.0256805419922
                ],
                [
                    259.7899169921875,
                    176.1729736328125,
                    507.0278015136719
                ],
                [
                    267.9743957519531,
                    209.59117126464844,
                    489.63153076171875
                ],
                [
                    555.9796752929688,
                    195.3024444580078,
                    102.9880599975586
                ],
                [
                    547.853271484375,
                    224.78265380859375,
                    83.2378921508789
                ],
                [
                    520.9530029296875,
                    275.19000244140625,
                    104.97361755371094
                ],
                [
                    -362.5545959472656,
                    102.98119354248047,
                    -453.7897644042969
                ],
                [
                    -366.87982177734375,
                    204.57383728027344,
                    -420.2616271972656
                ],
                [
                    -340.1114807128906,
                    177.63336181640625,
                    -452.8210754394531
                ],
                [
                    -333.8044128417969,
                    120.02552032470703,
                    -475.90106201171875
                ],
                [
                    -588.3184204101562,
                    97.90180969238281,
                    33.16281509399414
                ],
                [
                    -584.33447265625,
                    117.35655975341797,
                    -47.325679779052734
                ],
                [
                    233.37716674804688,
                    118.3648452758789,
                    -538.331787109375
                ],
                [
                    226.4852752685547,
                    219.50741577148438,
                    -506.3399353027344
                ],
                [
                    508.966064453125,
                    156.1676025390625,
                    276.4812316894531
                ],
                [
                    541.341796875,
                    123.07013702392578,
                    223.40032958984375
                ],
                [
                    500.5439758300781,
                    245.77328491210938,
                    221.34332275390625
                ],
                [
                    462.2083740234375,
                    175.46011352539062,
                    -334.5362548828125
                ],
                [
                    520.4096069335938,
                    127.24495697021484,
                    -261.6498718261719
                ],
                [
                    502.6325378417969,
                    163.80804443359375,
                    -276.6752624511719
                ],
                [
                    473.53857421875,
                    144.04893493652344,
                    -333.5157470703125
                ],
                [
                    331.485595703125,
                    102.13572692871094,
                    486.93792724609375
                ],
                [
                    378.39013671875,
                    103.04401397705078,
                    451.4237365722656
                ],
                [
                    338.1106872558594,
                    133.1963348388672,
                    464.3023376464844
                ],
                [
                    301.1941223144531,
                    166.49667358398438,
                    487.873046875
                ],
                [
                    -447.0914001464844,
                    52.84172058105469,
                    392.1912841796875
                ],
                [
                    -415.4964904785156,
                    43.48875427246094,
                    427.30389404296875
                ],
                [
                    -431.78204345703125,
                    103.37413024902344,
                    400.1042785644531
                ],
                [
                    -472.11834716796875,
                    39.02641296386719,
                    363.0233154296875
                ],
                [
                    -592.4559326171875,
                    42.00552749633789,
                    61.71225357055664
                ],
                [
                    -593.7181396484375,
                    -27.46401023864746,
                    52.271766662597656
                ],
                [
                    -586.5625610351562,
                    29.98463249206543,
                    105.21652221679688
                ],
                [
                    -596.0499267578125,
                    24.97941017150879,
                    26.11191749572754
                ],
                [
                    -192.54103088378906,
                    63.697509765625,
                    -559.076904296875
                ],
                [
                    -133.256103515625,
                    93.84844970703125,
                    -572.176025390625
                ],
                [
                    -150.2088165283203,
                    57.9941520690918,
                    -572.78076171875
                ],
                [
                    -169.10043334960938,
                    31.925119400024414,
                    -569.6626586914062
                ],
                [
                    -272.47967529296875,
                    23.904481887817383,
                    531.1310424804688
                ],
                [
                    -241.7699737548828,
                    23.62261962890625,
                    545.9845581054688
                ],
                [
                    159.20993041992188,
                    52.777442932128906,
                    -574.5406494140625
                ],
                [
                    211.1114044189453,
                    96.56226348876953,
                    -551.8381958007812
                ],
                [
                    238.22216796875,
                    74.22102355957031,
                    -544.3944091796875
                ],
                [
                    134.6501007080078,
                    120.77532196044922,
                    -569.5701904296875
                ],
                [
                    -42.34555435180664,
                    16.51478385925293,
                    595.792236328125
                ],
                [
                    -102.53870391845703,
                    36.48200607299805,
                    587.6176147460938
                ],
                [
                    -86.56959533691406,
                    76.55353546142578,
                    586.0592651367188
                ],
                [
                    -595.7509765625,
                    -26.587175369262695,
                    -35.66237258911133
                ],
                [
                    -593.5035400390625,
                    -1.2800427675247192,
                    -69.29999542236328
                ],
                [
                    -594.3558349609375,
                    47.222251892089844,
                    -42.49058532714844
                ],
                [
                    -595.9820556640625,
                    -33.07276153564453,
                    19.29346466064453
                ],
                [
                    407.2825622558594,
                    49.26007080078125,
                    434.9151306152344
                ],
                [
                    427.455322265625,
                    49.310489654541016,
                    415.4192199707031
                ],
                [
                    403.444091796875,
                    6.597782611846924,
                    441.5059509277344
                ],
                [
                    -409.3141174316406,
                    -67.95565795898438,
                    430.2677917480469
                ],
                [
                    -386.5212707519531,
                    -6.930826663970947,
                    456.6665954589844
                ],
                [
                    -374.2721252441406,
                    -50.36986541748047,
                    463.43939208984375
                ],
                [
                    -426.5502014160156,
                    -2.8629188537597656,
                    418.5026550292969
                ],
                [
                    592.5762329101562,
                    31.603363037109375,
                    -51.652740478515625
                ],
                [
                    583.3532104492188,
                    68.8428726196289,
                    -99.15272521972656
                ],
                [
                    582.0270385742188,
                    100.83564758300781,
                    -12.565275192260742
                ],
                [
                    588.741943359375,
                    77.93675994873047,
                    -49.112770080566406
                ],
                [
                    -496.8570556640625,
                    -39.87297439575195,
                    -328.0970153808594
                ],
                [
                    -439.82666015625,
                    34.569786071777344,
                    -401.77532958984375
                ],
                [
                    -456.5339050292969,
                    -17.56691551208496,
                    -383.6150207519531
                ],
                [
                    77.35174560546875,
                    72.27802276611328,
                    586.7069702148438
                ],
                [
                    165.6691131591797,
                    -25.458404541015625,
                    573.600341796875
                ],
                [
                    124.55685424804688,
                    -42.07749938964844,
                    582.64501953125
                ],
                [
                    345.54443359375,
                    50.609344482421875,
                    -485.4482727050781
                ],
                [
                    323.6908874511719,
                    16.485538482666016,
                    -502.3785705566406
                ],
                [
                    283.5514831542969,
                    28.454076766967773,
                    -526.0045776367188
                ],
                [
                    -579.824951171875,
                    -10.951640129089355,
                    138.54257202148438
                ],
                [
                    -566.7329711914062,
                    -40.407676696777344,
                    180.18397521972656
                ],
                [
                    -559.6300048828125,
                    -84.47858428955078,
                    186.676513671875
                ],
                [
                    511.63836669921875,
                    6.382025718688965,
                    307.01849365234375
                ],
                [
                    542.0272827148438,
                    69.02384948730469,
                    241.66452026367188
                ],
                [
                    549.4862670898438,
                    -0.4947572946548462,
                    -229.36598205566406
                ],
                [
                    550.95556640625,
                    48.72096633911133,
                    -220.19752502441406
                ],
                [
                    529.5394897460938,
                    73.10871124267578,
                    -261.99639892578125
                ],
                [
                    593.0010986328125,
                    -3.897810697555542,
                    48.79117965698242
                ],
                [
                    398.01513671875,
                    -30.768381118774414,
                    -443.0473327636719
                ],
                [
                    372.5081481933594,
                    7.690191268920898,
                    -466.3548889160156
                ],
                [
                    440.232666015625,
                    -62.62769317626953,
                    -397.4006652832031
                ],
                [
                    447.7090148925781,
                    43.222713470458984,
                    -392.08013916015625
                ],
                [
                    -589.7178955078125,
                    -94.4123764038086,
                    5.157369136810303
                ],
                [
                    -588.7111206054688,
                    -93.98737335205078,
                    31.358354568481445
                ],
                [
                    -582.6679077148438,
                    -89.68356323242188,
                    90.09407806396484
                ],
                [
                    -116.31156158447266,
                    -109.44176483154297,
                    -574.2507934570312
                ],
                [
                    -119.76050567626953,
                    -49.765254974365234,
                    -582.1400146484375
                ],
                [
                    -301.3808898925781,
                    -103.73387908935547,
                    505.09417724609375
                ],
                [
                    -295.3790283203125,
                    -64.45238494873047,
                    515.539794921875
                ],
                [
                    -366.1591796875,
                    -109.67645263671875,
                    458.93505859375
                ],
                [
                    -335.1266784667969,
                    -51.15381622314453,
                    492.3438720703125
                ],
                [
                    561.287353515625,
                    -35.573753356933594,
                    -194.44686889648438
                ],
                [
                    579.5964965820312,
                    -61.332359313964844,
                    -123.54063415527344
                ],
                [
                    -524.1514892578125,
                    -82.07859802246094,
                    272.49163818359375
                ],
                [
                    -538.067626953125,
                    -132.1656494140625,
                    221.64427185058594
                ],
                [
                    -507.6780700683594,
                    -159.34548950195312,
                    268.8318176269531
                ],
                [
                    -545.0267944335938,
                    -59.71951675415039,
                    233.61114501953125
                ],
                [
                    -286.0035400390625,
                    -123.08763885498047,
                    -505.8858337402344
                ],
                [
                    -233.89222717285156,
                    -123.97306823730469,
                    -532.7037963867188
                ],
                [
                    -222.4783477783203,
                    -50.00577926635742,
                    -549.1818237304688
                ],
                [
                    -274.3205261230469,
                    -99.52496337890625,
                    -518.0199584960938
                ],
                [
                    -389.50958251953125,
                    -214.88525390625,
                    -392.42034912109375
                ],
                [
                    -452.4030456542969,
                    -141.21072387695312,
                    -359.5177001953125
                ],
                [
                    -446.9440612792969,
                    -175.67041015625,
                    -350.1348876953125
                ],
                [
                    -397.53314208984375,
                    -144.99264526367188,
                    -416.06048583984375
                ],
                [
                    48.92604064941406,
                    -154.1288604736328,
                    570.6558837890625
                ],
                [
                    78.76402282714844,
                    -128.06903076171875,
                    578.0253295898438
                ],
                [
                    29.848712921142578,
                    -60.82530975341797,
                    593.4517211914062
                ],
                [
                    -535.8864135742188,
                    -233.85714721679688,
                    118.83106994628906
                ],
                [
                    -545.368408203125,
                    -192.65174865722656,
                    146.98252868652344
                ],
                [
                    -536.5770263671875,
                    -192.0479736328125,
                    177.078125
                ],
                [
                    -556.1728515625,
                    -204.9965362548828,
                    68.92068481445312
                ],
                [
                    473.59429931640625,
                    -105.3781509399414,
                    350.4775085449219
                ],
                [
                    505.15936279296875,
                    -137.69288635253906,
                    289.54150390625
                ],
                [
                    527.757568359375,
                    -71.6854248046875,
                    270.51287841796875
                ],
                [
                    -264.11346435546875,
                    -106.61973571777344,
                    524.91650390625
                ],
                [
                    -235.31527709960938,
                    -156.10421752929688,
                    525.6974487304688
                ],
                [
                    -189.8614044189453,
                    -138.28884887695312,
                    549.1494140625
                ],
                [
                    -520.1250610351562,
                    -213.31251525878906,
                    -200.2267608642578
                ],
                [
                    -517.1114501953125,
                    -237.17617797851562,
                    -180.88876342773438
                ],
                [
                    277.4625549316406,
                    -188.525634765625,
                    491.90838623046875
                ],
                [
                    273.643798828125,
                    -101.32147216796875,
                    519.8757934570312
                ],
                [
                    215.11141967773438,
                    -94.19842529296875,
                    548.7449951171875
                ],
                [
                    145.41390991210938,
                    -181.26922607421875,
                    -549.1080322265625
                ],
                [
                    115.4684829711914,
                    -181.9940643310547,
                    -556.0514526367188
                ],
                [
                    185.77415466308594,
                    -189.4615478515625,
                    -533.8027954101562
                ],
                [
                    131.42088317871094,
                    -119.72493743896484,
                    -570.9092407226562
                ],
                [
                    -59.99439239501953,
                    -129.83216857910156,
                    580.1974487304688
                ],
                [
                    -76.67216491699219,
                    -184.2805938720703,
                    562.301513671875
                ],
                [
                    -3.1800854206085205,
                    -223.35902404785156,
                    550.8347778320312
                ],
                [
                    -559.204833984375,
                    -204.28799438476562,
                    30.973421096801758
                ],
                [
                    -528.869873046875,
                    -271.3315124511719,
                    25.194812774658203
                ],
                [
                    -533.8490600585938,
                    -262.01104736328125,
                    -27.83677101135254
                ],
                [
                    -537.4656982421875,
                    -252.75201416015625,
                    42.40581512451172
                ],
                [
                    18.06205177307129,
                    -147.23609924316406,
                    -578.0161743164062
                ],
                [
                    26.44156837463379,
                    -233.0368194580078,
                    -546.56640625
                ],
                [
                    -81.55284881591797,
                    -172.18093872070312,
                    -564.5497436523438
                ],
                [
                    -68.65161895751953,
                    -214.55368041992188,
                    -550.5621337890625
                ],
                [
                    -473.9250183105469,
                    -234.7251434326172,
                    -275.2056579589844
                ],
                [
                    -442.0091247558594,
                    -274.0340576171875,
                    -291.5167541503906
                ],
                [
                    -473.3182678222656,
                    -179.38400268554688,
                    -312.74676513671875
                ],
                [
                    317.3607482910156,
                    -223.79026794433594,
                    -450.84295654296875
                ],
                [
                    268.0021057128906,
                    -236.90670776367188,
                    -474.5594787597656
                ],
                [
                    335.6416931152344,
                    -131.52545166015625,
                    -475.149169921875
                ],
                [
                    -497.3215637207031,
                    -233.86114501953125,
                    229.28610229492188
                ],
                [
                    -489.3828125,
                    -257.9065856933594,
                    220.07542419433594
                ],
                [
                    -520.2465209960938,
                    -234.87579345703125,
                    172.3826141357422
                ],
                [
                    -499.2240905761719,
                    -281.5889587402344,
                    125.13758850097656
                ],
                [
                    507.2009582519531,
                    -213.416015625,
                    235.05307006835938
                ],
                [
                    523.19287109375,
                    -201.57235717773438,
                    207.69888305664062
                ],
                [
                    -523.212646484375,
                    -267.0839538574219,
                    -101.59883880615234
                ],
                [
                    -521.1459350585938,
                    -280.1463317871094,
                    -70.957275390625
                ],
                [
                    78.946044921875,
                    -234.36227416992188,
                    -540.8687744140625
                ],
                [
                    108.95397186279297,
                    -255.85438537597656,
                    -524.8232421875
                ],
                [
                    135.9011993408203,
                    -269.87371826171875,
                    -510.8426208496094
                ],
                [
                    -378.8886413574219,
                    -248.47804260253906,
                    386.6647644042969
                ],
                [
                    -359.4620361328125,
                    -329.362548828125,
                    342.8479309082031
                ],
                [
                    -392.56207275390625,
                    -316.6595458984375,
                    317.9028625488281
                ],
                [
                    547.8421630859375,
                    -235.58155822753906,
                    19.667882919311523
                ],
                [
                    565.2567749023438,
                    -184.1812286376953,
                    48.96866989135742
                ],
                [
                    571.4739990234375,
                    -170.7779083251953,
                    -15.511636734008789
                ],
                [
                    -320.356201171875,
                    -294.7196350097656,
                    -403.5133056640625
                ],
                [
                    -298.970947265625,
                    -339.2364501953125,
                    -384.60595703125
                ],
                [
                    -388.9029846191406,
                    -262.5692443847656,
                    -365.6644592285156
                ],
                [
                    46.887332916259766,
                    -299.95989990234375,
                    512.4559326171875
                ],
                [
                    33.31396484375,
                    -207.15603637695312,
                    546.916015625
                ],
                [
                    371.09613037109375,
                    -250.27272033691406,
                    -391.6339111328125
                ],
                [
                    390.0491638183594,
                    -211.97921752929688,
                    -396.6654357910156
                ],
                [
                    397.2309265136719,
                    -169.93606567382812,
                    -409.985595703125
                ],
                [
                    334.17291259765625,
                    -258.447021484375,
                    -417.9757080078125
                ],
                [
                    -486.7611389160156,
                    -315.3157653808594,
                    105.04075622558594
                ],
                [
                    -477.6799621582031,
                    -350.23846435546875,
                    44.915409088134766
                ],
                [
                    -506.6456604003906,
                    -310.4113464355469,
                    16.763742446899414
                ],
                [
                    -517.29248046875,
                    -279.7115478515625,
                    92.46385192871094
                ],
                [
                    425.8367614746094,
                    -291.0181884765625,
                    300.40728759765625
                ],
                [
                    465.7594909667969,
                    -215.1367950439453,
                    307.0522155761719
                ],
                [
                    -80.48255920410156,
                    -254.52403259277344,
                    -530.9561767578125
                ],
                [
                    -27.898582458496094,
                    -279.03094482421875,
                    -523.837646484375
                ],
                [
                    -124.78987121582031,
                    -258.6112976074219,
                    -519.8701171875
                ],
                [
                    -97.54241180419922,
                    -301.5479431152344,
                    -502.53997802734375
                ],
                [
                    -297.9981384277344,
                    -308.5946350097656,
                    412.16064453125
                ],
                [
                    -222.31063842773438,
                    -308.4644470214844,
                    457.2920227050781
                ],
                [
                    -250.00143432617188,
                    -304.5023193359375,
                    445.74310302734375
                ],
                [
                    523.7252807617188,
                    -249.0333251953125,
                    -141.42417907714844
                ],
                [
                    516.6804809570312,
                    -234.88282775878906,
                    -183.2783660888672
                ],
                [
                    -449.0760192871094,
                    -299.9105224609375,
                    251.7509002685547
                ],
                [
                    -435.09466552734375,
                    -346.86578369140625,
                    211.49664306640625
                ],
                [
                    -472.1802673339844,
                    -307.0570983886719,
                    193.5902557373047
                ],
                [
                    -472.4560546875,
                    -323.60418701171875,
                    156.28433227539062
                ],
                [
                    -485.7622375488281,
                    -339.701416015625,
                    -47.1717529296875
                ],
                [
                    -456.41143798828125,
                    -365.3289794921875,
                    -115.33174896240234
                ],
                [
                    -472.0776062011719,
                    -359.8627624511719,
                    0.968512773513794
                ],
                [
                    -441.1032409667969,
                    -390.12353515625,
                    -83.53179931640625
                ],
                [
                    -289.65350341796875,
                    -394.8528747558594,
                    338.91864013671875
                ],
                [
                    -327.9388427734375,
                    -329.9057312011719,
                    371.7922058105469
                ],
                [
                    -273.4124450683594,
                    -355.4975891113281,
                    391.1319885253906
                ],
                [
                    532.0156860351562,
                    -270.3767395019531,
                    11.144124984741211
                ],
                [
                    532.4325561523438,
                    -258.3709716796875,
                    -78.1908187866211
                ],
                [
                    494.6317443847656,
                    -330.333251953125,
                    -49.792091369628906
                ],
                [
                    522.1934814453125,
                    -287.3779296875,
                    -39.15428161621094
                ],
                [
                    -322.8430480957031,
                    -404.9953918457031,
                    -294.13287353515625
                ],
                [
                    -350.8104248046875,
                    -345.481201171875,
                    -334.1988830566406
                ],
                [
                    -319.0917053222656,
                    -385.916748046875,
                    -320.51202392578125
                ],
                [
                    80.47123718261719,
                    -320.9398498535156,
                    495.05316162109375
                ],
                [
                    58.189064025878906,
                    -347.0733642578125,
                    480.2655029296875
                ],
                [
                    73.78280639648438,
                    -295.96563720703125,
                    511.7852478027344
                ],
                [
                    -460.68878173828125,
                    -350.21783447265625,
                    137.89871215820312
                ],
                [
                    -453.55938720703125,
                    -368.0304870605469,
                    111.1907730102539
                ],
                [
                    -470.55279541015625,
                    -350.61505126953125,
                    94.19619750976562
                ],
                [
                    453.54241943359375,
                    -313.9617614746094,
                    229.38870239257812
                ],
                [
                    486.9281005859375,
                    -284.3828430175781,
                    197.2954559326172
                ],
                [
                    409.1930236816406,
                    -329.57012939453125,
                    281.8951416015625
                ],
                [
                    414.5706481933594,
                    -378.6346740722656,
                    202.85202026367188
                ],
                [
                    -92.7494125366211,
                    -353.4914855957031,
                    -469.08209228515625
                ],
                [
                    -182.6962890625,
                    -383.97955322265625,
                    -413.3453063964844
                ],
                [
                    -179.03794860839844,
                    -354.1557312011719,
                    -441.4214782714844
                ],
                [
                    -72.42854309082031,
                    -336.98114013671875,
                    -484.53790283203125
                ],
                [
                    288.47930908203125,
                    -360.50799560546875,
                    373.6170654296875
                ],
                [
                    198.39483642578125,
                    -404.7069091796875,
                    386.036376953125
                ],
                [
                    242.69325256347656,
                    -377.6741943359375,
                    388.5900573730469
                ],
                [
                    200.25827026367188,
                    -340.703857421875,
                    443.3211669921875
                ],
                [
                    128.33934020996094,
                    -372.919677734375,
                    -442.7664489746094
                ],
                [
                    89.0028305053711,
                    -376.23760986328125,
                    -450.14739990234375
                ],
                [
                    161.15789794921875,
                    -379.3832092285156,
                    -426.43719482421875
                ],
                [
                    -390.8941345214844,
                    -374.6337585449219,
                    246.59947204589844
                ],
                [
                    -291.3620300292969,
                    -457.5936584472656,
                    217.33779907226562
                ],
                [
                    -340.66455078125,
                    -410.245849609375,
                    242.83837890625
                ],
                [
                    -359.6997375488281,
                    -393.8244934082031,
                    264.5431213378906
                ],
                [
                    445.23773193359375,
                    -393.9674987792969,
                    36.472774505615234
                ],
                [
                    488.83990478515625,
                    -333.51251220703125,
                    74.41319274902344
                ],
                [
                    482.2346496582031,
                    -349.6056823730469,
                    28.15659523010254
                ],
                [
                    511.2298583984375,
                    -302.2469482421875,
                    58.33341598510742
                ],
                [
                    -225.43161010742188,
                    -448.23919677734375,
                    -319.59527587890625
                ],
                [
                    -299.63592529296875,
                    -424.9880065917969,
                    -290.5755310058594
                ],
                [
                    -279.05279541015625,
                    -416.9058532714844,
                    -319.6930847167969
                ],
                [
                    -196.1868896484375,
                    -458.3152160644531,
                    -324.3670654296875
                ],
                [
                    -16.3685245513916,
                    -421.509521484375,
                    420.23272705078125
                ],
                [
                    -38.11442184448242,
                    -385.9334411621094,
                    451.602783203125
                ],
                [
                    390.591064453125,
                    -301.5961608886719,
                    -330.37005615234375
                ],
                [
                    386.12158203125,
                    -369.1576843261719,
                    -261.6366882324219
                ],
                [
                    358.0513000488281,
                    -372.9109802246094,
                    -293.478271484375
                ],
                [
                    339.803955078125,
                    -341.4114990234375,
                    -331.9291076660156
                ],
                [
                    -369.3316345214844,
                    -459.96917724609375,
                    65.17682647705078
                ],
                [
                    -397.0728454589844,
                    -436.908447265625,
                    59.90584945678711
                ],
                [
                    -392.5150451660156,
                    -444.4869689941406,
                    -33.66425704956055
                ],
                [
                    37.791282653808594,
                    -368.62640380859375,
                    -464.1866149902344
                ],
                [
                    -46.53239440917969,
                    -391.5706787109375,
                    -445.244384765625
                ],
                [
                    -40.62024688720703,
                    -372.4054870605469,
                    -462.00128173828125
                ],
                [
                    424.5716857910156,
                    -406.2320251464844,
                    -88.88153076171875
                ],
                [
                    451.20977783203125,
                    -385.2134094238281,
                    -50.99848175048828
                ],
                [
                    -346.93963623046875,
                    -440.9971008300781,
                    171.93649291992188
                ],
                [
                    -332.9940185546875,
                    -468.7293395996094,
                    147.40713500976562
                ],
                [
                    404.47412109375,
                    -419.8780517578125,
                    122.69678497314453
                ],
                [
                    454.6074523925781,
                    -345.5400695800781,
                    175.651611328125
                ],
                [
                    377.02813720703125,
                    -425.854736328125,
                    174.84951782226562
                ],
                [
                    -149.24453735351562,
                    -415.7340087890625,
                    -396.1689147949219
                ],
                [
                    -94.87834930419922,
                    -477.0829772949219,
                    -341.0136413574219
                ],
                [
                    -129.72048950195312,
                    -449.21417236328125,
                    -365.43450927734375
                ],
                [
                    -80.26797485351562,
                    -463.69122314453125,
                    364.8348693847656
                ],
                [
                    -30.044984817504883,
                    -480.366943359375,
                    350.57049560546875
                ],
                [
                    -124.66634368896484,
                    -465.5877685546875,
                    349.2032775878906
                ],
                [
                    -76.41913604736328,
                    -443.95062255859375,
                    389.1477966308594
                ],
                [
                    326.2516784667969,
                    -444.90911865234375,
                    -224.06564331054688
                ],
                [
                    406.4920654296875,
                    -374.97283935546875,
                    -221.30470275878906
                ],
                [
                    353.8684997558594,
                    -407.7814636230469,
                    -249.85415649414062
                ],
                [
                    263.2991943359375,
                    -455.1986389160156,
                    272.46728515625
                ],
                [
                    299.0669860839844,
                    -400.69793701171875,
                    320.4714660644531
                ],
                [
                    380.3187561035156,
                    -455.0262145996094,
                    42.6235237121582
                ],
                [
                    411.3798828125,
                    -429.74273681640625,
                    11.71764087677002
                ],
                [
                    389.5437316894531,
                    -449.71661376953125,
                    -10.294994354248047
                ],
                [
                    225.07626342773438,
                    -450.8464050292969,
                    -318.8858947753906
                ],
                [
                    217.1658172607422,
                    -478.9958190917969,
                    -281.1752624511719
                ],
                [
                    279.1822509765625,
                    -466.5959167480469,
                    -242.77088928222656
                ],
                [
                    308.1974182128906,
                    -401.15155029296875,
                    -313.4228210449219
                ],
                [
                    -300.893798828125,
                    -501.8619384765625,
                    98.56867218017578
                ],
                [
                    -348.7359313964844,
                    -473.2121276855469,
                    80.86934661865234
                ],
                [
                    -326.81585693359375,
                    -496.0303955078125,
                    3.0624513626098633
                ],
                [
                    350.5907897949219,
                    -441.8690490722656,
                    185.6687774658203
                ],
                [
                    314.25439453125,
                    -442.18206787109375,
                    239.35916137695312
                ],
                [
                    329.2903137207031,
                    -458.6679992675781,
                    150.12991333007812
                ],
                [
                    285.9035339355469,
                    -470.04656982421875,
                    218.86509704589844
                ],
                [
                    -20.171972274780273,
                    -463.70074462890625,
                    -371.7159423828125
                ],
                [
                    -14.799407958984375,
                    -525.71142578125,
                    -279.6157531738281
                ],
                [
                    -37.67506790161133,
                    -480.93988037109375,
                    -348.0521240234375
                ],
                [
                    -97.68340301513672,
                    -492.45782470703125,
                    -318.23065185546875
                ],
                [
                    -66.7735595703125,
                    -511.4518127441406,
                    297.44512939453125
                ],
                [
                    -158.768798828125,
                    -470.57403564453125,
                    327.9801940917969
                ],
                [
                    -162.81983947753906,
                    -508.7598571777344,
                    263.6055908203125
                ],
                [
                    167.60952758789062,
                    -512.4650268554688,
                    -254.9930877685547
                ],
                [
                    117.32770538330078,
                    -476.7574462890625,
                    -338.8207702636719
                ],
                [
                    131.77389526367188,
                    -528.7443237304688,
                    -242.46621704101562
                ],
                [
                    86.81387329101562,
                    -485.235107421875,
                    -335.7605285644531
                ],
                [
                    308.7569580078125,
                    -508.0595703125,
                    9.593120574951172
                ],
                [
                    355.861572265625,
                    -469.6328430175781,
                    74.8877944946289
                ],
                [
                    293.1083679199219,
                    -500.017578125,
                    97.09440612792969
                ],
                [
                    -135.84713745117188,
                    -514.3131103515625,
                    -267.5009765625
                ],
                [
                    -122.15458679199219,
                    -546.96142578125,
                    -202.52313232421875
                ],
                [
                    -59.24515151977539,
                    -518.5258178710938,
                    -285.9021301269531
                ],
                [
                    -63.85536193847656,
                    -560.4878540039062,
                    -192.19781494140625
                ],
                [
                    263.2563781738281,
                    -514.9223022460938,
                    -116.24229431152344
                ],
                [
                    301.6669616699219,
                    -498.4692077636719,
                    -121.16864776611328
                ],
                [
                    -271.3021240234375,
                    -526.8502807617188,
                    -59.101768493652344
                ],
                [
                    -186.35011291503906,
                    -564.6678466796875,
                    28.347747802734375
                ],
                [
                    187.64671325683594,
                    -522.1654052734375,
                    207.79873657226562
                ],
                [
                    185.18150329589844,
                    -540.953125,
                    155.78170776367188
                ],
                [
                    259.45654296875,
                    -515.0088500976562,
                    128.7979278564453
                ],
                [
                    165.97299194335938,
                    -555.1026000976562,
                    125.98363494873047
                ],
                [
                    63.86025619506836,
                    -554.254150390625,
                    -211.25436401367188
                ],
                [
                    -24.103492736816406,
                    -556.384765625,
                    -211.93472290039062
                ],
                [
                    49.56954574584961,
                    -573.484375,
                    146.625732421875
                ],
                [
                    142.90110778808594,
                    -543.1334228515625,
                    189.25547790527344
                ],
                [
                    83.20906829833984,
                    -533.09423828125,
                    246.32664489746094
                ],
                [
                    97.79544830322266,
                    -558.9554443359375,
                    172.7200469970703
                ],
                [
                    145.1419677734375,
                    -560.4466552734375,
                    -142.27377319335938
                ],
                [
                    109.33304595947266,
                    -548.4244995117188,
                    -207.186279296875
                ],
                [
                    118.80767822265625,
                    -558.6278686523438,
                    -171.7284393310547
                ],
                [
                    117.6430435180664,
                    -568.07861328125,
                    -138.34609985351562
                ],
                [
                    -12.399260520935059,
                    -587.992431640625,
                    93.598876953125
                ],
                [
                    -39.03158950805664,
                    -580.9441528320312,
                    124.84574890136719
                ],
                [
                    37.09259796142578,
                    -588.4903564453125,
                    79.79561614990234
                ],
                [
                    11.111031532287598,
                    -576.3895263671875,
                    138.81617736816406
                ],
                [
                    172.00730895996094,
                    -567.6724853515625,
                    -47.717430114746094
                ],
                [
                    203.65170288085938,
                    -555.121337890625,
                    -66.25580596923828
                ],
                [
                    134.25015258789062,
                    -569.8922119140625,
                    -111.31798553466797
                ],
                [
                    132.34237670898438,
                    -579.879150390625,
                    -21.17417335510254
                ],
                [
                    -251.80413818359375,
                    -538.9366455078125,
                    -21.3160400390625
                ],
                [
                    -194.1212158203125,
                    -560.5174560546875,
                    -54.596031188964844
                ],
                [
                    -292.70953369140625,
                    -516.4237060546875,
                    24.295700073242188
                ],
                [
                    -418.76025390625,
                    122.37606811523438,
                    -405.9434814453125
                ],
                [
                    -394.1385498046875,
                    152.4984893798828,
                    -418.76702880859375
                ],
                [
                    -524.0286865234375,
                    178.51068115234375,
                    -226.8360595703125
                ],
                [
                    -493.635986328125,
                    200.4356689453125,
                    -271.4447021484375
                ],
                [
                    -453.73486328125,
                    171.8957061767578,
                    -347.57293701171875
                ],
                [
                    -463.1317138671875,
                    -91.52104187011719,
                    -364.07666015625
                ],
                [
                    -9.572517395019531,
                    -130.67059326171875,
                    582.8905029296875
                ],
                [
                    -132.40911865234375,
                    -189.708740234375,
                    549.933837890625
                ],
                [
                    -262.8294677734375,
                    402.8739013671875,
                    -350.6641845703125
                ],
                [
                    -22.484237670898438,
                    400.9427490234375,
                    -441.3511962890625
                ],
                [
                    137.2684326171875,
                    397.4166259765625,
                    -421.5538330078125
                ],
                [
                    576.1571044921875,
                    15.134002685546875,
                    -151.27337646484375
                ],
                [
                    586.6689453125,
                    -5.78173828125,
                    -103.4307861328125
                ],
                [
                    586.5626831054688,
                    34.58128356933594,
                    -98.2327880859375
                ],
                [
                    586.608642578125,
                    -12.097412109375,
                    103.88671112060547
                ],
                [
                    595.446044921875,
                    8.76763916015625,
                    -12.150476455688477
                ],
                [
                    584.955810546875,
                    113.023193359375,
                    29.01694107055664
                ],
                [
                    593.2032470703125,
                    50.90472412109375,
                    7.592053413391113
                ],
                [
                    -161.4560546875,
                    -54.921966552734375,
                    -570.985107421875
                ],
                [
                    -18.75140380859375,
                    586.2327880859375,
                    111.52557373046875
                ],
                [
                    -270.78778076171875,
                    506.4215087890625,
                    156.13763427734375
                ],
                [
                    -193.90631103515625,
                    530.56982421875,
                    187.9310302734375
                ],
                [
                    -243.49365234375,
                    510.653076171875,
                    183.300537109375
                ]
            ],
            "landing_zones": {
                "list": [],
                "rules": []
            }
        }
    ]
}