{
    "name": "The Fool's Journey DS 4v4-10v10",
    "description": "Hectic Multiplanet System that supports 2 teams of up to 10 players each. Supports Non-Shared and Shared Armies alike.",
	"version": "2.00",
	"creator": "Dissonant",
	"players":[8, 20],
    "planets": [
        {
            "name": "XXI. The World",
            "mass": 50000,
            "position_x": 20000.001953125,
            "position_y": -0.0029296875,
            "velocity_x": 0.000016249832697212696,
            "velocity_y": 158.11387634277344,
            "required_thrust_to_move": 0,
            "starting_planet": true,
            "respawn": false,
            "start_destroyed": false,
            "min_spawn_delay": 0,
            "max_spawn_delay": 0,
            "planet": {
                "seed": 1498657792,
                "radius": 625,
                "heightRange": 0,
                "waterHeight": 0,
                "waterDepth": 100,
                "temperature": 100,
                "metalDensity": 0,
                "metalClusters": 0,
                "metalSpotLimit": -1,
                "biomeScale": 50,
                "biome": "moon",
                "symmetryType": "terrain and CSG",
                "symmetricalMetal": true,
                "symmetricalStarts": false,
                "numArmies": 2,
                "landingZonesPerArmy": 1,
                "landingZoneSize": 800
            },
            "planetCSG": [
                {
                    "spec": "/pa/terrain/moon/brushes/moon_ruin_01.json",
                    "proj": "BP_Bend",
                    "op": "BO_Add",
                    "position": [
                        0,
                        0,
                        0
                    ],
                    "height": 0,
                    "transform": [
                        0.00009999999747378752,
                        0,
                        0,
                        0,
                        0,
                        0.00009999999747378752,
                        0,
                        0,
                        0,
                        0,
                        0.00009999999747378752,
                        0
                    ],
                    "scale": [
                        0.00009999999747378752,
                        0.00009999999747378752,
                        0.00009999999747378752
                    ],
                    "weight": [
                        0,
                        0,
                        0,
                        0
                    ],
                    "rotation": 0,
                    "weightHard": false,
                    "weightScale": [
                        1,
                        1,
                        1
                    ],
                    "mirrored": false,
                    "twinId": 0,
                    "flooded": false,
                    "pathable": false,
                    "mergeable": false,
                    "no_features": false
                }
            ],
            "metal_spots": [
                [
                    625,
                    0,
                    0
                ],
                [
                    0,
                    625,
                    0
                ],
                [
                    19.880168914794922,
                    589.1162109375,
                    -202.0778350830078
                ],
                [
                    19.880168914794922,
                    589.1162109375,
                    202.0778350830078
                ],
                [
                    42.5263557434082,
                    606.8564453125,
                    -135.08047485351562
                ],
                [
                    42.5263557434082,
                    606.8564453125,
                    135.08047485351562
                ],
                [
                    98.50225830078125,
                    605.705322265625,
                    -112.50882720947266
                ],
                [
                    98.50225830078125,
                    605.705322265625,
                    112.50882720947266
                ],
                [
                    174.408203125,
                    483.138916015625,
                    -356.21563720703125
                ],
                [
                    174.408203125,
                    483.138916015625,
                    356.21563720703125
                ],
                [
                    344.5513916015625,
                    435.6888427734375,
                    -286.35675048828125
                ],
                [
                    344.5513916015625,
                    435.6888427734375,
                    286.35675048828125
                ],
                [
                    387.4023742675781,
                    461.9205322265625,
                    -157.615478515625
                ],
                [
                    387.4023742675781,
                    461.9205322265625,
                    157.615478515625
                ],
                [
                    454.3890075683594,
                    310.9647216796875,
                    -293.4654541015625
                ],
                [
                    454.3890075683594,
                    310.9647216796875,
                    293.4654541015625
                ],
                [
                    529.625,
                    280.452880859375,
                    -169.6659698486328
                ],
                [
                    529.625,
                    280.452880859375,
                    169.6659698486328
                ],
                [
                    582.477294921875,
                    146.3394775390625,
                    -167.69216918945312
                ],
                [
                    582.477294921875,
                    146.3394775390625,
                    167.69216918945312
                ],
                [
                    527.489990234375,
                    -47.142852783203125,
                    -329.27496337890625
                ],
                [
                    527.489990234375,
                    -47.142852783203125,
                    329.27496337890625
                ],
                [
                    594.43310546875,
                    -109.07135009765625,
                    -150.7071990966797
                ],
                [
                    594.43310546875,
                    -109.07135009765625,
                    150.7071990966797
                ],
                [
                    616.295654296875,
                    -69.76519775390625,
                    -41.323028564453125
                ],
                [
                    616.295654296875,
                    -69.76519775390625,
                    41.323028564453125
                ],
                [
                    535.753662109375,
                    303.4052429199219,
                    -96.7876968383789
                ],
                [
                    535.753662109375,
                    303.4052429199219,
                    96.7876968383789
                ],
                [
                    531.8583984375,
                    51.181758880615234,
                    -321.6671142578125
                ],
                [
                    531.8583984375,
                    51.181758880615234,
                    321.6671142578125
                ],
                [
                    367.5150146484375,
                    -27.199005126953125,
                    -502.44677734375
                ],
                [
                    367.5150146484375,
                    -27.199005126953125,
                    502.44677734375
                ],
                [
                    391.1339111328125,
                    -169.1707763671875,
                    -455.330322265625
                ],
                [
                    391.1339111328125,
                    -169.1707763671875,
                    455.330322265625
                ],
                [
                    481.7716064453125,
                    -204.6619873046875,
                    -341.18896484375
                ],
                [
                    481.7716064453125,
                    -204.6619873046875,
                    341.18896484375
                ],
                [
                    260.9432373046875,
                    -431.91552734375,
                    -370.0343933105469
                ],
                [
                    260.9432373046875,
                    -431.91552734375,
                    370.0343933105469
                ],
                [
                    397.4119873046875,
                    -357.12701416015625,
                    -327.90814208984375
                ],
                [
                    397.4119873046875,
                    -357.12701416015625,
                    327.90814208984375
                ],
                [
                    454.101318359375,
                    -373.66357421875,
                    -213.71810913085938
                ],
                [
                    454.101318359375,
                    -373.66357421875,
                    213.71810913085938
                ],
                [
                    310.1029052734375,
                    -518.2030639648438,
                    -157.74070739746094
                ],
                [
                    310.1029052734375,
                    -518.2030639648438,
                    157.74070739746094
                ],
                [
                    255.9090576171875,
                    -563.5594482421875,
                    -78.68904113769531
                ],
                [
                    255.9090576171875,
                    -563.5594482421875,
                    78.68904113769531
                ],
                [
                    170.3201904296875,
                    -581.6541748046875,
                    -143.9185791015625
                ],
                [
                    170.3201904296875,
                    -581.6541748046875,
                    143.9185791015625
                ],
                [
                    125.75848388671875,
                    -567.923095703125,
                    -225.3238983154297
                ],
                [
                    125.75848388671875,
                    -567.923095703125,
                    225.3238983154297
                ],
                [
                    76.7598876953125,
                    -592.9261474609375,
                    -175.53973388671875
                ],
                [
                    76.7598876953125,
                    -592.9261474609375,
                    175.53973388671875
                ],
                [
                    90.95245361328125,
                    -605.07080078125,
                    -116.01141357421875
                ],
                [
                    90.95245361328125,
                    -605.07080078125,
                    116.01141357421875
                ],
                [
                    510.296630859375,
                    -325.3829345703125,
                    -150.70806884765625
                ],
                [
                    510.296630859375,
                    -325.3829345703125,
                    150.70806884765625
                ],
                [
                    552.00634765625,
                    -281.126953125,
                    62.72552490234375
                ],
                [
                    552.00634765625,
                    -281.126953125,
                    -62.72552490234375
                ],
                [
                    567.2359619140625,
                    -193.65338134765625,
                    -173.28982543945312
                ],
                [
                    567.2359619140625,
                    -193.65338134765625,
                    173.28982543945312
                ],
                [
                    475.0843505859375,
                    -376.62188720703125,
                    -146.58355712890625
                ],
                [
                    475.0843505859375,
                    -376.62188720703125,
                    146.58355712890625
                ],
                [
                    394.05108642578125,
                    264.6304931640625,
                    -407.2014465332031
                ],
                [
                    394.05108642578125,
                    264.6304931640625,
                    407.2014465332031
                ],
                [
                    305.31512451171875,
                    338.383056640625,
                    -429.4117126464844
                ],
                [
                    305.31512451171875,
                    338.383056640625,
                    429.4117126464844
                ],
                [
                    163.5341796875,
                    446.55322265625,
                    -405.5068359375
                ],
                [
                    163.5341796875,
                    446.55322265625,
                    405.5068359375
                ],
                [
                    196.1060791015625,
                    145.5806884765625,
                    -574.0430908203125
                ],
                [
                    196.1060791015625,
                    145.5806884765625,
                    574.0430908203125
                ],
                [
                    107.87655639648438,
                    292.825439453125,
                    -541.3389892578125
                ],
                [
                    107.87655639648438,
                    292.825439453125,
                    541.3389892578125
                ],
                [
                    -157.37570190429688,
                    337.3004150390625,
                    -498.00244140625
                ],
                [
                    -157.37570190429688,
                    337.3004150390625,
                    498.00244140625
                ],
                [
                    -63.3565673828125,
                    258.5133056640625,
                    -563.8212280273438
                ],
                [
                    -63.3565673828125,
                    258.5133056640625,
                    563.8212280273438
                ],
                [
                    -89.42324829101562,
                    424.564208984375,
                    -447.8695068359375
                ],
                [
                    -89.42324829101562,
                    424.564208984375,
                    447.8695068359375
                ],
                [
                    17.18804931640625,
                    500.107666015625,
                    -374.146728515625
                ],
                [
                    17.18804931640625,
                    500.107666015625,
                    374.146728515625
                ],
                [
                    -291.2586975097656,
                    177.861083984375,
                    -519.824951171875
                ],
                [
                    -291.2586975097656,
                    177.861083984375,
                    519.824951171875
                ],
                [
                    -215.67628479003906,
                    455.07061767578125,
                    -367.9566650390625
                ],
                [
                    -215.67628479003906,
                    455.07061767578125,
                    367.9566650390625
                ],
                [
                    -316.7506103515625,
                    290.6788330078125,
                    -449.6392822265625
                ],
                [
                    -316.7506103515625,
                    290.6788330078125,
                    449.6392822265625
                ],
                [
                    -368.164306640625,
                    374.91229248046875,
                    -333.82037353515625
                ],
                [
                    -368.164306640625,
                    374.91229248046875,
                    333.82037353515625
                ],
                [
                    -297.9609375,
                    391.263916015625,
                    -380.71771240234375
                ],
                [
                    -297.9609375,
                    391.263916015625,
                    380.71771240234375
                ],
                [
                    -291.606201171875,
                    480.85986328125,
                    -270.7973937988281
                ],
                [
                    -291.606201171875,
                    480.85986328125,
                    270.7973937988281
                ],
                [
                    -236.50341796875,
                    513.205810546875,
                    -264.99078369140625
                ],
                [
                    -236.50341796875,
                    513.205810546875,
                    264.99078369140625
                ],
                [
                    -408.1800537109375,
                    448.8597412109375,
                    -150.0395965576172
                ],
                [
                    -408.1800537109375,
                    448.8597412109375,
                    150.0395965576172
                ],
                [
                    -89.4761962890625,
                    560.7957763671875,
                    -258.8845520019531
                ],
                [
                    -89.4761962890625,
                    560.7957763671875,
                    258.8845520019531
                ],
                [
                    36.5697021484375,
                    571.566162109375,
                    -247.4468231201172
                ],
                [
                    36.5697021484375,
                    571.566162109375,
                    247.4468231201172
                ],
                [
                    -549.73779296875,
                    254.783935546875,
                    -145.13714599609375
                ],
                [
                    -549.73779296875,
                    254.783935546875,
                    145.13714599609375
                ],
                [
                    -401.131591796875,
                    473.1129150390625,
                    -72.2835693359375
                ],
                [
                    -401.131591796875,
                    473.1129150390625,
                    72.2835693359375
                ],
                [
                    -604.4564208984375,
                    27.3809814453125,
                    155.26217651367188
                ],
                [
                    -604.4564208984375,
                    27.3809814453125,
                    -155.26217651367188
                ],
                [
                    -612.812255859375,
                    114.22430419921875,
                    35.4368896484375
                ],
                [
                    -612.812255859375,
                    114.22430419921875,
                    -35.4368896484375
                ],
                [
                    -507.0013427734375,
                    308.79443359375,
                    -192.57089233398438
                ],
                [
                    -507.0013427734375,
                    308.79443359375,
                    192.57089233398438
                ],
                [
                    -536.7852783203125,
                    316.38934326171875,
                    44.96307373046875
                ],
                [
                    -536.7852783203125,
                    316.38934326171875,
                    -44.96307373046875
                ],
                [
                    -520.652099609375,
                    -121.9859390258789,
                    -323.09869384765625
                ],
                [
                    -520.652099609375,
                    -121.9859390258789,
                    323.09869384765625
                ],
                [
                    -560.9326171875,
                    -273.66595458984375,
                    -44.672515869140625
                ],
                [
                    -560.9326171875,
                    -273.66595458984375,
                    44.672515869140625
                ],
                [
                    -470.34326171875,
                    -222.62547302246094,
                    346.06927490234375
                ],
                [
                    -470.34326171875,
                    -222.62547302246094,
                    -346.06927490234375
                ],
                [
                    -506.0186767578125,
                    -367.6468505859375,
                    37.167266845703125
                ],
                [
                    -506.0186767578125,
                    -367.6468505859375,
                    -37.167266845703125
                ],
                [
                    -513.6964111328125,
                    -221.82177734375,
                    -277.9776611328125
                ],
                [
                    -513.6964111328125,
                    -221.82177734375,
                    277.9776611328125
                ],
                [
                    -560.494140625,
                    107.3045654296875,
                    -252.43817138671875
                ],
                [
                    -560.494140625,
                    107.3045654296875,
                    252.43817138671875
                ],
                [
                    -465.6204833984375,
                    -395.24786376953125,
                    -142.43487548828125
                ],
                [
                    -465.6204833984375,
                    -395.24786376953125,
                    142.43487548828125
                ],
                [
                    -524.952392578125,
                    -261.1705322265625,
                    -218.4802703857422
                ],
                [
                    -524.952392578125,
                    -261.1705322265625,
                    218.4802703857422
                ],
                [
                    -257.0741271972656,
                    -540.2957763671875,
                    -184.94415283203125
                ],
                [
                    -257.0741271972656,
                    -540.2957763671875,
                    184.94415283203125
                ],
                [
                    -52.36431884765625,
                    -613.62939453125,
                    -93.34014892578125
                ],
                [
                    -52.36431884765625,
                    -613.62939453125,
                    93.34014892578125
                ],
                [
                    -108.42010498046875,
                    -611.519287109375,
                    -61.18603515625
                ],
                [
                    -108.42010498046875,
                    -611.519287109375,
                    61.18603515625
                ],
                [
                    -258.0794982910156,
                    -565.1295166015625,
                    -77.93048095703125
                ],
                [
                    -258.0794982910156,
                    -565.1295166015625,
                    77.93048095703125
                ],
                [
                    -390.3024597167969,
                    -483.2261962890625,
                    -88.33810424804688
                ],
                [
                    -390.3024597167969,
                    -483.2261962890625,
                    88.33810424804688
                ],
                [
                    -343.93017578125,
                    -523.3958740234375,
                    18.37811279296875
                ],
                [
                    -343.93017578125,
                    -523.3958740234375,
                    -18.37811279296875
                ],
                [
                    110.92950439453125,
                    -612.5608520507812,
                    -20.284042358398438
                ],
                [
                    110.92950439453125,
                    -612.5608520507812,
                    20.284042358398438
                ],
                [
                    -60.11553955078125,
                    -545.0255126953125,
                    -302.280517578125
                ],
                [
                    -60.11553955078125,
                    -545.0255126953125,
                    302.280517578125
                ],
                [
                    -147.68490600585938,
                    -488.2398681640625,
                    -360.95458984375
                ],
                [
                    -147.68490600585938,
                    -488.2398681640625,
                    360.95458984375
                ],
                [
                    59.29718017578125,
                    -437.4703369140625,
                    -443.8785400390625
                ],
                [
                    59.29718017578125,
                    -437.4703369140625,
                    443.8785400390625
                ],
                [
                    -199.70382690429688,
                    -557.5499267578125,
                    -200.97933959960938
                ],
                [
                    -199.70382690429688,
                    -557.5499267578125,
                    200.97933959960938
                ],
                [
                    96.8492431640625,
                    -546.6439208984375,
                    286.6774597167969
                ],
                [
                    96.8492431640625,
                    -546.6439208984375,
                    -286.6774597167969
                ],
                [
                    140.1251220703125,
                    -490.5108642578125,
                    361.30352783203125
                ],
                [
                    140.1251220703125,
                    -490.5108642578125,
                    -361.30352783203125
                ],
                [
                    223.71469116210938,
                    -249.1181640625,
                    527.265380859375
                ],
                [
                    223.71469116210938,
                    -249.1181640625,
                    -527.265380859375
                ],
                [
                    -42.9732666015625,
                    -306.86468505859375,
                    542.7685546875
                ],
                [
                    -42.9732666015625,
                    -306.86468505859375,
                    -542.7685546875
                ],
                [
                    -0.3864126205444336,
                    -208.25730895996094,
                    587.8021240234375
                ],
                [
                    -0.3864126205444336,
                    -208.25730895996094,
                    -587.8021240234375
                ],
                [
                    -138.35671997070312,
                    -65.09579467773438,
                    600.7708740234375
                ],
                [
                    -138.35671997070312,
                    -65.09579467773438,
                    -600.7708740234375
                ],
                [
                    -295.04827880859375,
                    -93.51412963867188,
                    538.4478759765625
                ],
                [
                    -295.04827880859375,
                    -93.51412963867188,
                    -538.4478759765625
                ],
                [
                    -342.15313720703125,
                    70.231201171875,
                    514.4049072265625
                ],
                [
                    -342.15313720703125,
                    70.231201171875,
                    -514.4049072265625
                ],
                [
                    -450.3558349609375,
                    120.29266357421875,
                    414.070556640625
                ],
                [
                    -450.3558349609375,
                    120.29266357421875,
                    -414.070556640625
                ],
                [
                    190.0628662109375,
                    -43.170654296875,
                    592.1632080078125
                ],
                [
                    190.0628662109375,
                    -43.170654296875,
                    -592.1632080078125
                ],
                [
                    41.9351806640625,
                    34.0528564453125,
                    620.0146484375
                ],
                [
                    41.9351806640625,
                    34.0528564453125,
                    -620.0146484375
                ],
                [
                    428.12841796875,
                    64.85601806640625,
                    449.1009521484375
                ],
                [
                    428.12841796875,
                    64.85601806640625,
                    -449.1009521484375
                ],
                [
                    283.13372802734375,
                    220.0875244140625,
                    511.8297119140625
                ],
                [
                    283.13372802734375,
                    220.0875244140625,
                    -511.8297119140625
                ],
                [
                    -93.72071075439453,
                    45.02960205078125,
                    611.1092529296875
                ],
                [
                    -93.72071075439453,
                    45.02960205078125,
                    -611.1092529296875
                ],
                [
                    -165.96319580078125,
                    105.16921997070312,
                    587.688720703125
                ],
                [
                    -165.96319580078125,
                    105.16921997070312,
                    -587.688720703125
                ],
                [
                    -156.56088256835938,
                    -282.843994140625,
                    533.94921875
                ],
                [
                    -156.56088256835938,
                    -282.843994140625,
                    -533.94921875
                ],
                [
                    -350.11444091796875,
                    -450.76123046875,
                    259.6943359375
                ],
                [
                    -350.11444091796875,
                    -450.76123046875,
                    -259.6943359375
                ],
                [
                    -216.10964965820312,
                    -401.4171142578125,
                    427.185302734375
                ],
                [
                    -216.10964965820312,
                    -401.4171142578125,
                    -427.185302734375
                ],
                [
                    -361.8795166015625,
                    -359.0455322265625,
                    363.0389404296875
                ],
                [
                    -361.8795166015625,
                    -359.0455322265625,
                    -363.0389404296875
                ],
                [
                    262.4193115234375,
                    -311.70721435546875,
                    -474.5693359375
                ],
                [
                    262.4193115234375,
                    -311.70721435546875,
                    474.5693359375
                ],
                [
                    -13.26971435546875,
                    -374.82257080078125,
                    -501.4921875
                ],
                [
                    -13.26971435546875,
                    -374.82257080078125,
                    501.4921875
                ],
                [
                    102.21844482421875,
                    -157.6531982421875,
                    -595.158447265625
                ],
                [
                    102.21844482421875,
                    -157.6531982421875,
                    595.158447265625
                ],
                [
                    210.6613311767578,
                    585.6024169921875,
                    -36.72820281982422
                ],
                [
                    210.6613311767578,
                    585.6024169921875,
                    36.72820281982422
                ],
                [
                    216.56747436523438,
                    546.3853759765625,
                    -208.77059936523438
                ],
                [
                    216.56747436523438,
                    546.3853759765625,
                    208.77059936523438
                ],
                [
                    -210.302490234375,
                    578.6796875,
                    -85.72457122802734
                ],
                [
                    -210.302490234375,
                    578.6796875,
                    85.72457122802734
                ],
                [
                    -183.59681701660156,
                    591.91552734375,
                    36.24974060058594
                ],
                [
                    -183.59681701660156,
                    591.91552734375,
                    -36.24974060058594
                ],
                [
                    400.12811279296875,
                    476.0556640625,
                    -34.391265869140625
                ],
                [
                    400.12811279296875,
                    476.0556640625,
                    34.391265869140625
                ],
                [
                    590.363525390625,
                    67.16788482666016,
                    -187.40866088867188
                ],
                [
                    590.363525390625,
                    67.16788482666016,
                    187.40866088867188
                ],
                [
                    261.37200927734375,
                    -514.7130126953125,
                    -238.2522735595703
                ],
                [
                    261.37200927734375,
                    -514.7130126953125,
                    238.2522735595703
                ],
                [
                    -198.77999877929688,
                    -520.197021484375,
                    -283.3057556152344
                ],
                [
                    -198.77999877929688,
                    -520.197021484375,
                    283.3057556152344
                ],
                [
                    -474.081787109375,
                    -126.29364013671875,
                    -386.630859375
                ],
                [
                    -474.081787109375,
                    -126.29364013671875,
                    386.630859375
                ],
                [
                    -438.6461181640625,
                    -298.3165283203125,
                    -331.28057861328125
                ],
                [
                    -438.6461181640625,
                    -298.3165283203125,
                    331.28057861328125
                ]
            ],
            "landing_zones": {
                "list": [
                    [
                        0,
                        0,
                        625
                    ],
                    [
                        0,
                        0,
                        625
                    ],
                    [
                        0,
                        0,
                        625
                    ],
                    [
                        0,
                        0,
                        625
                    ],
                    [
                        0,
                        0,
                        625
                    ],
                    [
                        0,
                        0,
                        625
                    ],
                    [
                        0,
                        0,
                        625
                    ],
                    [
                        0,
                        0,
                        625
                    ],
                    [
                        0,
                        0,
                        625
                    ],
                    [
                        0,
                        0,
                        625
                    ],
                    [
                        0,
                        0,
                        -625
                    ],
                    [
                        0,
                        0,
                        -625
                    ],
                    [
                        0,
                        0,
                        -625
                    ],
                    [
                        0,
                        0,
                        -625
                    ],
                    [
                        0,
                        0,
                        -625
                    ],
                    [
                        0,
                        0,
                        -625
                    ],
                    [
                        0,
                        0,
                        -625
                    ],
                    [
                        0,
                        0,
                        -625
                    ],
                    [
                        0,
                        0,
                        -625
                    ],
                    [
                        0,
                        0,
                        -625
                    ]
                ],
                "rules": [
                    {
                        "min": 2,
                        "max": 20
                    },
                    {
                        "min": 4,
                        "max": 20
                    },
                    {
                        "min": 6,
                        "max": 20
                    },
                    {
                        "min": 8,
                        "max": 20
                    },
                    {
                        "min": 10,
                        "max": 20
                    },
                    {
                        "min": 12,
                        "max": 20
                    },
                    {
                        "min": 14,
                        "max": 20
                    },
                    {
                        "min": 16,
                        "max": 20
                    },
                    {
                        "min": 18,
                        "max": 20
                    },
                    {
                        "min": 20,
                        "max": 20
                    },
                    {
                        "min": 2,
                        "max": 20
                    },
                    {
                        "min": 4,
                        "max": 20
                    },
                    {
                        "min": 6,
                        "max": 20
                    },
                    {
                        "min": 8,
                        "max": 20
                    },
                    {
                        "min": 10,
                        "max": 20
                    },
                    {
                        "min": 12,
                        "max": 20
                    },
                    {
                        "min": 14,
                        "max": 20
                    },
                    {
                        "min": 16,
                        "max": 20
                    },
                    {
                        "min": 18,
                        "max": 20
                    },
                    {
                        "min": 20,
                        "max": 20
                    }
                ]
            }
        },
        {
            "name": "XVIII. The Moon",
            "mass": 5000,
            "position_x": 20000,
            "position_y": 2300,
            "velocity_x": -329.69000244140625,
            "velocity_y": 158.11358642578125,
            "required_thrust_to_move": 0,
            "starting_planet": false,
            "respawn": false,
            "start_destroyed": false,
            "min_spawn_delay": 0,
            "max_spawn_delay": 0,
            "planet": {
                "seed": 856028800,
                "radius": 250,
                "heightRange": 0,
                "waterHeight": 0,
                "waterDepth": 100,
                "temperature": 70,
                "metalDensity": 0,
                "metalClusters": 0,
                "metalSpotLimit": -1,
                "biomeScale": 100.00000013739177,
                "biome": "gas_violet",
                "symmetryType": "none",
                "symmetricalMetal": false,
                "symmetricalStarts": false,
                "numArmies": 2,
                "landingZonesPerArmy": 0,
                "landingZoneSize": 0
            }
        },
        {
            "name": "XIX. The Sun",
            "mass": 10000,
            "position_x": 20000,
            "position_y": -2300,
            "velocity_x": 329.6904602050781,
            "velocity_y": 158.11361694335938,
            "required_thrust_to_move": 0,
            "starting_planet": false,
            "respawn": false,
            "start_destroyed": false,
            "min_spawn_delay": 0,
            "max_spawn_delay": 0,
            "planet": {
                "seed": 856028800,
                "radius": 250,
                "heightRange": 0,
                "waterHeight": 0,
                "waterDepth": 100,
                "temperature": 25,
                "metalDensity": 0,
                "metalClusters": 0,
                "metalSpotLimit": -1,
                "biomeScale": 100.00000013739177,
                "biome": "gas_yellow",
                "symmetryType": "none",
                "symmetricalMetal": false,
                "symmetricalStarts": false,
                "numArmies": 2,
                "landingZonesPerArmy": 0,
                "landingZoneSize": 0
            }
        },
        {
            "name": "XII. The Hanged Man",
            "mass": 50000,
            "position_x": 0.00830078125,
            "position_y": 20000.001953125,
            "velocity_x": -158.11387634277344,
            "velocity_y": 0.000058712052123155445,
            "required_thrust_to_move": 1,
            "starting_planet": false,
            "respawn": false,
            "start_destroyed": false,
            "min_spawn_delay": 300,
            "max_spawn_delay": 300,
            "planet": {
                "seed": 1405980032,
                "radius": 403,
                "heightRange": 35,
                "waterHeight": 21,
                "waterDepth": 0,
                "temperature": 55,
                "metalDensity": 50,
                "metalClusters": 50,
                "metalSpotLimit": -1,
                "biomeScale": 50,
                "biome": "tropical",
                "symmetryType": "none",
                "symmetricalMetal": false,
                "symmetricalStarts": false,
                "numArmies": 2,
                "landingZonesPerArmy": 0,
                "landingZoneSize": 0
            },
            "planetCSG": [
                {
                    "proj": "BP_Bend",
                    "spec": "/pa/terrain/mountain/brushes/mountain_plateau_04.json",
                    "height": 409.38482666015625,
                    "op": "BO_Add",
                    "position": [
                        110.79150390625,
                        119.63137817382812,
                        375.5122985839844
                    ],
                    "transform": [
                        1.0894981622695923,
                        0.3485596776008606,
                        0.32157188653945923,
                        110.79151153564453,
                        -0.4379577040672302,
                        1.048586368560791,
                        0.34722957015037537,
                        119.63138580322266,
                        -0.18192124366760254,
                        -0.436899870634079,
                        1.0899229049682617,
                        375.5123291015625
                    ],
                    "weight": [
                        1,
                        1,
                        1,
                        1
                    ],
                    "scale": [
                        1.1882376670837402,
                        1.1882376670837402,
                        1.1882376670837402
                    ],
                    "rotation": 5.930688381195068,
                    "weightHard": false,
                    "weightScale": [
                        4,
                        4,
                        4
                    ],
                    "mirrored": false,
                    "twinId": 0,
                    "pathable": false,
                    "flooded": false,
                    "mergeable": false,
                    "no_features": false
                },
                {
                    "proj": "BP_Bend",
                    "spec": "/pa/terrain/mountain/brushes/mountain_plateau_04.json",
                    "height": 405.908935546875,
                    "op": "BO_Add",
                    "position": [
                        -238.61077880859375,
                        190.88145446777344,
                        -267.1913757324219
                    ],
                    "transform": [
                        0.8524371385574341,
                        -0.2685537040233612,
                        -0.649437427520752,
                        -238.6107940673828,
                        0.08995276689529419,
                        -0.9708427786827087,
                        0.5195304751396179,
                        190.8814697265625,
                        -0.6969925165176392,
                        -0.4537425637245178,
                        -0.7272263169288635,
                        -267.19134521484375
                    ],
                    "weight": [
                        1,
                        1,
                        1,
                        1
                    ],
                    "scale": [
                        1.1047800779342651,
                        1.1047800779342651,
                        1.1047800779342651
                    ],
                    "rotation": 1.88979172706604,
                    "weightHard": false,
                    "weightScale": [
                        4,
                        4,
                        4
                    ],
                    "mirrored": false,
                    "twinId": 0,
                    "pathable": false,
                    "flooded": false,
                    "mergeable": false,
                    "no_features": false
                },
                {
                    "proj": "BP_Bend",
                    "spec": "/pa/terrain/mountain/brushes/mountain_plateau_02.json",
                    "height": 409.86492919921875,
                    "op": "BO_Add",
                    "position": [
                        182.84542846679688,
                        87.67876434326172,
                        356.1871032714844
                    ],
                    "transform": [
                        -0.9585461020469666,
                        0.21541857719421387,
                        0.4897150993347168,
                        182.84542846679688,
                        -0.11951510608196259,
                        -1.0656489133834839,
                        0.2348301261663437,
                        87.67877197265625,
                        0.5214807391166687,
                        0.15173621475696564,
                        0.9539762139320374,
                        356.1871032714844
                    ],
                    "weight": [
                        1,
                        1,
                        1,
                        1
                    ],
                    "scale": [
                        1.0977416038513184,
                        1.0977416038513184,
                        1.0977416038513184
                    ],
                    "rotation": 3.305572032928467,
                    "weightHard": false,
                    "weightScale": [
                        4,
                        4,
                        4
                    ],
                    "mirrored": false,
                    "twinId": 0,
                    "pathable": false,
                    "flooded": false,
                    "mergeable": false,
                    "no_features": false
                },
                {
                    "proj": "BP_Bend",
                    "spec": "/pa/terrain/mountain/brushes/mountain_plateau_02.json",
                    "height": 407.7405090332031,
                    "op": "BO_Add",
                    "position": [
                        219.92176818847656,
                        125.48258209228516,
                        319.5947570800781
                    ],
                    "transform": [
                        -0.5913832783699036,
                        -0.623493492603302,
                        0.550433337688446,
                        219.92181396484375,
                        0.8276466131210327,
                        -0.5077589750289917,
                        0.3140653073787689,
                        125.48261260986328,
                        0.08198761940002441,
                        0.6284042596817017,
                        0.7999007701873779,
                        319.59478759765625
                    ],
                    "weight": [
                        1,
                        1,
                        1,
                        1
                    ],
                    "scale": [
                        1.020517110824585,
                        1.020517110824585,
                        1.020517110824585
                    ],
                    "rotation": 2.2190380096435547,
                    "weightHard": false,
                    "weightScale": [
                        4,
                        4,
                        4
                    ],
                    "mirrored": false,
                    "twinId": 0,
                    "pathable": false,
                    "flooded": false,
                    "mergeable": false,
                    "no_features": false
                },
                {
                    "proj": "BP_Bend",
                    "spec": "/pa/terrain/mountain/brushes/mountain_plateau_04.json",
                    "height": 407.2912902832031,
                    "op": "BO_Add",
                    "position": [
                        -181.69732666015625,
                        87.12821197509766,
                        -353.9505310058594
                    ],
                    "transform": [
                        1.0273480415344238,
                        0.07960984110832214,
                        -0.5136284232139587,
                        -181.69737243652344,
                        0.2087758481502533,
                        -1.1051452159881592,
                        0.24629710614681244,
                        87.12823486328125,
                        -0.47598791122436523,
                        -0.3129088878631592,
                        -1.000559687614441,
                        -353.9505310058594
                    ],
                    "weight": [
                        1,
                        1,
                        1,
                        1
                    ],
                    "scale": [
                        1.151345133781433,
                        1.151345133781433,
                        1.151345133781433
                    ],
                    "rotation": 2.112908124923706,
                    "weightHard": false,
                    "weightScale": [
                        4,
                        4,
                        4
                    ],
                    "mirrored": false,
                    "twinId": 0,
                    "pathable": false,
                    "flooded": false,
                    "mergeable": false,
                    "no_features": false
                },
                {
                    "proj": "BP_Bend",
                    "spec": "/pa/terrain/mountain/brushes/mountain_plateau_02.json",
                    "height": 404.46142578125,
                    "op": "BO_Add",
                    "position": [
                        -168.0314483642578,
                        358.4801330566406,
                        -82.74341583251953
                    ],
                    "transform": [
                        -0.11033889651298523,
                        0.825168251991272,
                        -0.38022884726524353,
                        -168.0314483642578,
                        0.1549202799797058,
                        0.3945007026195526,
                        0.8111844062805176,
                        358.4801330566406,
                        0.8952521085739136,
                        0.0334341824054718,
                        -0.18723545968532562,
                        -82.74344635009766
                    ],
                    "weight": [
                        1,
                        1,
                        1,
                        1
                    ],
                    "scale": [
                        0.9152328968048096,
                        0.9152328968048096,
                        0.9152328968048096
                    ],
                    "rotation": 5.113382816314697,
                    "weightHard": false,
                    "weightScale": [
                        4,
                        4,
                        4
                    ],
                    "mirrored": false,
                    "twinId": 0,
                    "pathable": false,
                    "flooded": false,
                    "mergeable": false,
                    "no_features": false
                },
                {
                    "proj": "BP_Bend",
                    "spec": "/pa/terrain/mountain/brushes/mountain_plateau_02.json",
                    "height": 405.0269775390625,
                    "op": "BO_Add",
                    "position": [
                        -165.906005859375,
                        353.9456481933594,
                        -106.04022216796875
                    ],
                    "transform": [
                        0.20844505727291107,
                        -0.8388738632202148,
                        -0.38812094926834106,
                        -165.906005859375,
                        -0.17424769699573517,
                        -0.4263973832130432,
                        0.8280214071273804,
                        353.9456481933594,
                        -0.9077361226081848,
                        -0.11078143119812012,
                        -0.24807070195674896,
                        -106.0401840209961
                    ],
                    "weight": [
                        1,
                        1,
                        1,
                        1
                    ],
                    "scale": [
                        0.9475212693214417,
                        0.9475212693214417,
                        0.9475212693214417
                    ],
                    "rotation": 1.8876780271530151,
                    "weightHard": false,
                    "weightScale": [
                        4,
                        4,
                        4
                    ],
                    "mirrored": false,
                    "twinId": 0,
                    "pathable": false,
                    "flooded": false,
                    "mergeable": false,
                    "no_features": false
                },
                {
                    "proj": "BP_Bend",
                    "spec": "/pa/terrain/mountain/brushes/mountain_plateau_04.json",
                    "height": 404.6810607910156,
                    "op": "BO_Add",
                    "position": [
                        -107.8830337524414,
                        -142.5461883544922,
                        -363.05450439453125
                    ],
                    "transform": [
                        -0.5691272616386414,
                        -0.9366220831871033,
                        -0.3031452000141144,
                        -107.88314056396484,
                        -0.8470332026481628,
                        0.6443297863006592,
                        -0.400546669960022,
                        -142.54632568359375,
                        0.5016897916793823,
                        0.02533745765686035,
                        -1.0201612710952759,
                        -363.0544128417969
                    ],
                    "weight": [
                        1,
                        1,
                        1,
                        1
                    ],
                    "scale": [
                        1.1371296644210815,
                        1.1371296644210815,
                        1.1371296644210815
                    ],
                    "rotation": 0.8724778294563293,
                    "weightHard": false,
                    "weightScale": [
                        4,
                        4,
                        4
                    ],
                    "mirrored": false,
                    "twinId": 0,
                    "pathable": false,
                    "flooded": false,
                    "mergeable": false,
                    "no_features": false
                },
                {
                    "proj": "BP_Bend",
                    "spec": "/pa/terrain/mountain/brushes/mountain_plateau_02.json",
                    "height": 407.0978088378906,
                    "op": "BO_Add",
                    "position": [
                        106.58238983154297,
                        -166.75424194335938,
                        -355.75531005859375
                    ],
                    "transform": [
                        0.7332518696784973,
                        -0.48290446400642395,
                        0.23817268013954163,
                        106.5823745727539,
                        -0.3686341643333435,
                        -0.7435278296470642,
                        -0.37263479828834534,
                        -166.75424194335938,
                        0.3924691677093506,
                        0.20384031534194946,
                        -0.7949835062026978,
                        -355.7554626464844
                    ],
                    "weight": [
                        1,
                        1,
                        1,
                        1
                    ],
                    "scale": [
                        0.9097148776054382,
                        0.9097148776054382,
                        0.9097148776054382
                    ],
                    "rotation": 1.6604818105697632,
                    "weightHard": false,
                    "weightScale": [
                        4,
                        4,
                        4
                    ],
                    "mirrored": false,
                    "twinId": 0,
                    "pathable": false,
                    "flooded": false,
                    "mergeable": false,
                    "no_features": false
                },
                {
                    "proj": "BP_Bend",
                    "spec": "/pa/terrain/mountain/brushes/mountain_plateau_04.json",
                    "height": 409.4220275878906,
                    "op": "BO_Add",
                    "position": [
                        61.14973831176758,
                        -147.95289611816406,
                        -376.8249816894531
                    ],
                    "transform": [
                        0.847735583782196,
                        0.04365938901901245,
                        0.12822046875953674,
                        61.14967727661133,
                        0.08789879083633423,
                        -0.7956332564353943,
                        -0.3102317154407501,
                        -147.95274353027344,
                        0.10305549204349518,
                        0.3194742202758789,
                        -0.7901379466056824,
                        -376.82501220703125
                    ],
                    "weight": [
                        1,
                        1,
                        1,
                        1
                    ],
                    "scale": [
                        0.8584883213043213,
                        0.8584883213043213,
                        0.8584883213043213
                    ],
                    "rotation": 0.7039638757705688,
                    "weightHard": false,
                    "weightScale": [
                        4,
                        4,
                        4
                    ],
                    "mirrored": false,
                    "twinId": 0,
                    "pathable": false,
                    "flooded": false,
                    "mergeable": false,
                    "no_features": false
                },
                {
                    "proj": "BP_Bend",
                    "spec": "/pa/terrain/mountain/brushes/mountain_plateau_02.json",
                    "height": 405.8334655761719,
                    "op": "BO_Add",
                    "position": [
                        -171.57330322265625,
                        366.0363464355469,
                        -35.7881965637207
                    ],
                    "transform": [
                        -0.10778301954269409,
                        -0.988422155380249,
                        -0.4638407230377197,
                        -171.5732879638672,
                        -0.15617570281028748,
                        -0.4473458528518677,
                        0.9895627498626709,
                        366.0362854003906,
                        -1.080618143081665,
                        0.16323959827423096,
                        -0.09675156325101852,
                        -35.788116455078125
                    ],
                    "weight": [
                        1,
                        1,
                        1,
                        1
                    ],
                    "scale": [
                        1.097152590751648,
                        1.097152590751648,
                        1.097152590751648
                    ],
                    "rotation": 2.1590466499328613,
                    "weightHard": false,
                    "weightScale": [
                        4,
                        4,
                        4
                    ],
                    "mirrored": false,
                    "twinId": 0,
                    "pathable": false,
                    "flooded": false,
                    "mergeable": false,
                    "no_features": false
                },
                {
                    "proj": "BP_Bend",
                    "spec": "/pa/terrain/mountain/brushes/mountain_plateau_04.json",
                    "height": 409.8129577636719,
                    "op": "BO_Add",
                    "position": [
                        162.6970977783203,
                        -13.09046745300293,
                        375.905517578125
                    ],
                    "transform": [
                        0.9617924690246582,
                        0.5107507705688477,
                        0.47104668617248535,
                        162.69708251953125,
                        -0.5416682958602905,
                        1.0549668073654175,
                        -0.037900008261203766,
                        -13.090466499328613,
                        -0.4351399838924408,
                        -0.18432198464870453,
                        1.0883357524871826,
                        375.905517578125
                    ],
                    "weight": [
                        1,
                        1,
                        1,
                        1
                    ],
                    "scale": [
                        1.1865057945251465,
                        1.1865057945251465,
                        1.1865057945251465
                    ],
                    "rotation": 5.802221298217773,
                    "weightHard": false,
                    "weightScale": [
                        4,
                        4,
                        4
                    ],
                    "mirrored": false,
                    "twinId": 0,
                    "pathable": false,
                    "flooded": false,
                    "mergeable": false,
                    "no_features": false
                },
                {
                    "proj": "BP_Bend",
                    "spec": "/pa/terrain/mountain/brushes/mountain_mountain_06.json",
                    "height": 409.57666015625,
                    "op": "BO_Add",
                    "position": [
                        -138.2774200439453,
                        -40.12293243408203,
                        -383.4352111816406
                    ],
                    "transform": [
                        0.11021068692207336,
                        -0.9729313254356384,
                        -0.3511927127838135,
                        -138.27749633789062,
                        -1.0321202278137207,
                        -0.08013230562210083,
                        -0.10190298408269882,
                        -40.122955322265625,
                        0.06825678795576096,
                        0.35925137996673584,
                        -0.9738365411758423,
                        -383.4352722167969
                    ],
                    "weight": [
                        1,
                        1,
                        1,
                        1
                    ],
                    "scale": [
                        1.0402295589447021,
                        1.0402295589447021,
                        1.0402295589447021
                    ],
                    "rotation": 5.182555675506592,
                    "weightHard": false,
                    "weightScale": [
                        1,
                        1,
                        1
                    ],
                    "mirrored": false,
                    "twinId": 0,
                    "pathable": false,
                    "flooded": false,
                    "mergeable": false,
                    "no_features": true
                },
                {
                    "proj": "BP_Bend",
                    "spec": "/pa/terrain/mountain/brushes/mountain_mountain_06.json",
                    "height": 405.89398193359375,
                    "op": "BO_Add",
                    "position": [
                        -12.16051197052002,
                        349.200927734375,
                        206.54489135742188
                    ],
                    "transform": [
                        -0.9122946262359619,
                        -0.31571799516677856,
                        -0.028935611248016357,
                        -12.16051197052002,
                        0.137266144156456,
                        -0.4727959632873535,
                        0.8309141993522644,
                        349.200927734375,
                        -0.28578507900238037,
                        0.7807577848434448,
                        0.4914679229259491,
                        206.54486083984375
                    ],
                    "weight": [
                        1,
                        1,
                        1,
                        1
                    ],
                    "scale": [
                        0.9658138751983643,
                        0.9658138751983643,
                        0.9658138751983643
                    ],
                    "rotation": 2.825514078140259,
                    "weightHard": false,
                    "weightScale": [
                        1,
                        1,
                        1
                    ],
                    "mirrored": false,
                    "twinId": 0,
                    "pathable": false,
                    "flooded": false,
                    "mergeable": false,
                    "no_features": true
                },
                {
                    "proj": "BP_Bend",
                    "spec": "/pa/terrain/mountain/brushes/mountain_mountain_03.json",
                    "height": 401.7175598144531,
                    "op": "BO_Add",
                    "position": [
                        -57.48588943481445,
                        328.5497741699219,
                        223.8915252685547
                    ],
                    "transform": [
                        -0.3484504520893097,
                        -0.9549906253814697,
                        -0.14698489010334015,
                        -57.48588943481445,
                        0.5017433762550354,
                        -0.31236904859542847,
                        0.840064525604248,
                        328.5497741699219,
                        -0.8257511854171753,
                        0.21318499743938446,
                        0.572465181350708,
                        223.89151000976562
                    ],
                    "weight": [
                        1,
                        1,
                        1,
                        1
                    ],
                    "scale": [
                        1.0271462202072144,
                        1.0271462202072144,
                        1.0271462202072144
                    ],
                    "rotation": 1.996665596961975,
                    "weightHard": false,
                    "weightScale": [
                        4,
                        4,
                        4
                    ],
                    "mirrored": false,
                    "twinId": 0,
                    "pathable": false,
                    "flooded": false,
                    "mergeable": false,
                    "no_features": true
                },
                {
                    "proj": "BP_Bend",
                    "spec": "/pa/terrain/mountain/brushes/mountain_mountain_03.json",
                    "height": 412.9462585449219,
                    "op": "BO_Add",
                    "position": [
                        -64.37693786621094,
                        -42.45088577270508,
                        -405.68231201171875
                    ],
                    "transform": [
                        -0.05301281809806824,
                        -0.9862843751907349,
                        -0.15588636696338654,
                        -64.376953125,
                        -0.992199718952179,
                        0.06957760453224182,
                        -0.10279325395822525,
                        -42.450897216796875,
                        0.11223699152469635,
                        0.1492309272289276,
                        -0.9823445081710815,
                        -405.68231201171875
                    ],
                    "weight": [
                        1,
                        1,
                        1,
                        1
                    ],
                    "scale": [
                        0.9999338388442993,
                        0.9999338388442993,
                        0.9999338388442993
                    ],
                    "rotation": 5.940197467803955,
                    "weightHard": false,
                    "weightScale": [
                        4,
                        4,
                        4
                    ],
                    "mirrored": false,
                    "twinId": 0,
                    "pathable": false,
                    "flooded": false,
                    "mergeable": false,
                    "no_features": true
                },
                {
                    "proj": "BP_Bend",
                    "spec": "/pa/terrain/mountain/brushes/mountain_mountain_07.json",
                    "height": 407.7669677734375,
                    "op": "BO_Add",
                    "position": [
                        36.5675163269043,
                        349.4578552246094,
                        206.92015075683594
                    ],
                    "transform": [
                        0.842512845993042,
                        -0.26159244775772095,
                        0.07943257689476013,
                        36.56751251220703,
                        0.06854511052370071,
                        0.45126405358314514,
                        0.7590982913970947,
                        349.45782470703125,
                        -0.26465392112731934,
                        -0.7158896327018738,
                        0.4494754374027252,
                        206.9201202392578
                    ],
                    "weight": [
                        1,
                        1,
                        1,
                        1
                    ],
                    "scale": [
                        0.8857583999633789,
                        0.8857583999633789,
                        0.8857583999633789
                    ],
                    "rotation": 0.24984188377857208,
                    "weightHard": false,
                    "weightScale": [
                        3,
                        3,
                        3
                    ],
                    "mirrored": false,
                    "twinId": 0,
                    "pathable": false,
                    "flooded": false,
                    "mergeable": false,
                    "no_features": true
                },
                {
                    "proj": "BP_Bend",
                    "spec": "/pa/terrain/mountain/brushes/mountain_mountain_03.json",
                    "height": 405.670654296875,
                    "op": "BO_Add",
                    "position": [
                        230.68283081054688,
                        160.22218322753906,
                        292.716552734375
                    ],
                    "transform": [
                        0.8674224019050598,
                        -0.22311890125274658,
                        0.6191622614860535,
                        230.68283081054688,
                        -0.049982741475105286,
                        0.9990648031234741,
                        0.43004298210144043,
                        160.22218322753906,
                        -0.6562359929084778,
                        -0.3710164427757263,
                        0.7856633067131042,
                        292.716552734375
                    ],
                    "weight": [
                        1,
                        1,
                        1,
                        1
                    ],
                    "scale": [
                        1.0888367891311646,
                        1.0888367891311646,
                        1.0888367891311646
                    ],
                    "rotation": 0.09249574691057205,
                    "weightHard": false,
                    "weightScale": [
                        4,
                        4,
                        4
                    ],
                    "mirrored": false,
                    "twinId": 0,
                    "pathable": false,
                    "flooded": false,
                    "mergeable": false,
                    "no_features": true
                },
                {
                    "proj": "BP_Bend",
                    "spec": "/pa/terrain/mountain/brushes/mountain_mountain_07.json",
                    "height": 406.6777038574219,
                    "op": "BO_Add",
                    "position": [
                        321.5245361328125,
                        145.26377868652344,
                        202.25521850585938
                    ],
                    "transform": [
                        0.3063707947731018,
                        -0.6297838687896729,
                        0.9042803049087524,
                        321.5245361328125,
                        0.6046260595321655,
                        0.8807536959648132,
                        0.40855100750923157,
                        145.26377868652344,
                        -0.9212914705276489,
                        0.36859050393104553,
                        0.5688381195068359,
                        202.2552032470703
                    ],
                    "weight": [
                        1,
                        1,
                        1,
                        1
                    ],
                    "scale": [
                        1.1437716484069824,
                        1.1437716484069824,
                        1.1437716484069824
                    ],
                    "rotation": 0.8049227595329285,
                    "weightHard": false,
                    "weightScale": [
                        3,
                        3,
                        3
                    ],
                    "mirrored": false,
                    "twinId": 0,
                    "pathable": false,
                    "flooded": false,
                    "mergeable": false,
                    "no_features": true
                },
                {
                    "proj": "BP_Bend",
                    "spec": "/pa/terrain/mountain/brushes/mountain_mountain_03.json",
                    "height": 408.536865234375,
                    "op": "BO_Add",
                    "position": [
                        -234.66525268554688,
                        261.0335693359375,
                        -209.03598022460938
                    ],
                    "transform": [
                        0.3433822989463806,
                        -0.7927289605140686,
                        -0.6062144637107849,
                        -234.6652374267578,
                        -0.41726022958755493,
                        -0.6964169144630432,
                        0.6743322610855103,
                        261.0335693359375,
                        -0.9065368175506592,
                        0.020272761583328247,
                        -0.5400061011314392,
                        -209.0360107421875
                    ],
                    "weight": [
                        1,
                        1,
                        1,
                        1
                    ],
                    "scale": [
                        1.055379867553711,
                        1.055379867553711,
                        1.055379867553711
                    ],
                    "rotation": 2.325409412384033,
                    "weightHard": false,
                    "weightScale": [
                        4,
                        4,
                        4
                    ],
                    "mirrored": false,
                    "twinId": 0,
                    "pathable": false,
                    "flooded": false,
                    "mergeable": false,
                    "no_features": true
                },
                {
                    "proj": "BP_Bend",
                    "spec": "/pa/terrain/mountain/brushes/mountain_mountain_07.json",
                    "height": 407.91986083984375,
                    "op": "BO_Add",
                    "position": [
                        -252.3616485595703,
                        226.3681182861328,
                        226.86932373046875
                    ],
                    "transform": [
                        0.6569736003875732,
                        0.33969855308532715,
                        -0.5823843479156494,
                        -252.3616180419922,
                        0.05932551622390747,
                        0.7808723449707031,
                        0.5223981142044067,
                        226.36810302734375,
                        0.671600341796875,
                        -0.40127819776535034,
                        0.523554801940918,
                        226.86932373046875
                    ],
                    "weight": [
                        1,
                        1,
                        1,
                        1
                    ],
                    "scale": [
                        0.9413718581199646,
                        0.9413718581199646,
                        0.9413718581199646
                    ],
                    "rotation": 6.090606689453125,
                    "weightHard": false,
                    "weightScale": [
                        3,
                        3,
                        3
                    ],
                    "mirrored": false,
                    "twinId": 0,
                    "pathable": false,
                    "flooded": false,
                    "mergeable": false,
                    "no_features": true
                },
                {
                    "proj": "BP_Bend",
                    "spec": "/pa/terrain/mountain/brushes/mountain_mountain_03.json",
                    "height": 407.0650329589844,
                    "op": "BO_Add",
                    "position": [
                        148.88314819335938,
                        181.90707397460938,
                        332.3335266113281
                    ],
                    "transform": [
                        -0.28548887372016907,
                        0.9173001050949097,
                        0.3775313198566437,
                        148.88314819335938,
                        -0.8106812238693237,
                        -0.44215092062950134,
                        0.4612719416618347,
                        181.90707397460938,
                        0.5716339349746704,
                        -0.1689271181821823,
                        0.8427167534828186,
                        332.3335266113281
                    ],
                    "weight": [
                        1,
                        1,
                        1,
                        1
                    ],
                    "scale": [
                        1.0322176218032837,
                        1.0322176218032837,
                        1.0322176218032837
                    ],
                    "rotation": 4.313832759857178,
                    "weightHard": false,
                    "weightScale": [
                        4,
                        4,
                        4
                    ],
                    "mirrored": false,
                    "twinId": 0,
                    "pathable": false,
                    "flooded": false,
                    "mergeable": false,
                    "no_features": true
                },
                {
                    "proj": "BP_Bend",
                    "spec": "/pa/terrain/mountain/brushes/mountain_mountain_03.json",
                    "height": 405.348876953125,
                    "op": "BO_Add",
                    "position": [
                        98.67058563232422,
                        228.5415802001953,
                        319.90716552734375
                    ],
                    "transform": [
                        0.3582039773464203,
                        -0.8519887328147888,
                        0.23195353150367737,
                        98.67057800292969,
                        0.6624956727027893,
                        0.42480164766311646,
                        0.5372525453567505,
                        228.54156494140625,
                        -0.5837693214416504,
                        -0.04069496691226959,
                        0.7520335912704468,
                        319.90716552734375
                    ],
                    "weight": [
                        1,
                        1,
                        1,
                        1
                    ],
                    "scale": [
                        0.9528889060020447,
                        0.9528889060020447,
                        0.9528889060020447
                    ],
                    "rotation": 1.093632459640503,
                    "weightHard": false,
                    "weightScale": [
                        4,
                        4,
                        4
                    ],
                    "mirrored": false,
                    "twinId": 0,
                    "pathable": false,
                    "flooded": false,
                    "mergeable": false,
                    "no_features": true
                },
                {
                    "proj": "BP_Bend",
                    "spec": "/pa/terrain/mountain/brushes/mountain_mountain_03.json",
                    "height": 404.7833251953125,
                    "op": "BO_Add",
                    "position": [
                        76.94340515136719,
                        231.01028442382812,
                        323.3627624511719
                    ],
                    "transform": [
                        0.16411136090755463,
                        -1.005045771598816,
                        0.19716957211494446,
                        76.94340515136719,
                        0.8145121335983276,
                        0.24913212656974792,
                        0.5919700860977173,
                        231.01026916503906,
                        -0.6209371089935303,
                        0.06116834282875061,
                        0.8286259770393372,
                        323.36279296875
                    ],
                    "weight": [
                        1,
                        1,
                        1,
                        1
                    ],
                    "scale": [
                        1.0372682809829712,
                        1.0372682809829712,
                        1.0372682809829712
                    ],
                    "rotation": 1.3474725484848022,
                    "weightHard": false,
                    "weightScale": [
                        4,
                        4,
                        4
                    ],
                    "mirrored": false,
                    "twinId": 0,
                    "pathable": false,
                    "flooded": false,
                    "mergeable": false,
                    "no_features": true
                },
                {
                    "proj": "BP_Bend",
                    "spec": "/pa/terrain/mountain/brushes/mountain_mountain_03.json",
                    "height": 401.7580871582031,
                    "op": "BO_Add",
                    "position": [
                        -102.10685729980469,
                        320.50439453125,
                        219.68312072753906
                    ],
                    "transform": [
                        0.8704735040664673,
                        0.5352246165275574,
                        -0.268521785736084,
                        -102.10686492919922,
                        -0.1241973489522934,
                        0.624856173992157,
                        0.8428661823272705,
                        320.50445556640625,
                        0.5857852697372437,
                        -0.6628596782684326,
                        0.5777250528335571,
                        219.68310546875
                    ],
                    "weight": [
                        1,
                        1,
                        1,
                        1
                    ],
                    "scale": [
                        1.0565478801727295,
                        1.0565478801727295,
                        1.0565478801727295
                    ],
                    "rotation": 5.867851257324219,
                    "weightHard": false,
                    "weightScale": [
                        4,
                        4,
                        4
                    ],
                    "mirrored": false,
                    "twinId": 0,
                    "pathable": false,
                    "flooded": false,
                    "mergeable": false,
                    "no_features": true
                },
                {
                    "proj": "BP_Bend",
                    "spec": "/pa/terrain/mountain/brushes/mountain_mountain_07.json",
                    "height": 408.21051025390625,
                    "op": "BO_Add",
                    "position": [
                        50.122257232666016,
                        286.46429443359375,
                        286.46429443359375
                    ],
                    "transform": [
                        -0.834813117980957,
                        0.07522758096456528,
                        0.10370281338691711,
                        50.122249603271484,
                        0.019433526322245598,
                        -0.6013839244842529,
                        0.5926938056945801,
                        286.4642333984375,
                        0.12663252651691437,
                        0.5882214307785034,
                        0.5926939249038696,
                        286.46429443359375
                    ],
                    "weight": [
                        1,
                        1,
                        1,
                        1
                    ],
                    "scale": [
                        0.8445865511894226,
                        0.8445865511894226,
                        0.8445865511894226
                    ],
                    "rotation": 3.1804215908050537,
                    "weightHard": false,
                    "weightScale": [
                        3,
                        3,
                        3
                    ],
                    "mirrored": false,
                    "twinId": 0,
                    "pathable": false,
                    "flooded": false,
                    "mergeable": false,
                    "no_features": true
                },
                {
                    "proj": "BP_Bend",
                    "spec": "/pa/terrain/mountain/brushes/mountain_mountain_02.json",
                    "height": 404.2347412109375,
                    "op": "BO_Add",
                    "position": [
                        161.0648651123047,
                        215.52330017089844,
                        301.68450927734375
                    ],
                    "transform": [
                        -0.5898189544677734,
                        0.7347282767295837,
                        0.40930086374282837,
                        161.0648651123047,
                        -0.5028711557388306,
                        -0.7087974548339844,
                        0.5476915240287781,
                        215.5232696533203,
                        0.6741464138031006,
                        0.11410406231880188,
                        0.7666459679603577,
                        301.68450927734375
                    ],
                    "weight": [
                        1,
                        1,
                        1,
                        1
                    ],
                    "scale": [
                        1.0272483825683594,
                        1.0272483825683594,
                        1.0272483825683594
                    ],
                    "rotation": 3.902937173843384,
                    "weightHard": false,
                    "weightScale": [
                        1,
                        1,
                        1
                    ],
                    "mirrored": false,
                    "twinId": 0,
                    "pathable": false,
                    "flooded": false,
                    "mergeable": false,
                    "no_features": true
                },
                {
                    "proj": "BP_Bend",
                    "spec": "/pa/terrain/mountain/brushes/mountain_mountain_02.json",
                    "height": 405.72650146484375,
                    "op": "BO_Add",
                    "position": [
                        -279.87835693359375,
                        89.16415405273438,
                        -279.87835693359375
                    ],
                    "transform": [
                        0.22359171509742737,
                        0.714529812335968,
                        -0.713369607925415,
                        -279.8782653808594,
                        1.0050464868545532,
                        -0.08760282397270203,
                        0.2272665649652481,
                        89.16412353515625,
                        0.0965978354215622,
                        -0.7424386143684387,
                        -0.7133694887161255,
                        -279.87823486328125
                    ],
                    "weight": [
                        1,
                        1,
                        1,
                        1
                    ],
                    "scale": [
                        1.0341386795043945,
                        1.0341386795043945,
                        1.0341386795043945
                    ],
                    "rotation": 1.1329983472824097,
                    "weightHard": false,
                    "weightScale": [
                        1,
                        1,
                        1
                    ],
                    "mirrored": false,
                    "twinId": 0,
                    "pathable": false,
                    "flooded": false,
                    "mergeable": false,
                    "no_features": true
                },
                {
                    "proj": "BP_Bend",
                    "spec": "/pa/terrain/mountain/brushes/mountain_mountain_02.json",
                    "height": 409.3182067871094,
                    "op": "BO_Add",
                    "position": [
                        -228.1276397705078,
                        58.573543548583984,
                        -334.76605224609375
                    ],
                    "transform": [
                        -0.43664833903312683,
                        0.6096462607383728,
                        -0.5033662915229797,
                        -228.12767028808594,
                        0.672755241394043,
                        0.5885610580444336,
                        0.12924319505691528,
                        58.57354736328125,
                        0.41526663303375244,
                        -0.3124660551548004,
                        -0.7386654615402222,
                        -334.7662048339844
                    ],
                    "weight": [
                        1,
                        1,
                        1,
                        1
                    ],
                    "scale": [
                        0.9031652808189392,
                        0.9031652808189392,
                        0.9031652808189392
                    ],
                    "rotation": 0.39373648166656494,
                    "weightHard": false,
                    "weightScale": [
                        1,
                        1,
                        1
                    ],
                    "mirrored": false,
                    "twinId": 0,
                    "pathable": false,
                    "flooded": false,
                    "mergeable": false,
                    "no_features": true
                },
                {
                    "proj": "BP_Bend",
                    "spec": "/pa/terrain/mountain/brushes/mountain_mountain_02.json",
                    "height": 411.3247375488281,
                    "op": "BO_Add",
                    "position": [
                        -114.7128677368164,
                        -13.747254371643066,
                        -394.7657470703125
                    ],
                    "transform": [
                        -0.7292821407318115,
                        0.5603660941123962,
                        -0.267091304063797,
                        -114.71295166015625,
                        0.5905351638793945,
                        0.7532888650894165,
                        -0.032008375972509384,
                        -13.747264862060547,
                        0.1913536638021469,
                        -0.1890663504600525,
                        -0.919150710105896,
                        -394.7657165527344
                    ],
                    "weight": [
                        1,
                        1,
                        1,
                        1
                    ],
                    "scale": [
                        0.9577058553695679,
                        0.9577058553695679,
                        0.9577058553695679
                    ],
                    "rotation": 0.8986573815345764,
                    "weightHard": false,
                    "weightScale": [
                        1,
                        1,
                        1
                    ],
                    "mirrored": false,
                    "twinId": 0,
                    "pathable": false,
                    "flooded": false,
                    "mergeable": false,
                    "no_features": true
                },
                {
                    "proj": "BP_Bend",
                    "spec": "/pa/terrain/mountain/brushes/mountain_mountain_02.json",
                    "height": 407.4150695800781,
                    "op": "BO_Add",
                    "position": [
                        11.205942153930664,
                        321.7895202636719,
                        249.62559509277344
                    ],
                    "transform": [
                        0.5261940956115723,
                        0.7744249701499939,
                        0.02576201595366001,
                        11.205942153930664,
                        -0.48629385232925415,
                        0.30580970644950867,
