{
    "name": "Greater Wadiya",
    "description": "Like Wadiya but great again.",
	"version": "1.00",
	"creator": "Dissonant",
	"players":[15, 25],
    "planets": [
        {
            "name": "Zutopia",
            "mass": 5000,
            "position_x": 11500,
            "position_y": -18400,
            "velocity_x": 128.7266845703125,
            "velocity_y": 80.45418548583984,
            "required_thrust_to_move": 3,
            "starting_planet": true,
            "respawn": false,
            "start_destroyed": false,
            "min_spawn_delay": 0,
            "max_spawn_delay": 0,
            "planet": {
                "seed": 1723512576,
                "radius": 674,
                "heightRange": 0,
                "waterHeight": 0,
                "waterDepth": 100,
                "temperature": 0,
                "metalDensity": 100,
                "metalClusters": 100,
                "metalSpotLimit": -1,
                "biomeScale": 50,
                "biome": "moon",
                "symmetryType": "none",
                "symmetricalMetal": false,
                "symmetricalStarts": false,
                "numArmies": 2,
                "landingZonesPerArmy": 0,
                "landingZoneSize": 0
            },
            "planetCSG": [
                {
                    "proj": "BP_Bend",
                    "spec": "/pa/terrain/moon/brushes/moon_crater_02.json",
                    "height": 671.3955078125,
                    "op": "BO_Subtract",
                    "position": [
                        -638.3521728515625,
                        48.010169982910156,
                        -202.4190216064453
                    ],
                    "transform": [
                        -0.005883590318262577,
                        0.0019467432284727693,
                        -0.019016319885849953,
                        -638.3522338867188,
                        0.0019467432284727693,
                        0.01985425502061844,
                        0.0014302085619419813,
                        48.01017379760742,
                        0.019016319885849953,
                        -0.0014302085619419813,
                        -0.0060300035402178764,
                        -202.41908264160156
                    ],
                    "scale": [
                        0.020000670105218887,
                        0.020000670105218887,
                        0.020000670105218887
                    ],
                    "rotation": 0,
                    "weight": [
                        0,
                        0,
                        0,
                        0
                    ],
                    "weightHard": false,
                    "weightScale": [
                        1,
                        1,
                        1
                    ],
                    "mirrored": false,
                    "twinId": 0,
                    "pathable": true,
                    "flooded": false,
                    "mergeable": true,
                    "no_features": false
                }
            ],
            "metal_spots": [
                [
                    -119.62677001953125,
                    662.862060546875,
                    -5.497033596038818
                ],
                [
                    -124.9151382446289,
                    653.1942749023438,
                    -111.38062286376953
                ],
                [
                    -172.50140380859375,
                    649.8446044921875,
                    -21.575836181640625
                ],
                [
                    -61.368064880371094,
                    654.0716552734375,
                    148.62503051757812
                ],
                [
                    -30.133533477783203,
                    668.1737670898438,
                    77.42922973632812
                ],
                [
                    -2.956092357635498,
                    664.2354736328125,
                    111.34452819824219
                ],
                [
                    -157.9504852294922,
                    653.3381958007812,
                    30.914018630981445
                ],
                [
                    -198.7530517578125,
                    635.3452758789062,
                    100.10516357421875
                ],
                [
                    -211.09840393066406,
                    637.749267578125,
                    38.254730224609375
                ],
                [
                    202.781005859375,
                    635.4939575195312,
                    -95.88526153564453
                ],
                [
                    189.6058807373047,
                    643.8782958984375,
                    -61.93954849243164
                ],
                [
                    172.93276977539062,
                    643.6491088867188,
                    -99.7013931274414
                ],
                [
                    -310.07147216796875,
                    592.471435546875,
                    -65.41839599609375
                ],
                [
                    -211.68296813964844,
                    637.18505859375,
                    -44.97956085205078
                ],
                [
                    42.09722137451172,
                    638.0770263671875,
                    -219.927490234375
                ],
                [
                    -45.32596969604492,
                    646.2192993164062,
                    -190.66342163085938
                ],
                [
                    -10.710871696472168,
                    609.421142578125,
                    -290.6119384765625
                ],
                [
                    -278.04962158203125,
                    591.4579467773438,
                    163.15257263183594
                ],
                [
                    -224.02906799316406,
                    617.0203247070312,
                    150.76788330078125
                ],
                [
                    -264.7996520996094,
                    607.301513671875,
                    123.070068359375
                ],
                [
                    -301.92559814453125,
                    589.7334594726562,
                    126.61231994628906
                ],
                [
                    -258.8476867675781,
                    601.3829345703125,
                    -159.69369506835938
                ],
                [
                    -221.43148803710938,
                    594.4249267578125,
                    -231.45021057128906
                ],
                [
                    -161.8355712890625,
                    622.8584594726562,
                    -201.34007263183594
                ],
                [
                    -243.01976013183594,
                    599.613037109375,
                    -190.2434539794922
                ],
                [
                    -104.88007354736328,
                    584.705078125,
                    315.3138122558594
                ],
                [
                    -29.913162231445312,
                    581.8896484375,
                    337.1252136230469
                ],
                [
                    -107.2270278930664,
                    599.7484741210938,
                    285.76593017578125
                ],
                [
                    -105.69438934326172,
                    619.0050048828125,
                    242.99134826660156
                ],
                [
                    -356.6186828613281,
                    570.5668334960938,
                    60.862125396728516
                ],
                [
                    -378.1524353027344,
                    558.5275268554688,
                    -30.267038345336914
                ],
                [
                    -357.5246887207031,
                    573.0278930664062,
                    12.932567596435547
                ],
                [
                    -287.7163391113281,
                    609.31591796875,
                    20.603954315185547
                ],
                [
                    -48.50820541381836,
                    578.9667358398438,
                    -346.00897216796875
                ],
                [
                    -135.1538543701172,
                    572.8994750976562,
                    -335.4605407714844
                ],
                [
                    -46.09454345703125,
                    592.9136352539062,
                    -320.5427551269531
                ],
                [
                    -219.0511474609375,
                    555.3624877929688,
                    306.46075439453125
                ],
                [
                    -185.84825134277344,
                    603.1189575195312,
                    233.2474822998047
                ],
                [
                    -218.0538330078125,
                    589.6009521484375,
                    236.55152893066406
                ],
                [
                    216.57785034179688,
                    637.744140625,
                    -35.42917251586914
                ],
                [
                    302.7571716308594,
                    599.2147827148438,
                    -20.494325637817383
                ],
                [
                    280.0671081542969,
                    610.424072265625,
                    -49.86176300048828
                ],
                [
                    236.08563232421875,
                    623.218017578125,
                    -101.40357208251953
                ],
                [
                    100.34991455078125,
                    572.8154296875,
                    340.8620300292969
                ],
                [
                    16.553600311279297,
                    604.7556762695312,
                    288.1861572265625
                ],
                [
                    10.393180847167969,
                    557.0423583984375,
                    378.0257568359375
                ],
                [
                    50.160186767578125,
                    551.0446166992188,
                    383.96820068359375
                ],
                [
                    -353.1990661621094,
                    559.5010986328125,
                    134.78390502929688
                ],
                [
                    -379.2564392089844,
                    553.3816528320312,
                    77.07000732421875
                ],
                [
                    -337.6787414550781,
                    555.6217041015625,
                    180.45127868652344
                ],
                [
                    -404.24774169921875,
                    525.806884765625,
                    125.93460845947266
                ],
                [
                    -209.4732666015625,
                    532.8602294921875,
                    -363.42071533203125
                ],
                [
                    -221.5618133544922,
                    580.5083618164062,
                    -266.99945068359375
                ],
                [
                    300.9732360839844,
                    566.6688232421875,
                    -210.30557250976562
                ],
                [
                    229.0918731689453,
                    611.932861328125,
                    -167.70828247070312
                ],
                [
                    -407.4054260253906,
                    520.7020263671875,
                    -128.03590393066406
                ],
                [
                    -466.7746276855469,
                    476.9241638183594,
                    -91.09855651855469
                ],
                [
                    -428.3371887207031,
                    514.2503051757812,
                    -76.24040222167969
                ],
                [
                    -361.6148376464844,
                    511.15283203125,
                    251.5081329345703
                ],
                [
                    -336.0697937011719,
                    521.609375,
                    263.38824462890625
                ],
                [
                    -348.5613708496094,
                    535.8110961914062,
                    216.1481475830078
                ],
                [
                    -386.04119873046875,
                    455.3653564453125,
                    311.7091369628906
                ],
                [
                    369.2407531738281,
                    564.5574340820312,
                    9.644012451171875
                ],
                [
                    396.6174011230469,
                    543.166259765625,
                    -56.297698974609375
                ],
                [
                    -36.62744903564453,
                    516.5918579101562,
                    429.4858093261719
                ],
                [
                    1.009887456893921,
                    528.5320434570312,
                    416.9293212890625
                ],
                [
                    -61.05154037475586,
                    494.5599365234375,
                    451.8392639160156
                ],
                [
                    -480.13519287109375,
                    464.284423828125,
                    93.49136352539062
                ],
                [
                    -441.8876953125,
                    507.1923828125,
                    50.080291748046875
                ],
                [
                    -497.3020324707031,
                    437.87139892578125,
                    125.12760925292969
                ],
                [
                    311.5917663574219,
                    539.090576171875,
                    262.0867004394531
                ],
                [
                    284.4750671386719,
                    532.6000366210938,
                    302.11383056640625
                ],
                [
                    367.270751953125,
                    527.0310668945312,
                    208.48089599609375
                ],
                [
                    -156.61293029785156,
                    524.28759765625,
                    -400.30523681640625
                ],
                [
                    -131.0777587890625,
                    498.7603454589844,
                    -439.871337890625
                ],
                [
                    -129.92242431640625,
                    550.5919799804688,
                    -373.763916015625
                ],
                [
                    -169.8741912841797,
                    497.6191101074219,
                    -427.7520751953125
                ],
                [
                    -185.63636779785156,
                    492.8163757324219,
                    414.8365173339844
                ],
                [
                    -273.56829833984375,
                    490.1234436035156,
                    368.19183349609375
                ],
                [
                    373.6564025878906,
                    535.882568359375,
                    -169.61087036132812
                ],
                [
                    394.37164306640625,
                    532.7900390625,
                    -127.9477310180664
                ],
                [
                    362.88739013671875,
                    553.0933227539062,
                    -108.41620635986328
                ],
                [
                    -435.7022705078125,
                    499.2524108886719,
                    -118.82625579833984
                ],
                [
                    -447.0940246582031,
                    471.1275939941406,
                    -181.08810424804688
                ],
                [
                    -493.8764343261719,
                    435.8824462890625,
                    -141.5803680419922
                ],
                [
                    -408.3599853515625,
                    482.3602294921875,
                    -237.78756713867188
                ],
                [
                    130.67333984375,
                    537.3035278320312,
                    385.12744140625
                ],
                [
                    208.65188598632812,
                    487.73541259765625,
                    417.96490478515625
                ],
                [
                    102.94088745117188,
                    496.6261291503906,
                    443.77764892578125
                ],
                [
                    186.6455535888672,
                    522.4960327148438,
                    383.9368896484375
                ],
                [
                    91.37854766845703,
                    485.0633850097656,
                    -462.22418212890625
                ],
                [
                    133.09548950195312,
                    468.30029296875,
                    -468.595703125
                ],
                [
                    154.3928985595703,
                    492.4258117675781,
                    -436.39447021484375
                ],
                [
                    116.97232818603516,
                    539.3939819335938,
                    -390.487548828125
                ],
                [
                    -397.2214050292969,
                    487.57525634765625,
                    244.9729461669922
                ],
                [
                    -457.37408447265625,
                    453.3585205078125,
                    201.2622528076172
                ],
                [
                    -420.6946105957031,
                    477.2643127441406,
                    225.24034118652344
                ],
                [
                    -424.895263671875,
                    490.589111328125,
                    184.4353485107422
                ],
                [
                    -95.2659912109375,
                    445.4504089355469,
                    494.9781494140625
                ],
                [
                    -141.22840881347656,
                    481.4344177246094,
                    445.36376953125
                ],
                [
                    -52.46152877807617,
                    423.46820068359375,
                    520.5662841796875
                ],
                [
                    -87.16201782226562,
                    505.281982421875,
                    434.0979309082031
                ],
                [
                    464.7810363769531,
                    489.2359619140625,
                    -20.375625610351562
                ],
                [
                    434.98223876953125,
                    511.44964599609375,
                    -75.15032196044922
                ],
                [
                    485.0513916015625,
                    468.3440246582031,
                    -27.270633697509766
                ],
                [
                    94.66505432128906,
                    436.5782775878906,
                    505.0694885253906
                ],
                [
                    129.37680053710938,
                    405.8609619140625,
                    523.6971435546875
                ],
                [
                    -547.9876098632812,
                    346.91424560546875,
                    183.8070526123047
                ],
                [
                    -517.7918701171875,
                    383.0120544433594,
                    200.55123901367188
                ],
                [
                    -504.1307373046875,
                    415.041015625,
                    169.18994140625
                ],
                [
                    -480.30364990234375,
                    441.86041259765625,
                    171.3201446533203
                ],
                [
                    -521.362548828125,
                    418.65789794921875,
                    -83.19445037841797
                ],
                [
                    -560.56396484375,
                    351.8996276855469,
                    -129.17506408691406
                ],
                [
                    -518.3817138671875,
                    398.6968994140625,
                    -161.73936462402344
                ],
                [
                    -523.7957153320312,
                    379.0713806152344,
                    -189.3849639892578
                ],
                [
                    247.7934112548828,
                    459.8935546875,
                    428.9937744140625
                ],
                [
                    218.54095458984375,
                    422.9916076660156,
                    479.4635009765625
                ],
                [
                    256.9024963378906,
                    393.3609924316406,
                    485.7813415527344
                ],
                [
                    194.23501586914062,
                    398.2552795410156,
                    509.402099609375
                ],
                [
                    69.42888641357422,
                    407.53485107421875,
                    -529.0924682617188
                ],
                [
                    115.4896011352539,
                    449.4908142089844,
                    -491.0745849609375
                ],
                [
                    82.34939575195312,
                    380.6481018066406,
                    -552.043701171875
                ],
                [
                    3.8663649559020996,
                    403.9463806152344,
                    -542.0805053710938
                ],
                [
                    -409.5717468261719,
                    369.1358337402344,
                    387.41790771484375
                ],
                [
                    -418.9815979003906,
                    432.4356689453125,
                    302.92864990234375
                ],
                [
                    -490.2618713378906,
                    366.8917236328125,
                    282.2289733886719
                ],
                [
                    528.2296752929688,
                    415.8297119140625,
                    63.43610382080078
                ],
                [
                    472.71612548828125,
                    481.7936706542969,
                    4.674864768981934
                ],
                [
                    486.85443115234375,
                    456.23809814453125,
                    106.313232421875
                ],
                [
                    525.5555419921875,
                    409.613037109375,
                    107.92871856689453
                ],
                [
                    -79.65345001220703,
                    372.3418884277344,
                    554.7838134765625
                ],
                [
                    24.36553192138672,
                    396.5503845214844,
                    544.0638427734375
                ],
                [
                    -20.08319091796875,
                    370.7925720214844,
                    561.8624877929688
                ],
                [
                    -83.84941101074219,
                    344.7259826660156,
                    571.63037109375
                ],
                [
                    385.1164855957031,
                    416.6254577636719,
                    -367.7724914550781
                ],
                [
                    305.3343200683594,
                    432.4432373046875,
                    -419.8072204589844
                ],
                [
                    349.6907653808594,
                    372.7513427734375,
                    -442.8551940917969
                ],
                [
                    298.3755798339844,
                    391.792236328125,
                    -463.1258850097656
                ],
                [
                    392.2485046386719,
                    449.3268737792969,
                    307.064697265625
                ],
                [
                    363.6057434082031,
                    410.86419677734375,
                    395.5732421875
                ],
                [
                    439.67413330078125,
                    423.518798828125,
                    291.045166015625
                ],
                [
                    409.7489929199219,
                    403.58056640625,
                    355.71160888671875
                ],
                [
                    -164.794189453125,
                    419.05615234375,
                    -507.5115966796875
                ],
                [
                    -132.83242797851562,
                    326.14764404296875,
                    -577.6262817382812
                ],
                [
                    -161.65721130371094,
                    337.45208740234375,
                    -564.2910766601562
                ],
                [
                    -91.1190414428711,
                    373.52398681640625,
                    -556.8949584960938
                ],
                [
                    -291.06939697265625,
                    394.6085205078125,
                    457.9644470214844
                ],
                [
                    -346.0810546875,
                    369.91290283203125,
                    441.84942626953125
                ],
                [
                    -275.50946044921875,
                    344.0952453613281,
                    505.7245788574219
                ],
                [
                    -308.7167053222656,
                    303.89862060546875,
                    512.4793090820312
                ],
                [
                    -512.8201904296875,
                    355.2406311035156,
                    -254.92857360839844
                ],
                [
                    -554.414794921875,
                    293.9024658203125,
                    -244.36663818359375
                ],
                [
                    168.5398712158203,
                    365.01678466796875,
                    541.872802734375
                ],
                [
                    173.21401977539062,
                    341.3013916015625,
                    555.4340209960938
                ],
                [
                    231.1926727294922,
                    366.43145751953125,
                    -518.3690795898438
                ],
                [
                    218.1472625732422,
                    419.1201477050781,
                    -482.8002014160156
                ],
                [
                    155.3845977783203,
                    386.559814453125,
                    -531.6064453125
                ],
                [
                    183.41278076171875,
                    392.4242248535156,
                    -518.0610961914062
                ],
                [
                    -150.7432098388672,
                    284.811767578125,
                    590.5307006835938
                ],
                [
                    -159.65359497070312,
                    345.0682373046875,
                    554.228271484375
                ],
                [
                    -151.49908447265625,
                    317.88323974609375,
                    572.842041015625
                ],
                [
                    -211.32473754882812,
                    305.1545104980469,
                    560.8468627929688
                ],
                [
                    369.55419921875,
                    311.79449462890625,
                    472.42852783203125
                ],
                [
                    401.36492919921875,
                    344.2893371582031,
                    421.7833557128906
                ],
                [
                    321.64947509765625,
                    318.2849426269531,
                    501.5938415527344
                ],
                [
                    332.1573181152344,
                    382.80633544921875,
                    447.91485595703125
                ],
                [
                    -45.00236892700195,
                    334.1679382324219,
                    -585.1149291992188
                ],
                [
                    -17.441600799560547,
                    327.15557861328125,
                    -589.5587768554688
                ],
                [
                    61.189701080322266,
                    355.16650390625,
                    -570.5106201171875
                ],
                [
                    -469.78125,
                    322.11480712890625,
                    360.994384765625
                ],
                [
                    -394.04107666015625,
                    299.84124755859375,
                    454.72125244140625
                ],
                [
                    -234.2761993408203,
                    327.2326965332031,
                    -544.8067626953125
                ],
                [
                    -148.43309020996094,
                    287.9078063964844,
                    -593.7623291015625
                ],
                [
                    -277.3527526855469,
                    232.977783203125,
                    566.2357788085938
                ],
                [
                    -270.3235778808594,
                    307.3059997558594,
                    532.3170166015625
                ],
                [
                    -239.12054443359375,
                    294.39654541015625,
                    555.076416015625
                ],
                [
                    -310.53729248046875,
                    248.74143981933594,
                    541.3567504882812
                ],
                [
                    553.765869140625,
                    312.4203796386719,
                    -225.624755859375
                ],
                [
                    524.1239013671875,
                    362.9684753417969,
                    -223.81520080566406
                ],
                [
                    -581.9960327148438,
                    259.0802307128906,
                    -217.81466674804688
                ],
                [
                    -614.3690185546875,
                    187.13400268554688,
                    -201.45689392089844
                ],
                [
                    -603.7462768554688,
                    263.11334228515625,
                    -146.61843872070312
                ],
                [
                    -606.2459716796875,
                    224.03900146484375,
                    -189.06947326660156
                ],
                [
                    268.8959655761719,
                    303.9188537597656,
                    539.4722900390625
                ],
                [
                    268.9462585449219,
                    348.82196044921875,
                    512.1277465820312
                ],
                [
                    207.98838806152344,
                    356.54913330078125,
                    534.1009521484375
                ],
                [
                    296.4147644042969,
                    314.15679931640625,
                    519.0043334960938
                ],
                [
                    -448.1990051269531,
                    266.296875,
                    -429.7819519042969
                ],
                [
                    -421.9374084472656,
                    265.22247314453125,
                    -457.0317077636719
                ],
                [
                    -105.21656036376953,
                    236.25811767578125,
                    620.917236328125
                ],
                [
                    -110.67030334472656,
                    207.52447509765625,
                    630.1945190429688
                ],
                [
                    -70.66976165771484,
                    298.22686767578125,
                    599.2047119140625
                ],
                [
                    488.7062683105469,
                    297.74603271484375,
                    359.1129455566406
                ],
                [
                    422.34429931640625,
                    234.83343505859375,
                    472.21343994140625
                ],
                [
                    425.4576721191406,
                    318.32745361328125,
                    418.12591552734375
                ],
                [
                    413.1395263671875,
                    281.0136413574219,
                    455.6883239746094
                ],
                [
                    -577.831787109375,
                    192.78431701660156,
                    -285.43511962890625
                ],
                [
                    -514.8607788085938,
                    227.5065460205078,
                    -370.02362060546875
                ],
                [
                    -558.2612915039062,
                    174.9508819580078,
                    -331.4547119140625
                ],
                [
                    -548.5980834960938,
                    211.60458374023438,
                    -327.2622985839844
                ],
                [
                    -617.6796264648438,
                    186.40403747558594,
                    191.39480590820312
                ],
                [
                    -604.8247680664062,
                    189.47311401367188,
                    226.93075561523438
                ],
                [
                    -629.072998046875,
                    95.78352355957031,
                    217.6206512451172
                ],
                [
                    578.1768188476562,
                    251.88987731933594,
                    240.9364471435547
                ],
                [
                    542.4757080078125,
                    258.1191711425781,
                    306.9573974609375
                ],
                [
                    550.0630493164062,
                    279.22637939453125,
                    273.276611328125
                ],
                [
                    593.4359741210938,
                    218.49880981445312,
                    237.3820343017578
                ],
                [
                    512.4337768554688,
                    239.99754333496094,
                    -368.7652282714844
                ],
                [
                    558.5320434570312,
                    194.99032592773438,
                    -325.3798828125
                ],
                [
                    572.6963500976562,
                    216.68115234375,
                    -283.91253662109375
                ],
                [
                    323.71429443359375,
                    240.0883026123047,
                    541.3535766601562
                ],
                [
                    346.8733215332031,
                    244.48846435546875,
                    525.1888427734375
                ],
                [
                    -507.4710998535156,
                    171.6673583984375,
                    408.228271484375
                ],
                [
                    -486.61834716796875,
                    140.90426635742188,
                    443.7877197265625
                ],
                [
                    -531.1515502929688,
                    191.83482360839844,
                    367.60137939453125
                ],
                [
                    -451.07794189453125,
                    165.61219787597656,
                    -470.7538146972656
                ],
                [
                    -514.1517944335938,
                    183.2868194580078,
                    -393.2460632324219
                ],
                [
                    -429.5434265136719,
                    109.02429962158203,
                    -504.55078125
                ],
                [
                    -429.3558654785156,
                    212.91920471191406,
                    -474.4743347167969
                ],
                [
                    -294.1454772949219,
                    161.83139038085938,
                    582.2120361328125
                ],
                [
                    -296.5893249511719,
                    189.47628784179688,
                    572.3681030273438
                ],
                [
                    -343.8403015136719,
                    143.46189880371094,
                    559.43115234375
                ],
                [
                    -373.2717590332031,
                    132.3743896484375,
                    543.2255249023438
                ],
                [
                    187.1205596923828,
                    187.54209899902344,
                    620.8174438476562
                ],
                [
                    235.25929260253906,
                    166.279052734375,
                    610.3285522460938
                ],
                [
                    267.59368896484375,
                    188.57022094726562,
                    590.5473022460938
                ],
                [
                    296.2769470214844,
                    208.0155792236328,
                    569.7592163085938
                ],
                [
                    220.39389038085938,
                    123.67353820800781,
                    -623.6419067382812
                ],
                [
                    212.21463012695312,
                    214.31248474121094,
                    -602.3074340820312
                ],
                [
                    194.0348358154297,
                    160.20555114746094,
                    -624.9373168945312
                ],
                [
                    -610.034912109375,
                    54.145042419433594,
                    278.09100341796875
                ],
                [
                    -595.451904296875,
                    64.5316390991211,
                    306.91583251953125
                ],
                [
                    -578.7652587890625,
                    85.54615020751953,
                    333.0410461425781
                ],
                [
                    -577.0799560546875,
                    111.74261474609375,
                    328.91046142578125
                ],
                [
                    -378.29937744140625,
                    40.21208190917969,
                    -553.2247924804688
                ],
                [
                    -404.4955749511719,
                    79.55657196044922,
                    -529.6431884765625
                ],
                [
                    -327.3229675292969,
                    86.03921508789062,
                    -580.662353515625
                ],
                [
                    -661.4146728515625,
                    105.69508361816406,
                    -51.27819061279297
                ],
                [
                    -670.144775390625,
                    38.816219329833984,
                    7.386000633239746
                ],
                [
                    -669.0730590820312,
                    44.00471878051758,
                    -31.961660385131836
                ],
                [
                    392.6195983886719,
                    214.61203002929688,
                    505.9965515136719
                ],
                [
                    405.3052062988281,
                    115.93833923339844,
                    527.3731079101562
                ],
                [
                    481.7630310058594,
                    155.3900146484375,
                    446.80010986328125
                ],
                [
                    663.3004760742188,
                    118.12783813476562,
                    -38.841819763183594
                ],
                [
                    657.2077026367188,
                    151.7015380859375,
                    -15.774389266967773
                ],
                [
                    646.4130249023438,
                    188.92221069335938,
                    -35.80175018310547
                ],
                [
                    644.8235473632812,
                    170.11306762695312,
                    -102.28619384765625
                ],
                [
                    -540.5687255859375,
                    104.0678939819336,
                    -384.2970275878906
                ],
                [
                    -551.9926147460938,
                    35.50701904296875,
                    -379.1972961425781
                ],
                [
                    564.3245239257812,
                    126.18370819091797,
                    348.7358093261719
                ],
                [
                    607.8945922851562,
                    102.91986083984375,
                    275.70660400390625
                ],
                [
                    612.5680541992188,
                    138.26084899902344,
                    249.31796264648438
                ],
                [
                    612.8466186523438,
                    44.1719970703125,
                    278.7684631347656
                ],
                [
                    -292.8413391113281,
                    81.14216613769531,
                    599.4755249023438
                ],
                [
                    -301.6242370605469,
                    -17.71834945678711,
                    598.3342895507812
                ],
                [
                    -217.30502319335938,
                    89.006103515625,
                    630.761962890625
                ],
                [
                    -242.0084686279297,
                    32.72166442871094,
                    626.3219604492188
                ],
                [
                    592.697021484375,
                    94.62472534179688,
                    -309.899169921875
                ],
                [
                    617.0833740234375,
                    112.24052429199219,
                    -248.4173126220703
                ],
                [
                    311.4141845703125,
                    106.6171646118164,
                    589.1649169921875
                ],
                [
                    373.8584899902344,
                    32.99610137939453,
                    562.15966796875
                ],
                [
                    141.04505920410156,
                    117.11589050292969,
                    -648.2571411132812
                ],
                [
                    177.0872344970703,
                    93.95985412597656,
                    -642.8009643554688
                ],
                [
                    158.14573669433594,
                    10.668323516845703,
                    -651.6799926757812
                ],
                [
                    667.3135375976562,
                    63.735694885253906,
                    81.85838317871094
                ],
                [
                    667.7166137695312,
                    101.13178253173828,
                    3.4827234745025635
                ],
                [
                    670.8265991210938,
                    29.333152770996094,
                    71.61569213867188
                ],
                [
                    -415.68389892578125,
                    -8.364436149597168,
                    -526.3513793945312
                ],
                [
                    -451.779052734375,
                    18.304611206054688,
                    -495.3458557128906
                ],
                [
                    -414.84246826171875,
                    54.05062484741211,
                    -524.5136108398438
                ],
                [
                    501.6337890625,
                    67.3561019897461,
                    -447.3360595703125
                ],
                [
                    473.06591796875,
                    66.30058288574219,
                    -477.8536376953125
                ],
                [
                    481.8227844238281,
                    118.02693939208984,
                    -458.1962585449219
                ],
                [
                    446.376708984375,
                    80.37550354003906,
                    -500.6953430175781
                ],
                [
                    544.78369140625,
                    88.25428009033203,
                    389.2756042480469
                ],
                [
                    510.8248596191406,
                    120.82782745361328,
                    424.9861145019531
                ],
                [
                    534.9014892578125,
                    26.090913772583008,
                    412.4618835449219
                ],
                [
                    523.2715454101562,
                    57.795413970947266,
                    423.5038757324219
                ],
                [
                    -155.41375732421875,
                    72.10450744628906,
                    -650.2929077148438
                ],
                [
                    -87.02351379394531,
                    13.61931324005127,
                    -667.2055053710938
                ],
                [
                    -323.89239501953125,
                    -33.243526458740234,
                    585.684814453125
                ],
                [
                    -377.0038146972656,
                    -32.02775192260742,
                    554.129638671875
                ],
                [
                    661.988037109375,
                    -14.832972526550293,
                    -127.15193939208984
                ],
                [
                    645.071044921875,
                    70.3539047241211,
                    -181.9958953857422
                ],
                [
                    252.1529541015625,
                    -18.341346740722656,
                    -623.9244995117188
                ],
                [
                    222.73544311523438,
                    -12.618175506591797,
                    -634.916015625
                ],
                [
                    255.43032836914062,
                    85.5510482788086,
                    -616.5242919921875
                ],
                [
                    324.37750244140625,
                    1.396825909614563,
                    -590.950927734375
                ],
                [
                    -599.2102661132812,
                    -12.963483810424805,
                    305.03961181640625
                ],
                [
                    -601.2239379882812,
                    -84.5950927734375,
                    289.94183349609375
                ],
                [
                    -629.1572875976562,
                    11.049466133117676,
                    236.989013671875
                ],
                [
                    -286.8645935058594,
                    14.013993263244629,
                    -607.6358642578125
                ],
                [
                    -337.13128662109375,
                    -82.95287322998047,
                    -573.0963134765625
                ],
                [
                    -365.161376953125,
                    4.37199592590332,
                    -563.0925903320312
                ],
                [
                    -307.64263916015625,
                    -50.891761779785156,
                    -593.4716186523438
                ],
                [
                    -210.1365509033203,
                    -35.385921478271484,
                    636.5281372070312
                ],
                [
                    -164.016357421875,
                    -41.28120803833008,
                    649.8139038085938
                ],
                [
                    -129.64431762695312,
                    -50.91777420043945,
                    656.6693115234375
                ],
                [
                    -116.56639862060547,
                    -91.1168441772461,
                    653.9752197265625
                ],
                [
                    559.978271484375,
                    27.55955696105957,
                    -377.7121887207031
                ],
                [
                    536.4728393554688,
                    46.344757080078125,
                    -408.1514892578125
                ],
                [
                    528.1231689453125,
                    81.57072448730469,
                    -413.08160400390625
                ],
                [
                    580.5848999023438,
                    -16.844743728637695,
                    -345.0058898925781
                ],
                [
                    405.0778503417969,
                    -41.78389358520508,
                    540.0137329101562
                ],
                [
                    441.4173889160156,
                    -52.546085357666016,
                    509.59564208984375
                ],
                [
                    446.08172607421875,
                    26.6574764251709,
                    506.9217224121094
                ],
                [
                    -507.00347900390625,
                    -14.5211181640625,
                    441.70465087890625
                ],
                [
                    -449.42572021484375,
                    -104.11824798583984,
                    488.2193603515625
                ],
                [
                    -480.2770080566406,
                    -49.31171798706055,
                    467.78173828125
                ],
                [
                    -523.8302001953125,
                    -37.9215202331543,
                    -416.0211486816406
                ],
                [
                    -473.147216796875,
                    -95.0654067993164,
                    -463.7778015136719
                ],
                [
                    -532.4534912109375,
                    -87.68145751953125,
                    -397.1347961425781
                ],
                [
                    372.53265380859375,
                    -46.528507232666016,
                    -560.9454956054688
                ],
                [
                    381.7964782714844,
                    -10.266138076782227,
                    -556.5239868164062
                ],
                [
                    447.3301086425781,
                    -17.106704711914062,
                    -505.28033447265625
                ],
                [
                    404.4291687011719,
                    10.690943717956543,
                    -540.3955078125
                ],
                [
                    -126.60919952392578,
                    -50.79187774658203,
                    -657.9727172851562
                ],
                [
                    -120.95738983154297,
                    -129.13999938964844,
                    -648.0889892578125
                ],
                [
                    -184.08837890625,
                    -28.664703369140625,
                    -645.17626953125
                ],
                [
                    -218.07122802734375,
                    -60.44437026977539,
                    -631.4609375
                ],
                [
                    -243.49826049804688,
                    -146.3118438720703,
                    606.2132568359375
                ],
                [
                    -336.7959289550781,
                    -127.01883697509766,
                    565.382568359375
                ],
                [
                    644.2447509765625,
                    4.318244934082031,
                    -196.72027587890625
                ],
                [
                    619.0885009765625,
                    44.90830612182617,
                    -265.53076171875
                ],
                [
                    607.9952392578125,
                    2.2123661041259766,
                    -294.17083740234375
                ],
                [
                    647.1287841796875,
                    -65.89498138427734,
                    -174.6582489013672
                ],
                [
                    -585.8989868164062,
                    -130.0619354248047,
                    -296.3617858886719
                ],
                [
                    -624.4197387695312,
                    -94.24637603759766,
                    -225.59645080566406
                ],
                [
                    -631.7159423828125,
                    -113.80419158935547,
                    -195.1060028076172
                ],
                [
                    -609.3972778320312,
                    -108.94605255126953,
                    -256.2708435058594
                ],
                [
                    333.1524658203125,
                    -85.90097045898438,
                    582.2178344726562
                ],
                [
                    238.13955688476562,
                    -10.816884994506836,
                    630.9630126953125
                ],
                [
                    282.0074157714844,
                    0.8040928840637207,
                    613.5490112304688
                ],
                [
                    244.45840454101562,
                    -81.2256851196289,
                    624.0781860351562
                ],
                [
                    -578.8794555664062,
                    -110.86128997802734,
                    325.28485107421875
                ],
                [
                    -552.24609375,
                    -141.64744567871094,
                    358.1690979003906
                ],
                [
                    -591.8675537109375,
                    -117.66169738769531,
                    298.2804260253906
                ],
                [
                    -555.3421630859375,
                    -91.3626708984375,
                    369.27886962890625
                ],
                [
                    641.11474609375,
                    -90.58563232421875,
                    171.69432067871094
                ],
                [
                    663.494873046875,
                    20.386754989624023,
                    122.6208267211914
                ],
                [
                    670.0923461914062,
                    -30.012157440185547,
                    72.2716064453125
                ],
                [
                    664.008056640625,
                    -78.70110321044922,
                    85.71123504638672
                ],
                [
                    439.80645751953125,
                    -120.80821990966797,
                    498.82940673828125
                ],
                [
                    521.6528930664062,
                    -99.77263641357422,
                    408.3889465332031
                ],
                [
                    478.0437927246094,
                    -133.47067260742188,
                    458.9743957519531
                ],
                [
                    481.7186279296875,
                    -102.64055633544922,
                    463.0543212890625
                ],
                [
                    -12.534926414489746,
                    -170.83651733398438,
                    -651.41162109375
                ],
                [
                    26.526596069335938,
                    -50.025508880615234,
                    -671.3599853515625
                ],
                [
                    -48.47860336303711,
                    -112.07559204101562,
                    -661.9083251953125
                ],
                [
                    -411.73846435546875,
                    -93.32245635986328,
                    521.3753051757812
                ],
                [
                    -399.9716796875,
                    -191.852783203125,
                    501.9773864746094
                ],
                [
                    -428.485595703125,
                    -118.02132415771484,
                    502.379638671875
                ],
                [
                    -558.7911376953125,
                    -201.11277770996094,
                    -309.7235412597656
                ],
                [
                    -544.7382202148438,
                    -100.14767456054688,
                    -376.71435546875
                ],
                [
                    -507.0219421386719,
                    -172.14413452148438,
                    -401.4969787597656
                ],
                [
                    -537.9592895507812,
                    -207.22047424316406,
                    -340.31842041015625
                ],
                [
                    -620.3386840820312,
                    -195.38809204101562,
                    174.3871612548828
                ],
                [
                    -632.9650268554688,
                    -140.10816955566406,
                    180.1839599609375
                ],
                [
                    -607.05517578125,
                    -194.8540802001953,
                    217.64149475097656
                ],
                [
                    -281.5989990234375,
                    -200.48562622070312,
                    -572.4134521484375
                ],
                [
                    -284.3117980957031,
                    -149.3141632080078,
                    -586.8695068359375
                ],
                [
                    -241.24119567871094,
                    -166.83108520507812,
                    -601.3956909179688
                ],
                [
                    583.8073120117188,
                    -84.754150390625,
                    -327.79095458984375
                ],
                [
                    558.6414184570312,
                    -121.25263214111328,
                    -357.5216064453125
                ],
                [
                    559.9732055664062,
                    -67.81197357177734,
                    -371.41192626953125
                ],
                [
                    423.7279052734375,
                    -184.33250427246094,
                    493.1705627441406
                ],
                [
                    395.1842041015625,
                    -87.21002197265625,
                    542.0842895507812
                ],
                [
                    320.3477783203125,
                    -193.58932495117188,
                    562.8799438476562
                ],
                [
                    350.59246826171875,
                    -146.1830596923828,
                    559.65283203125
                ],
                [
                    68.24238586425781,
                    -131.75357055664062,
                    -657.1560668945312
                ],
                [
                    175.37692260742188,
                    -205.8941192626953,
                    -617.0062255859375
                ],
                [
                    142.0949249267578,
                    -134.9331512451172,
                    -644.2208251953125
                ],
                [
                    -466.1148986816406,
                    -273.8952941894531,
                    395.9697570800781
                ],
                [
                    -526.054443359375,
                    -150.57058715820312,
                    391.6700744628906
                ],
                [
                    -537.1947631835938,
                    -200.1587677001953,
                    353.6022033691406
                ],
                [
                    -509.724365234375,
                    -179.28070068359375,
                    400.2132873535156
                ],
                [
                    43.107303619384766,
                    -218.77191162109375,
                    633.5646362304688
                ],
                [
                    29.339859008789062,
                    -144.62237548828125,
                    655.5501098632812
                ],
                [
                    83.24909210205078,
                    -192.0837860107422,
                    638.676025390625
                ],
                [
                    -27.51519775390625,
                    -207.6607208251953,
                    637.5731201171875
                ],
                [
                    500.3081970214844,
                    -198.54933166503906,
                    407.6555480957031
                ],
                [
                    541.8885498046875,
                    -113.1363525390625,
                    386.4732971191406
                ],
                [
                    566.4959106445312,
                    -127.84855651855469,
                    342.9676818847656
                ],
                [
                    530.442138671875,
                    -155.43801879882812,
                    387.5040283203125
                ],
                [
                    -82.83807373046875,
                    -182.856201171875,
                    -641.326416015625
                ],
                [
                    -73.2315902709961,
                    -252.0507354736328,
                    -618.8860473632812
                ],
                [
                    -122.20663452148438,
                    -215.75161743164062,
                    -624.1466064453125
                ],
                [
                    638.5693969726562,
                    -111.86578369140625,
                    -182.6107177734375
                ],
                [
                    604.9110107421875,
                    -133.91497802734375,
                    -245.9803466796875
                ],
                [
                    626.3375854492188,
                    -192.25311279296875,
                    -151.6825714111328
                ],
                [
                    -578.8118896484375,
                    -254.03916931152344,
                    -223.32774353027344
                ],
                [
                    -559.83642578125,
                    -278.6976013183594,
                    -239.91094970703125
                ],
                [
                    -556.246337890625,
                    -259.5601806640625,
                    -267.73992919921875
                ],
                [
                    -582.6981811523438,
                    -166.86170959472656,
                    -285.3541564941406
                ],
                [
                    228.0205078125,
                    -217.277099609375,
                    -594.7743530273438
                ],
                [
                    294.5479736328125,
                    -202.45066833496094,
                    -569.5623168945312
                ],
                [
                    268.9761657714844,
                    -163.27757263183594,
                    -594.6817016601562
                ],
                [
                    226.03280639648438,
                    -159.02285766601562,
                    -613.8331298828125
                ],
                [
                    -523.681640625,
                    -283.2613220214844,
                    309.6348876953125
                ],
                [
                    -574.5601196289062,
                    -191.78172302246094,
                    296.44207763671875
                ],
                [
                    -555.1416015625,
                    -301.9778137207031,
                    232.81349182128906
                ],
                [
                    641.0956420898438,
                    -173.34353637695312,
                    116.4194107055664
                ],
                [
                    605.77978515625,
                    -232.52548217773438,
                    180.4916229248047
                ],
                [
                    629.073486328125,
                    -195.638427734375,
                    142.9010772705078
                ],
                [
                    630.0310668945312,
                    -144.43301391601562,
                    191.9083251953125
                ],
                [
                    -118.5921401977539,
                    -189.7198028564453,
                    631.2651977539062
                ],
                [
                    -50.144004821777344,
                    -232.81932067871094,
                    627.0017700195312
                ],
                [
                    -112.02586364746094,
                    -244.55386352539062,
                    606.4637451171875
                ],
                [
                    -479.4150695800781,
                    -311.48028564453125,
                    -347.1264953613281
                ],
                [
                    -480.67901611328125,
                    -264.176025390625,
                    -382.5408935546875
                ],
                [
                    -452.2605285644531,
                    -293.30731201171875,
                    -395.388671875
                ],
                [
                    554.868896484375,
                    -208.19850158691406,
                    322.1949157714844
                ],
                [
                    520.9869995117188,
                    -249.94259643554688,
                    348.04803466796875
                ],
                [
                    558.0091552734375,
                    -241.6031036376953,
                    280.17596435546875
                ],
                [
                    567.4007568359375,
                    -178.49623107910156,
                    318.34149169921875
                ],
                [
                    -193.03077697753906,
                    -231.81607055664062,
                    -598.5925903320312
                ],
                [
                    -115.85736083984375,
                    -258.5030822753906,
                    -609.2933959960938
                ],
                [
                    -112.33421325683594,
                    -325.82147216796875,
                    -576.4967041015625
                ],
                [
                    -264.97760009765625,
                    -299.0660095214844,
                    535.0843505859375
                ],
                [
                    -187.15740966796875,
                    -332.30303955078125,
                    549.472900390625
                ],
                [
                    -218.3016357421875,
                    -302.7262268066406,
                    554.5360107421875
                ],
                [
                    -171.0154571533203,
                    -286.2652282714844,
                    579.4749755859375
                ],
                [
                    102.54803466796875,
                    -279.98297119140625,
                    -604.5781860351562
                ],
                [
                    155.90969848632812,
                    -244.07896423339844,
                    -608.351318359375
                ],
                [
                    213.9926300048828,
                    -333.7454528808594,
                    -545.9121704101562
                ],
                [
                    184.09457397460938,
                    -321.7015686035156,
                    -563.5225830078125
                ],
                [
                    -464.0584716796875,
                    -361.72906494140625,
                    322.9380798339844
                ],
                [
                    -448.53790283203125,
                    -318.3949890136719,
                    384.28302001953125
                ],
                [
                    -496.5023193359375,
                    -287.49591064453125,
                    334.821533203125
                ],
                [
                    464.329345703125,
                    -221.04786682128906,
                    -426.88580322265625
                ],
                [
                    491.69586181640625,
                    -275.66278076171875,
                    -368.3109130859375
                ],
                [
                    464.7392883300781,
                    -267.36920166015625,
                    -407.194580078125
                ],
                [
                    459.9201354980469,
                    -302.1457214355469,
                    -387.878662109375
                ],
                [
                    -550.8424072265625,
                    -382.0097961425781,
                    -51.684757232666016
                ],
                [
                    -545.7393188476562,
                    -393.5413513183594,
                    1.635819673538208
                ],
                [
                    431.83349609375,
                    -295.5075378417969,
                    426.92401123046875
                ],
                [
                    445.6801452636719,
                    -340.7037658691406,
                    374.3652648925781
                ],
                [
                    499.17303466796875,
                    -262.7543029785156,
                    369.8876953125
                ],
                [
                    469.173095703125,
                    -338.4536437988281,
                    345.3640441894531
                ],
                [
                    224.65176391601562,
                    -332.91766357421875,
                    543.01513671875
                ],
                [
                    150.64181518554688,
                    -386.03662109375,
                    531.28076171875
                ],
                [
                    190.6005859375,
                    -383.03680419921875,
                    521.8057250976562
                ],
                [
                    332.46893310546875,
                    -309.7808532714844,
                    -496.835205078125
                ],
                [
                    327.15570068359375,
                    -274.2194519042969,
                    -520.152099609375
                ],
                [
                    266.797607421875,
                    -377.76141357421875,
                    -491.6361389160156
                ],
                [
                    -479.46441650390625,
                    -388.5788269042969,
                    266.1703186035156
                ],
                [
                    -483.159912109375,
                    -413.8088684082031,
                    218.76612854003906
                ],
                [
                    -485.3912048339844,
                    -435.8114929199219,
                    166.9342498779297
                ],
                [
                    -258.5242614746094,
                    -402.43548583984375,
                    -469.3440856933594
                ],
                [
                    -231.03726196289062,
                    -359.87744140625,
                    -516.6444091796875
                ],
                [
                    -273.9530334472656,
                    -310.7505187988281,
                    -526.1338500976562
                ],
                [
                    522.298828125,
                    -352.02154541015625,
                    -233.53884887695312
                ],
                [
                    464.3166198730469,
                    -340.1632995605469,
                    -348.8174743652344
                ],
                [
                    543.7996215820312,
                    -300.87994384765625,
                    -257.0033264160156
                ],
                [
                    -482.34375,
                    -443.6076965332031,
                    -148.24827575683594
                ],
                [
                    -504.2725524902344,
                    -428.44073486328125,
                    -117.74052429199219
                ],
                [
                    -479.339599609375,
                    -461.167236328125,
                    -101.07673645019531
                ],
                [
                    320.8375549316406,
                    -365.1073303222656,
                    469.02374267578125
                ],
                [
                    375.0780944824219,
                    -338.7830810546875,
                    447.181640625
                ],
                [
                    391.8426208496094,
                    -365.0362854003906,
                    410.03582763671875
                ],
                [
                    599.4335327148438,
                    -302.0264892578125,
                    48.735191345214844
                ],
                [
                    540.8796997070312,
                    -373.5977478027344,
                    -52.15619659423828
                ],
                [
                    592.5382690429688,
                    -316.3251647949219,
                    22.306489944458008
                ],
                [
                    560.2254028320312,
                    -349.7779235839844,
                    -45.95002365112305
                ],
                [
                    34.90143966674805,
                    -352.8466796875,
                    568.9625244140625
                ],
                [
                    112.9677734375,
                    -397.527099609375,
                    530.7642822265625
                ],
                [
                    75.64395904541016,
                    -367.9140625,
                    556.401611328125
                ],
                [
                    47.4105339050293,
                    -441.98699951171875,
                    503.432861328125
                ],
                [
                    -531.726318359375,
                    -412.33575439453125,
                    25.30900764465332
                ],
                [
                    -514.2865600585938,
                    -404.4078369140625,
                    95.46278381347656
                ],
                [
                    -482.00640869140625,
                    -462.2978820800781,
                    82.61792755126953
                ],
                [
                    480.2510070800781,
                    -360.5984191894531,
                    303.9559020996094
                ],
                [
                    506.1590881347656,
                    -371.43646240234375,
                    242.8157196044922
                ],
                [
                    456.3893127441406,
                    -409.4311828613281,
                    278.84112548828125
                ],
                [
                    -133.06895446777344,
                    -405.3925476074219,
                    -518.2977294921875
                ],
                [
                    -110.62120056152344,
                    -367.6337890625,
                    -551.6907958984375
                ],
                [
                    -57.52314758300781,
                    -427.771728515625,
                    -515.8140258789062
                ],
                [
                    -93.27924346923828,
                    -405.8910217285156,
                    -527.29736328125
                ],
                [
                    486.4848937988281,
                    -395.60845947265625,
                    -240.67063903808594
                ],
                [
                    558.3919067382812,
                    -349.36492919921875,
                    -126.73284912109375
                ],
                [
                    547.6207885742188,
                    -333.7148132324219,
                    -198.1994171142578
                ],
                [
                    542.2018432617188,
                    -353.1497497558594,
                    -177.05368041992188
                ],
                [
                    -480.9343566894531,
                    -411.5346374511719,
                    -220.220703125
                ],
                [
                    -398.6814880371094,
                    -513.968994140625,
                    -169.35801696777344
                ],
                [
                    -411.37567138671875,
                    -485.66650390625,
                    -212.5849609375
                ],
                [
                    -424.21746826171875,
                    -440.94879150390625,
                    -272.2069396972656
                ],
                [
                    199.51023864746094,
                    -403.0965576171875,
                    503.2417297363281
                ],
                [
                    202.45201110839844,
                    -464.92218017578125,
                    435.9714660644531
                ],
                [
                    142.9984893798828,
                    -474.16845703125,
                    -460.072265625
                ],
                [
                    134.52407836914062,
                    -391.3252868652344,
                    -532.8900756835938
                ],
                [
                    201.91470336914062,
                    -411.1067810058594,
                    -496.35357666015625
                ],
                [
                    158.39877319335938,
                    -437.6498107910156,
                    -489.7078857421875
                ],
                [
                    -359.3820495605469,
                    -486.7312927246094,
                    289.1753845214844
                ],
                [
                    -387.81988525390625,
                    -494.18145751953125,
                    238.80784606933594
                ],
                [
                    -443.91107177734375,
                    -450.8280944824219,
                    227.50704956054688
                ],
                [
                    503.93182373046875,
                    -409.92779541015625,
                    177.78021240234375
                ],
                [
                    491.6932678222656,
                    -439.2284240722656,
                    137.13328552246094
                ],
                [
                    539.6362915039062,
                    -397.9456787109375,
                    51.64552307128906
                ],
                [
                    399.70635986328125,
                    -456.68218994140625,
                    -289.8502502441406
                ],
                [
                    395.06195068359375,
                    -423.6508483886719,
                    -342.4232482910156
                ],
                [
                    382.7568054199219,
                    -406.1930236816406,
                    -376.41522216796875
                ],
                [
                    438.0924072265625,
                    -385.3636474609375,
                    -335.0038757324219
                ],
                [
                    77.28911590576172,
                    -440.15081787109375,
                    -504.7518615722656
                ],
                [
                    22.13762664794922,
                    -446.7760009765625,
                    -503.70458984375
                ],
                [
                    -28.80220603942871,
                    -451.0426330566406,
                    -498.7447204589844
                ],
                [
                    59.057891845703125,
                    -478.5026550292969,
                    -471.0959777832031
                ],
                [
                    -319.5023498535156,
                    -484.1913757324219,
                    335.00531005859375
                ],
                [
                    -266.76422119140625,
                    -500.00238037109375,
                    357.401123046875
                ],
                [
                    -235.5144500732422,
                    -474.1483154296875,
                    408.8066711425781
                ],
                [
                    254.0756378173828,
                    -457.2990417480469,
                    -427.49114990234375
                ],
                [
                    258.4466247558594,
                    -503.6211853027344,
                    -368.34002685546875
                ],
                [
                    322.988525390625,
                    -447.95709228515625,
                    -387.8125
                ],
                [
                    301.33404541015625,
                    -422.49163818359375,
                    -431.7447204589844
                ],
                [
                    -371.4315185546875,
                    -552.5950927734375,
                    78.40226745605469
                ],
                [
                    -409.2881164550781,
                    -519.9349975585938,
                    127.81055450439453
                ],
                [
                    -372.0819396972656,
                    -544.7808227539062,
                    136.48468017578125
                ],
                [
                    -99.41227722167969,
                    -520.7236938476562,
                    411.3748474121094
                ],
                [
                    -98.2143325805664,
                    -473.00335693359375,
                    464.3033142089844
                ],
                [
                    -432.5708312988281,
                    -503.9559020996094,
                    -107.12822723388672
                ],
                [
                    -381.3398132324219,
                    -536.0379028320312,
                    -140.6957550048828
                ],
                [
                    -333.1942138671875,
                    -553.1050415039062,
                    -177.06044006347656
                ],
                [
                    -363.7778015136719,
                    -555.6270751953125,
                    -111.79173278808594
                ],
                [
                    471.4837646484375,
                    -479.5399475097656,
                    -5.627240180969238
                ],
                [
                    439.4098815917969,
                    -508.8963928222656,
                    -20.052650451660156
                ],
                [
                    -201.53250122070312,
                    -529.5287475585938,
                    -345.15069580078125
                ],
                [
                    -209.47999572753906,
                    -563.0447387695312,
                    -304.4928894042969
                ],
                [
                    -235.64198303222656,
                    -575.6262817382812,
                    -258.7857666015625
                ],
                [
                    80.81649780273438,
                    -495.0397644042969,
                    447.81829833984375
                ],
                [
                    54.0494270324707,
                    -513.058349609375,
                    430.94940185546875
                ],
                [
                    26.095720291137695,
                    -528.603759765625,
                    414.4279479980469
                ],
                [
                    -25.048593521118164,
                    -527.2943725585938,
                    408.1026916503906
                ],
                [
                    11.3629150390625,
                    -545.6004638671875,
                    -396.1721496582031
                ],
                [
                    5.215089797973633,
                    -572.0991821289062,
                    -358.9185791015625
                ],
                [
                    -43.64063262939453,
                    -543.26953125,
                    -396.7014465332031
                ],
                [
                    -32.49679946899414,
                    -522.97265625,
                    -422.8514709472656
                ],
                [
                    -259.3734436035156,
                    -609.402099609375,
                    -124.95333862304688
                ],
                [
                    -309.1162414550781,
                    -574.4109497070312,
                    -165.9000244140625
                ],
                [
                    173.86517333984375,
                    -538.1577758789062,
                    368.3537902832031
                ],
                [
                    191.47509765625,
                    -517.8009033203125,
                    388.13671875
                ],
                [
                    212.91555786132812,
                    -526.6640014648438,
                    365.1346435546875
                ],
                [
                    131.29063415527344,
                    -543.5974731445312,
                    376.4850158691406
                ],
                [
                    238.56727600097656,
                    -522.0457763671875,
                    -355.9459228515625
                ],
                [
                    174.48133850097656,
                    -552.3502807617188,
                    -347.70233154296875
                ],
                [
                    128.2698211669922,
                    -585.58544921875,
                    -311.3709716796875
                ],
                [
                    212.44813537597656,
                    -574.0669555664062,
                    -284.39105224609375
                ],
                [
                    -327.6966247558594,
                    -572.7323608398438,
                    127.03522491455078
                ],
                [
                    -291.6773986816406,
                    -591.1572875976562,
                    82.11682891845703
                ],
                [
                    -306.5074157714844,
                    -581.3635864257812,
                    148.69224548339844
                ],
                [
                    -115.97857666015625,
                    -608.7955322265625,
                    -269.9244689941406
                ],
                [
                    -156.93527221679688,
                    -575.0292358398438,
                    -314.59893798828125
                ],
                [
                    -157.52769470214844,
                    -603.0259399414062,
                    -259.4052734375
                ],
                [
                    -99.64421844482422,
                    -588.4549560546875,
                    -316.3387451171875
                ],
                [
                    -25.4129638671875,
                    -583.10693359375,
                    336.1473083496094
                ],
                [
                    -23.465320587158203,
                    -613.62744140625,
                    276.9360046386719
                ],
                [
                    -77.10041046142578,
                    -614.2188720703125,
                    266.8578186035156
                ],
                [
                    13.441883087158203,
                    -594.2794799804688,
                    316.4566345214844
                ],
                [
                    240.79212951660156,
                    -570.197998046875,
                    271.211181640625
                ],
                [
                    207.0436553955078,
                    -614.5235595703125,
                    187.72625732421875
                ],
                [
                    268.2577209472656,
                    -556.118408203125,
                    273.8155822753906
                ],
                [
                    191.4607391357422,
                    -606.101806640625,
                    228.087890625
                ],
                [
                    -197.98614501953125,
                    -593.3677978515625,
                    247.3229522705078
                ],
                [
                    -164.30804443359375,
                    -629.4291381835938,
                    177.75335693359375
                ],
                [
                    -106.62252807617188,
                    -640.6092529296875,
                    181.6565399169922
                ],
                [
                    -162.94906616210938,
                    -610.1054077148438,
                    234.63356018066406
                ],
                [
                    375.2298889160156,
                    -553.4446411132812,
                    -73.76802825927734
                ],
                [
                    362.35833740234375,
                    -567.3203735351562,
                    -15.112472534179688
                ],
                [
                    329.22509765625,
                    -587.9291381835938,
                    -12.492642402648926
                ],
                [
                    280.1343994140625,
                    -612.8196411132812,
                    -15.37385082244873
                ],
                [
                    117.19159698486328,
                    -606.8250122070312,
                    269.9384460449219
                ],
                [
                    121.07720184326172,
                    -626.5094604492188,
                    218.80136108398438
                ],
                [
                    58.858154296875,
                    -595.2772827148438,
                    309.241943359375
                ],
                [
                    96.01538848876953,
                    -627.92431640625,
                    225.6641845703125
                ],
                [
                    298.5387268066406,
                    -591.0716552734375,
                    126.6596908569336
                ],
                [
                    288.9161071777344,
                    -583.0121459960938,
                    176.79058837890625
                ],
                [
                    214.32289123535156,
                    -626.1112670898438,
                    131.12428283691406
                ],
                [
                    249.44967651367188,
                    -608.5841064453125,
                    150.51934814453125
                ],
                [
                    26.731733322143555,
                    -628.6795043945312,
                    -249.63909912109375
                ],
                [
                    -22.49637794494629,
                    -629.3621215820312,
                    -247.54751586914062
                ],
                [
                    -73.94844055175781,
                    -615.3115234375,
                    -270.489990234375
                ],
                [
                    41.33891296386719,
                    -641.2152709960938,
                    -212.15029907226562
                ],
                [
                    4.935666561126709,
                    -628.0193481445312,
                    213.61468505859375
                ],
                [
                    -3.0907633304595947,
                    -638.3049926757812,
                    179.0569305419922
                ],
                [
                    17.046213150024414,
                    -625.55419921875,
                    248.5039825439453
                ],
                [
                    8.149459838867188,
                    -654.7501220703125,
                    146.37841796875
                ],
                [
                    -171.43988037109375,
                    -650.0821533203125,
                    -51.04725646972656
                ],
                [
                    -89.63845825195312,
                    -668.3572387695312,
                    -16.505380630493164
                ],
                [
                    81.88772583007812,
                    -654.9619750976562,
                    139.62994384765625
                ],
                [
                    116.24046325683594,
                    -650.3118286132812,
                    135.12850952148438
                ],
                [
                    183.38787841796875,
                    -630.1461181640625,
                    155.1771697998047
                ],
                [
                    85.03742980957031,
                    -637.5038452148438,
                    202.20352172851562
                ],
                [
                    20.507129669189453,
                    -664.1953125,
                    -122.96497344970703
                ],
                [
                    -64.22623443603516,
                    -663.4329833984375,
                    -112.484619140625
                ],
                [
                    -654.988037109375,
                    122.45419311523438,
                    -89.59233093261719
                ],
                [
                    -656.2618408203125,
                    81.93212890625,
                    -117.70645141601562
                ],
                [
                    -642.070556640625,
                    154.56202697753906,
                    -128.2022705078125
                ],
                [
                    -650.20068359375,
                    157.64633178710938,
                    -70.71258544921875
                ],
                [
                    -628.837890625,
                    227.39134216308594,
                    -86.266357421875
                ],
                [
                    -625.4720458984375,
                    215.53770446777344,
                    -129.6868896484375
                ],
                [
                    -590.8603515625,
                    211.67340087890625,
                    -243.53656005859375
                ],
                [
                    -495.2779541015625,
                    -66.62890625,
                    -445.642578125
                ],
                [
                    -488.6397705078125,
                    0.011810302734375,
                    -458.4725341796875
                ],
                [
                    -527.1847534179688,
                    25.3095703125,
                    -413.98388671875
                ],
                [
                    3.1355438232421875,
                    -655.801025390625,
                    -166.6358184814453
                ],
                [
                    -20.56024169921875,
                    -668.0419921875,
                    -98.376953125
                ],
                [
                    -98.22021484375,
                    -664.86279296875,
                    -63.80010986328125
                ],
                [
                    -46.555145263671875,
                    -670.7598876953125,
                    -58.55706787109375
                ],
                [
                    -146.72369384765625,
                    -657.6712646484375,
                    -19.73436737060547
                ],
                [
                    -26.404327392578125,
                    -673.7623291015625,
                    -5.661346435546875
                ],
                [
                    -64.10359191894531,
                    -644.15771484375,
                    -195.57203674316406
                ],
                [
                    1.484344482421875,
                    -498.86663818359375,
                    -451.747314453125
                ],
                [
                    -49.551910400390625,
                    -468.21826171875,
                    -480.35809326171875
                ],
                [
                    485.31195068359375,
                    464.751953125,
                    68.46258544921875
                ],
                [
                    514.4467163085938,
                    436.33251953125,
                    24.964202880859375
                ],
                [
                    425.68438720703125,
                    523.8546142578125,
                    0.009613037109375
                ],
                [
                    355.11383056640625,
                    569.48974609375,
                    -65.85800170898438
                ],
                [
                    335.6910400390625,
                    507.616455078125,
                    293.6103210449219
                ],
                [
                    361.75146484375,
                    507.50677490234375,
                    260.8213806152344
                ],
                [
                    389.95623779296875,
                    470.7305908203125,
                    288.9546203613281
                ],
                [
                    337.9671325683594,
                    461.485595703125,
                    361.28765869140625
                ],
                [
                    577.9366455078125,
                    199.9036102294922,
                    285.8314208984375
                ],
                [
                    556.793212890625,
                    193.63299560546875,
                    329.0067138671875
                ],
                [
                    593.5634765625,
                    74.82763671875,
                    313.173095703125
                ],
                [
                    42.879608154296875,
                    618.3270263671875,
                    265.259765625
                ],
                [
                    88.04837036132812,
                    637.1971435546875,
                    202.0087890625
                ],
                [
                    15.64312744140625,
                    633.1854248046875,
                    229.6094970703125
                ],
                [
                    108.24093627929688,
                    646.1717529296875,
                    -162.25164794921875
                ],
                [
                    52.652862548828125,
