{
    "name": "Watreeya",
    "description": "Like Wadiya with trees.",
	"version": "1.00",
	"creator": "Dissonant",
	"players":[2, 12],
    "planets": [
        {
            "name": "'Nam",
            "mass": 10000,
            "position_x": 25500,
            "position_y": -15200,
            "velocity_x": 66.44915008544922,
            "velocity_y": 111.47720336914062,
            "required_thrust_to_move": 0,
            "starting_planet": true,
            "respawn": false,
            "start_destroyed": false,
            "min_spawn_delay": 0,
            "max_spawn_delay": 0,
            "planet": {
                "seed": 1818511488,
                "radius": 556,
                "heightRange": 0,
                "waterHeight": 7.000002384185791,
                "waterDepth": 0,
                "temperature": 71,
                "metalDensity": 100,
                "metalClusters": 100,
                "metalSpotLimit": -1,
                "biomeScale": 50,
                "biome": "rainforest",
                "symmetryType": "none",
                "symmetricalMetal": false,
                "symmetricalStarts": false,
                "numArmies": 2,
                "landingZonesPerArmy": 0,
                "landingZoneSize": 0
            },
            "planetCSG": [
                {
                    "spec": "/pa/terrain/jungle/brushes/jungle_plateau_01.json",
                    "proj": "BP_Bend",
                    "op": "BO_Add",
                    "position": [
                        -487.15155029296875,
                        -84.4752426147461,
                        255.8385772705078
                    ],
                    "height": 556.6920776367188,
                    "transform": [
                        0.009507226757705212,
                        -0.0018196310847997665,
                        -0.01750223897397518,
                        -487.1515808105469,
                        -0.0018196310847997665,
                        0.019685134291648865,
                        -0.0030350019223988056,
                        -84.4752426147461,
                        0.01750223897397518,
                        0.0030350019223988056,
                        0.009191690944135189,
                        255.8385009765625
                    ],
                    "scale": [
                        0.020000670105218887,
                        0.020000670105218887,
                        0.020000670105218887
                    ],
                    "rotation": 0,
                    "weight": [
                        0,
                        0,
                        0,
                        0
                    ],
                    "weightHard": false,
                    "weightScale": [
                        1,
                        1,
                        1
                    ],
                    "mirrored": false,
                    "twinId": 0,
                    "flooded": false,
                    "pathable": true,
                    "mergeable": true,
                    "no_features": false
                }
            ],
            "metal_spots": [
                [
                    1.070226788520813,
                    535.7747192382812,
                    158.33070373535156
                ],
                [
                    -49.19552230834961,
                    531.684326171875,
                    162.30703735351562
                ],
                [
                    -81.02980041503906,
                    545.2113647460938,
                    85.06707000732422
                ],
                [
                    40.45916748046875,
                    536.22412109375,
                    -143.1470184326172
                ],
                [
                    8.766494750976562,
                    551.6480102539062,
                    -78.40911102294922
                ],
                [
                    61.89536666870117,
                    544.7147216796875,
                    -101.54393768310547
                ],
                [
                    -43.98501205444336,
                    545.16259765625,
                    -101.91600799560547
                ],
                [
                    -125.40573120117188,
                    526.5512084960938,
                    -122.05308532714844
                ],
                [
                    -150.03436279296875,
                    513.2246704101562,
                    -146.67909240722656
                ],
                [
                    -150.86898803710938,
                    492.3220520019531,
                    -204.3785858154297
                ],
                [
                    -162.7713623046875,
                    492.54559326171875,
                    206.1066436767578
                ],
                [
                    -88.04122924804688,
                    533.09619140625,
                    138.40464782714844
                ],
                [
                    -163.29010009765625,
                    503.6438903808594,
                    176.86949157714844
                ],
                [
                    -127.86560821533203,
                    523.0286254882812,
                    146.3562774658203
                ],
                [
                    140.29055786132812,
                    539.532470703125,
                    -24.56620979309082
                ],
                [
                    174.220703125,
                    522.0584716796875,
                    -87.58027648925781
                ],
                [
                    103.13079833984375,
                    547.5841064453125,
                    -28.51725196838379
                ],
                [
                    -43.80805587768555,
                    520.1317138671875,
                    -189.23240661621094
                ],
                [
                    39.31470489501953,
                    522.6110229492188,
                    -185.3296356201172
                ],
                [
                    -220.98397827148438,
                    486.9146728515625,
                    -146.0171661376953
                ],
                [
                    -183.80523681640625,
                    464.7803649902344,
                    -239.7813720703125
                ],
                [
                    -271.2790222167969,
                    484.8049621582031,
                    37.65597152709961
                ],
                [
                    -291.2691955566406,
                    469.50494384765625,
                    71.93228149414062
                ],
                [
                    -312.1394958496094,
                    459.6571044921875,
                    -32.445648193359375
                ],
                [
                    -328.4947509765625,
                    446.024169921875,
                    62.91070556640625
                ],
                [
                    243.1295928955078,
                    493.3500061035156,
                    -88.17797088623047
                ],
                [
                    199.80569458007812,
                    511.3418884277344,
                    -95.43156433105469
                ],
                [
                    206.32870483398438,
                    515.977783203125,
                    -39.45841979980469
                ],
                [
                    104.60977172851562,
                    486.4126281738281,
                    251.9415283203125
                ],
                [
                    48.47247314453125,
                    476.637939453125,
                    285.9977111816406
                ],
                [
                    57.202308654785156,
                    446.1236572265625,
                    328.9524230957031
                ],
                [
                    70.97393035888672,
                    489.8399658203125,
                    257.3284912109375
                ],
                [
                    219.04733276367188,
                    505.261962890625,
                    85.50602722167969
                ],
                [
                    256.05889892578125,
                    485.05804443359375,
                    100.50239562988281
                ],
                [
                    221.68382263183594,
                    496.73406982421875,
                    123.66967010498047
                ],
                [
                    252.3839874267578,
                    468.4576721191406,
                    -162.19239807128906
                ],
                [
                    227.78506469726562,
                    470.4121398925781,
                    -190.7275848388672
                ],
                [
                    283.0072937011719,
                    428.58154296875,
                    -210.3385772705078
                ],
                [
                    213.12847900390625,
                    491.5058898925781,
                    -152.4117431640625
                ],
                [
                    -346.29083251953125,
                    435.5915222167969,
                    -26.999515533447266
                ],
                [
                    -356.2731628417969,
                    420.05181884765625,
                    -81.25846862792969
                ],
                [
                    -372.64764404296875,
                    413.5166931152344,
                    -25.52089500427246
                ],
                [
                    183.37779235839844,
                    472.2244873046875,
                    232.4568328857422
                ],
                [
                    189.78045654296875,
                    424.0616760253906,
                    305.7480163574219
                ],
                [
                    348.8200378417969,
                    432.7926940917969,
                    38.843605041503906
                ],
                [
                    285.2030944824219,
                    478.1444396972656,
                    31.94188690185547
                ],
                [
                    331.2309265136719,
                    446.5279846191406,
                    -19.691001892089844
                ],
                [
                    306.00823974609375,
                    464.8808898925781,
                    -13.897785186767578
                ],
                [
                    -434.9522705078125,
                    341.99151611328125,
                    76.37339782714844
                ],
                [
                    -406.11907958984375,
                    372.9780578613281,
                    85.57328033447266
                ],
                [
                    -388.5293884277344,
                    399.8268127441406,
                    18.14217185974121
                ],
                [
                    -379.0304260253906,
                    403.5896911621094,
                    66.7339096069336
                ],
                [
                    309.2000427246094,
                    428.13250732421875,
                    -170.7604217529297
                ],
                [
                    344.6893310546875,
                    422.9807434082031,
                    -100.12002563476562
                ],
                [
                    345.5462646484375,
                    398.1831359863281,
                    -170.54156494140625
                ],
                [
                    318.4369201660156,
                    440.6797180175781,
                    -112.66246032714844
                ],
                [
                    102.84661865234375,
                    374.3277587890625,
                    -398.3018493652344
                ],
                [
                    47.107173919677734,
                    387.7225341796875,
                    -396.25030517578125
                ],
                [
                    117.72999572753906,
                    407.3896789550781,
                    -359.53070068359375
                ],
                [
                    93.84017944335938,
                    356.33734130859375,
                    -416.6441345214844
                ],
                [
                    -263.5233154296875,
                    313.1202087402344,
                    -376.6115417480469
                ],
                [
                    -254.7109832763672,
                    347.051025390625,
                    -353.17413330078125
                ],
                [
                    -221.0629119873047,
                    400.49578857421875,
                    -316.5978698730469
                ],
                [
                    -137.5572052001953,
                    357.00677490234375,
                    407.77734375
                ],
                [
                    -87.33843994140625,
                    352.42742919921875,
                    425.4822998046875
                ],
                [
                    -54.91828155517578,
                    397.26788330078125,
                    389.512451171875
                ],
                [
                    287.9538269042969,
                    382.8091125488281,
                    -279.43487548828125
                ],
                [
                    339.75634765625,
                    361.41058349609375,
                    -246.09652709960938
                ],
                [
                    307.01190185546875,
                    405.2451477050781,
                    -220.67515563964844
                ],
                [
                    -41.13603591918945,
                    351.1273498535156,
                    -429.2721252441406
                ],
                [
                    -96.89673614501953,
                    354.640380859375,
                    -416.8020935058594
                ],
                [
                    2.3527982234954834,
                    376.6493835449219,
                    -409.4354553222656
                ],
                [
                    -44.202171325683594,
                    371.4931640625,
                    -411.4839782714844
                ],
                [
                    227.8369598388672,
                    349.30633544921875,
                    -366.2711181640625
                ],
                [
                    202.74195861816406,
                    323.3305969238281,
                    -403.6041259765625
                ],
                [
                    240.1746826171875,
                    306.96600341796875,
                    -395.6976318359375
                ],
                [
                    -212.3699493408203,
                    273.2066650390625,
                    -433.8388671875
                ],
                [
                    -149.06654357910156,
                    253.73348999023438,
                    475.695068359375
                ],
                [
                    -178.61965942382812,
                    327.5553894042969,
                    417.01397705078125
                ],
                [
                    -154.2997283935547,
                    318.5968017578125,
                    433.1842346191406
                ],
                [
                    -199.03994750976562,
                    270.76348876953125,
                    446.94317626953125
                ],
                [
                    -337.2667236328125,
                    256.968994140625,
                    -360.0604248046875
                ],
                [
                    -351.4862976074219,
                    273.0595703125,
                    -334.30523681640625
                ],
                [
                    -376.1560363769531,
                    255.31854248046875,
                    -321.54742431640625
                ],
                [
                    25.30141830444336,
                    296.36370849609375,
                    473.0083312988281
                ],
                [
                    -9.416032791137695,
                    295.85601806640625,
                    473.9433288574219
                ],
                [
                    36.210941314697266,
                    226.7064971923828,
                    509.3302307128906
                ],
                [
                    30.300189971923828,
                    321.1501770019531,
                    457.02880859375
                ],
                [
                    341.2691650390625,
                    277.9698791503906,
                    -338.7321472167969
                ],
                [
                    318.3846740722656,
                    267.5663146972656,
                    -368.7040100097656
                ],
                [
                    281.3013610839844,
                    349.7616271972656,
                    -326.0797424316406
                ],
                [
                    348.67742919921875,
                    327.8651428222656,
                    286.57586669921875
                ],
                [
                    399.30694580078125,
                    308.9345397949219,
                    239.1869354248047
                ],
                [
                    371.2762451171875,
                    258.3408508300781,
                    327.55010986328125
                ],
                [
                    324.2353515625,
                    294.0034484863281,
                    345.3144836425781
                ],
                [
                    -426.59149169921875,
                    282.5626220703125,
                    -221.5896759033203
                ],
                [
                    -445.21771240234375,
                    186.6384735107422,
                    -279.36138916015625
                ],
                [
                    148.54281616210938,
                    214.68743896484375,
                    493.2342224121094
                ],
                [
                    166.64959716796875,
                    249.5958251953125,
                    469.97528076171875
                ],
                [
                    166.85450744628906,
                    218.00735473632812,
                    -483.8558654785156
                ],
                [
                    215.50428771972656,
                    261.7483215332031,
                    -440.8287353515625
                ],
                [
                    -233.8241729736328,
                    229.70448303222656,
                    -447.54339599609375
                ],
                [
                    -266.0660095214844,
                    189.6027069091797,
                    -448.26556396484375
                ],
                [
                    -285.9646911621094,
                    241.15806579589844,
                    -410.71221923828125
                ],
                [
                    -154.9675750732422,
                    229.36492919921875,
                    485.9894104003906
                ],
                [
                    -164.1682891845703,
                    203.8232879638672,
                    494.1147155761719
                ],
                [
                    -136.40711975097656,
                    193.99978637695312,
                    506.5193786621094
                ],
                [
                    394.5091247558594,
                    275.337890625,
                    -276.4549560546875
                ],
                [
                    401.7642822265625,
                    289.58056640625,
                    -249.17926025390625
                ],
                [
                    355.3624572753906,
                    292.4307556152344,
                    -309.50494384765625
                ],
                [
                    -46.655670166015625,
                    191.9734344482422,
                    -517.5211181640625
                ],
                [
                    10.493087768554688,
                    260.33892822265625,
                    -489.5023498535156
                ],
                [
                    51.249916076660156,
                    222.04977416992188,
                    -504.77484130859375
                ],
                [
                    -534.10693359375,
                    117.33727264404297,
                    110.63158416748047
                ],
                [
                    -236.44769287109375,
                    116.8201904296875,
                    491.521484375
                ],
                [
                    -197.4855194091797,
                    210.08091735839844,
                    478.6539306640625
                ],
                [
                    -332.8031311035156,
                    170.50558471679688,
                    -410.47149658203125
                ],
                [
                    -332.7543029785156,
                    118.13131713867188,
                    -428.5392150878906
                ],
                [
                    -94.34406280517578,
                    98.23583984375,
                    542.9109497070312
                ],
                [
                    -30.273700714111328,
                    95.64878845214844,
                    551.5678100585938
                ],
                [
                    -21.427270889282227,
                    131.5820770263672,
                    543.8130493164062
                ],
                [
                    -541.9445190429688,
                    139.9284210205078,
                    -10.826091766357422
                ],
                [
                    -556.670166015625,
                    45.49235916137695,
                    -37.03443145751953
                ],
                [
                    -552.3927612304688,
                    85.51631927490234,
                    27.58089828491211
                ],
                [
                    -544.6051635742188,
                    118.4488525390625,
                    -49.502845764160156
                ],
                [
                    419.709228515625,
                    171.6108856201172,
                    325.7395935058594
                ],
                [
                    377.392578125,
                    123.31116485595703,
                    392.97216796875
                ],
                [
                    373.3077697753906,
                    200.03839111328125,
                    363.9122009277344
                ],
                [
                    -65.44581604003906,
                    123.92113494873047,
                    -535.3101806640625
                ],
                [
                    -48.161888122558594,
                    71.89237976074219,
                    -547.6622314453125
                ],
                [
                    -83.2193832397461,
                    84.03014373779297,
                    -541.1239013671875
                ],
                [
                    -26.12607192993164,
                    170.83888244628906,
                    -526.1505737304688
                ],
                [
                    -288.80657958984375,
                    133.626220703125,
                    457.82647705078125
                ],
                [
                    -286.2933654785156,
                    59.5693473815918,
                    474.8996276855469
                ],
                [
                    189.98492431640625,
                    95.53208923339844,
                    516.1244506835938
                ],
                [
                    140.58714294433594,
                    143.11753845214844,
                    520.6890869140625
                ],
                [
                    138.44158935546875,
                    170.82778930664062,
                    512.7483520507812
                ],
                [
                    120.54438018798828,
                    88.6942138671875,
                    538.4490966796875
                ],
                [
                    -515.983642578125,
                    70.93058776855469,
                    197.52699279785156
                ],
                [
                    -528.7249145507812,
                    11.062919616699219,
                    173.5416259765625
                ],
                [
                    -514.72509765625,
                    33.608489990234375,
                    209.046142578125
                ],
                [
                    503.92041015625,
                    131.31585693359375,
                    195.593505859375
                ],
                [
                    520.119384765625,
                    130.2899169921875,
                    147.1415252685547
                ],
                [
                    489.9207763671875,
                    151.39727783203125,
                    217.259033203125
                ],
                [
                    487.2642822265625,
                    186.89796447753906,
                    195.6387939453125
                ],
                [
                    539.4520263671875,
                    108.6895523071289,
                    72.2519760131836
                ],
                [
                    529.6627197265625,
                    165.00047302246094,
                    35.32789993286133
                ],
                [
                    547.3052368164062,
                    85.94361877441406,
                    14.06432056427002
                ],
                [
                    545.0054931640625,
                    77.04165649414062,
                    66.63689422607422
                ],
                [
                    -385.9236145019531,
                    64.36764526367188,
                    -395.3125915527344
                ],
                [
                    -385.45220947265625,
                    -19.055147171020508,
                    -399.56146240234375
                ],
                [
                    -364.8689880371094,
                    -4.048029899597168,
                    -418.36541748046875
                ],
                [
                    314.51568603515625,
                    122.98896789550781,
                    -443.4107360839844
                ],
                [
                    348.1284484863281,
                    32.90248489379883,
                    -433.6605224609375
                ],
                [
                    -556.7136840820312,
                    7.461259841918945,
                    43.293434143066406
                ],
                [
                    441.8931884765625,
                    127.00125885009766,
                    316.87481689453125
                ],
                [
                    452.9897766113281,
                    49.59210968017578,
                    322.9855651855469
                ],
                [
                    -281.6405944824219,
                    -9.971450805664062,
                    481.0762939453125
                ],
                [
                    -308.3238525390625,
                    43.92369842529297,
                    462.6840515136719
                ],
                [
                    -262.2083740234375,
                    52.57374954223633,
                    489.70172119140625
                ],
                [
                    -230.85679626464844,
                    9.070393562316895,
                    508.1663818359375
                ],
                [
                    535.505615234375,
                    89.0016860961914,
                    116.83628845214844
                ],
                [
                    532.2890625,
                    9.127155303955078,
                    160.52162170410156
                ],
                [
                    518.5264282226562,
                    35.53833770751953,
                    198.24305725097656
                ],
                [
                    -551.4234619140625,
                    -42.29921340942383,
                    -77.34732818603516
                ],
                [
                    415.24267578125,
                    12.02846622467041,
                    373.41436767578125
                ],
                [
                    363.9692687988281,
                    48.62277603149414,
                    421.18267822265625
                ],
                [
                    -65.51101684570312,
                    -23.63786506652832,
                    -550.5698852539062
                ],
                [
                    -43.32015609741211,
                    10.43482494354248,
                    -553.3445434570312
                ],
                [
                    14.668691635131836,
                    42.19681930541992,
                    -554.4244995117188
                ],
                [
                    20.078960418701172,
                    -45.89794921875,
                    -554.5609130859375
                ],
                [
                    554.6885986328125,
                    11.494029998779297,
                    -1.5095690488815308
                ],
                [
                    547.3247680664062,
                    -11.122214317321777,
                    -81.31651306152344
                ],
                [
                    270.887451171875,
                    51.64535140991211,
                    -484.9172668457031
                ],
                [
                    248.4261932373047,
                    3.3318839073181152,
                    -499.896484375
                ],
                [
                    314.3564453125,
                    -11.75614070892334,
                    -460.38836669921875
                ],
                [
                    -508.41094970703125,
                    -58.469825744628906,
                    220.07937622070312
                ],
                [
                    -514.8185424804688,
                    -119.24116516113281,
                    173.62054443359375
                ],
                [
                    -158.323974609375,
                    -77.74697875976562,
                    -525.678955078125
                ],
                [
                    -174.582763671875,
                    -104.58595275878906,
                    -515.3833618164062
                ],
                [
                    -229.63906860351562,
                    -36.41638946533203,
                    -502.9927062988281
                ],
                [
                    -220.32012939453125,
                    -2.1438002586364746,
                    -508.7110900878906
                ],
                [
                    56.821983337402344,
                    -99.25431060791016,
                    -545.0148315429688
                ],
                [
                    119.6604995727539,
                    -33.822601318359375,
                    -544.123046875
                ],
                [
                    551.6070556640625,
                    -57.34111404418945,
                    37.56324768066406
                ],
                [
                    549.219970703125,
                    -56.7496452331543,
                    64.9151382446289
                ],
                [
                    541.560302734375,
                    -92.2698745727539,
                    86.3598403930664
                ],
                [
                    554.601806640625,
                    -8.976975440979004,
                    28.716724395751953
                ],
                [
                    36.42408752441406,
                    -31.97365379333496,
                    558.3987426757812
                ],
                [
                    -30.37458610534668,
                    -28.82839012145996,
                    558.9816284179688
                ],
                [
                    26.707622528076172,
                    -96.43347930908203,
                    550.9553833007812
                ],
                [
                    -1.459808111190796,
                    -96.02156829833984,
                    551.6195678710938
                ],
                [
                    382.2933654785156,
                    -29.275981903076172,
                    -401.2469787597656
                ],
                [
                    379.79925537109375,
                    4.967299938201904,
                    -405.4782409667969
                ],
                [
                    -549.471923828125,
                    -91.33147430419922,
                    -25.2259464263916
                ],
                [
                    -524.1715087890625,
                    -173.09762573242188,
                    67.79703521728516
                ],
                [
                    442.6872863769531,
                    -7.9673357009887695,
                    339.7307434082031
                ],
                [
                    406.0096740722656,
                    -58.663421630859375,
                    377.3002014160156
                ],
                [
                    -298.4525451660156,
                    -167.0997314453125,
                    438.2418518066406
                ],
                [
                    -299.6432800292969,
                    -115.39936828613281,
                    454.7121276855469
                ],
                [
                    541.3629150390625,
                    -5.3102850914001465,
                    -112.56114196777344
                ],
                [
                    543.6970825195312,
                    -76.4494857788086,
                    -74.20503234863281
                ],
                [
                    519.0906982421875,
                    -95.7086410522461,
                    -164.9236297607422
                ],
                [
                    536.1568603515625,
                    -79.59553527832031,
                    -111.70516204833984
                ],
                [
                    -462.88006591796875,
                    -191.5042266845703,
                    -239.07504272460938
                ],
                [
                    -481.67730712890625,
                    -170.89419555664062,
                    -217.5428466796875
                ],
                [
                    185.49566650390625,
                    -96.55947875976562,
                    517.1383666992188
                ],
                [
                    133.45733642578125,
                    -133.86143493652344,
                    525.1065063476562
                ],
                [
                    204.94342041015625,
                    -62.62266540527344,
                    -515.1805419921875
                ],
                [
                    223.9059600830078,
                    -97.81263732910156,
                    -501.2342834472656
                ],
                [
                    273.2796936035156,
                    -110.80989074707031,
                    -472.0362548828125
                ],
                [
                    280.4473876953125,
                    -73.9062728881836,
                    -475.9307556152344
                ],
                [
                    -220.6590118408203,
                    -134.26229858398438,
                    -489.50091552734375
                ],
                [
                    -297.4064025878906,
                    -146.37867736816406,
                    -443.093017578125
                ],
                [
                    -242.45748901367188,
                    -102.94432067871094,
                    -487.2376403808594
                ],
                [
                    -122.74292755126953,
                    -164.975341796875,
                    517.8298950195312
                ],
                [
                    -85.82157897949219,
                    -132.65138244628906,
                    535.1350708007812
                ],
                [
                    -173.95010375976562,
                    -149.88856506347656,
                    507.40704345703125
                ],
                [
                    329.4858703613281,
                    -146.40052795410156,
                    424.3644104003906
                ],
                [
                    544.6204833984375,
                    -110.4967269897461,
                    -4.126434803009033
                ],
                [
                    535.14208984375,
                    -148.7753143310547,
                    -20.999710083007812
                ],
                [
                    549.9365234375,
                    -52.085479736328125,
                    -46.48151397705078
                ],
                [
                    91.56698608398438,
                    -172.4315643310547,
                    522.6708374023438
                ],
                [
                    79.58747863769531,
                    -144.33251953125,
                    533.8504638671875
                ],
                [
                    87.94258880615234,
                    -116.43547058105469,
                    539.7921142578125
                ],
                [
                    -252.98793029785156,
                    -172.52389526367188,
                    464.4259033203125
                ],
                [
                    -213.27220153808594,
                    -215.52883911132812,
                    466.0609130859375
                ],
                [
                    -250.09938049316406,
                    -237.60845947265625,
                    435.21575927734375
                ],
                [
                    503.228759765625,
                    -177.87319946289062,
                    -149.97276306152344
                ],
                [
                    492.4967346191406,
                    -154.79566955566406,
                    -199.9645233154297
                ],
                [
                    488.9026184082031,
                    -127.14270782470703,
                    -225.78311157226562
                ],
                [
                    -398.4406433105469,
                    -285.961669921875,
                    260.46600341796875
                ],
                [
                    -418.84698486328125,
                    -257.72222900390625,
                    258.08642578125
                ],
                [
                    531.456787109375,
                    -141.757080078125,
                    84.19252014160156
                ],
                [
                    527.5133666992188,
                    -137.76394653320312,
                    111.24978637695312
                ],
                [
                    -260.9416198730469,
                    -211.02560424804688,
                    -438.947265625
                ],
                [
                    -328.89813232421875,
                    -229.80532836914062,
                    -378.90472412109375
                ],
                [
                    -273.972412109375,
                    -244.482177734375,
                    -412.4423522949219
                ],
                [
                    -236.77828979492188,
                    -255.8688201904297,
                    -428.5685119628906
                ],
                [
                    433.233642578125,
                    -175.03878784179688,
                    -296.0155334472656
                ],
                [
                    424.12628173828125,
                    -143.7086181640625,
                    332.4951477050781
                ],
                [
                    363.86273193359375,
                    -213.73777770996094,
                    364.5201721191406
                ],
                [
                    -22.02499771118164,
                    -201.56527709960938,
                    -516.37939453125
                ],
                [
                    -50.110939025878906,
                    -249.44252014160156,
                    -491.58203125
                ],
                [
                    14.194334983825684,
                    -261.5658264160156,
                    -487.5239562988281
                ],
                [
                    -70.2425308227539,
                    -203.3780517578125,
                    -510.79833984375
                ],
                [
                    -442.7993469238281,
                    -307.65966796875,
                    131.1561279296875
                ],
                [
                    -410.4075927734375,
                    -349.703857421875,
                    128.64804077148438
                ],
                [
                    466.6583557128906,
                    -215.05734252929688,
                    211.7408447265625
                ],
                [
                    483.26995849609375,
                    -220.69119262695312,
                    162.6317138671875
                ],
                [
                    477.1553649902344,
                    -186.86260986328125,
                    215.76219177246094
                ],
                [
                    495.1917419433594,
                    -179.34402465820312,
                    178.1048126220703
                ],
                [
                    -432.1224060058594,
                    -325.83099365234375,
                    -122.43762969970703
                ],
                [
                    -462.18121337890625,
                    -267.2902526855469,
                    -151.59307861328125
                ],
                [
                    -407.0536193847656,
                    -329.6587829589844,
                    -183.23947143554688
                ],
                [
                    -409.85577392578125,
                    -351.93585205078125,
                    -127.14600372314453
                ],
                [
                    47.881446838378906,
                    -274.3236389160156,
                    -478.08770751953125
                ],
                [
                    39.924217224121094,
                    -235.20700073242188,
                    -499.69464111328125
                ],
                [
                    -313.5782775878906,
                    -286.3628845214844,
                    -351.94940185546875
                ],
                [
                    -289.8992919921875,
                    -352.4388122558594,
                    -312.1364440917969
                ],
                [
                    -282.0029602050781,
                    -301.7113342285156,
                    -365.691162109375
                ],
                [
                    -296.351806640625,
                    -331.2271423339844,
                    -327.850341796875
                ],
                [
                    374.22674560546875,
                    -279.81085205078125,
                    -298.7615966796875
                ],
                [
                    309.9971008300781,
                    -282.4202880859375,
                    -364.045166015625
                ],
                [
                    -457.5558776855469,
                    -301.77301025390625,
                    82.52481842041016
                ],
                [
                    -412.54901123046875,
                    -357.0855407714844,
                    94.75357818603516
                ],
                [
                    -453.8985595703125,
                    -316.7698669433594,
                    14.173604011535645
                ],
                [
                    -383.6729736328125,
                    -349.5323791503906,
                    -197.13279724121094
                ],
                [
                    -342.5408935546875,
                    -385.365966796875,
                    -205.17323303222656
                ],
                [
                    -395.3641357421875,
                    -357.2948913574219,
                    -155.5617218017578
                ],
                [
                    201.17819213867188,
                    -338.0238952636719,
                    392.64398193359375
                ],
                [
                    191.93251037597656,
                    -358.3824768066406,
                    378.6678466796875
                ],
                [
                    236.70697021484375,
                    -326.27801513671875,
                    382.4420166015625
                ],
                [
                    159.3023681640625,
                    -341.2919006347656,
                    -407.56976318359375
                ],
                [
                    214.8170166015625,
                    -317.0531005859375,
                    -401.1571350097656
                ],
                [
                    216.76063537597656,
                    -345.46630859375,
                    -376.72698974609375
                ],
                [
                    467.9000244140625,
                    -282.5829162597656,
                    98.8819808959961
                ],
                [
                    472.6302185058594,
                    -287.1918640136719,
                    54.26483154296875
                ],
                [
                    425.0070495605469,
                    -332.0317077636719,
                    131.92677307128906
                ],
                [
                    444.7979736328125,
                    -297.39385986328125,
                    149.77001953125
                ],
                [
                    -202.0802001953125,
                    -359.87164306640625,
                    -367.32977294921875
                ],
                [
                    -245.92031860351562,
                    -368.9351501464844,
                    -330.2530517578125
                ],
                [
                    -82.10905456542969,
                    -362.536865234375,
                    413.42340087890625
                ],
                [
                    -98.92669677734375,
                    -341.90521240234375,
                    427.0999450683594
                ],
                [
                    -19.190244674682617,
                    -338.28717041015625,
                    441.20770263671875
                ],
                [
                    53.301734924316406,
                    -331.0618896484375,
                    -441.24102783203125
                ],
                [
                    286.2247619628906,
                    -347.6697692871094,
                    -325.0141296386719
                ],
                [
                    291.413330078125,
                    -308.5653381347656,
                    -357.89935302734375
                ],
                [
                    258.90289306640625,
                    -320.1916198730469,
                    -372.0283203125
                ],
                [
                    390.6648864746094,
                    -355.1631164550781,
                    -168.51132202148438
                ],
                [
                    412.5376892089844,
                    -353.2196350097656,
                    -111.12832641601562
                ],
                [
                    364.3692932128906,
                    -392.5144958496094,
                    -144.28970336914062
                ],
                [
                    385.0579528808594,
                    -378.8343811035156,
                    -124.02706909179688
                ],
                [
                    -6.359460830688477,
                    -463.4851379394531,
                    302.24517822265625
                ],
                [
                    8.462004661560059,
                    -433.141845703125,
                    345.9869689941406
                ],
                [
                    63.926170349121094,
                    -453.6382751464844,
                    309.2093811035156
                ],
                [
                    27.98822021484375,
                    -463.5198059082031,
                    299.6887512207031
                ],
                [
                    313.4970703125,
                    -405.5542907714844,
                    206.6878204345703
                ],
                [
                    289.02935791015625,
                    -405.2756042480469,
                    240.53842163085938
                ],
                [
                    263.9911193847656,
                    -448.9140319824219,
                    183.24978637695312
                ],
                [
                    299.3704833984375,
                    -430.71142578125,
                    174.24510192871094
                ],
                [
                    214.8505859375,
                    -428.62054443359375,
                    -280.906494140625
                ],
                [
                    155.12835693359375,
                    -461.53363037109375,
                    -266.6007995605469
                ],
                [
                    131.3006591796875,
                    -457.61444091796875,
                    -285.8952331542969
                ],
                [
                    170.03111267089844,
                    -444.9306945800781,
                    -285.58050537109375
                ],
                [
                    -263.7842712402344,
                    -473.2442626953125,
                    113.88736724853516
                ],
                [
                    -221.3310089111328,
                    -493.2530517578125,
                    121.04521942138672
                ],
                [
                    -248.1241455078125,
                    -471.09814453125,
                    154.1000213623047
                ],
                [
                    -132.9543914794922,
                    -487.77960205078125,
                    -226.92584228515625
                ],
                [
                    -40.63692855834961,
                    -494.43414306640625,
                    -249.5308074951172
                ],
                [
                    -88.1374282836914,
                    -482.63043212890625,
                    -258.1431884765625
                ],
                [
                    -65.88941955566406,
                    -509.4690246582031,
                    -208.96839904785156
                ],
                [
                    -38.224586486816406,
                    -482.8624572753906,
                    269.2276611328125
                ],
                [
                    -74.8484115600586,
                    -497.0080261230469,
                    234.97445678710938
                ],
                [
                    -85.07099914550781,
                    -483.40545654296875,
                    258.68792724609375
                ],
                [
                    -92.37024688720703,
                    -525.277587890625,
                    154.88351440429688
                ],
                [
                    -81.1839599609375,
                    -539.3121948242188,
                    107.78750610351562
                ],
                [
                    -100.6786117553711,
                    -510.30072021484375,
                    194.24655151367188
                ],
                [
                    -169.15579223632812,
                    -492.3312683105469,
                    192.95669555664062
                ],
                [
                    224.76638793945312,
                    -488.7136535644531,
                    121.43655395507812
                ],
                [
                    144.72613525390625,
                    -518.0057373046875,
                    120.66177368164062
                ],
                [
                    239.89315795898438,
                    -496.48779296875,
                    32.98701095581055
                ],
                [
                    49.3409538269043,
                    -550.4772338867188,
                    51.2708625793457
                ],
                [
                    97.53236389160156,
                    -543.8753051757812,
                    33.08977508544922
                ],
                [
                    92.60808563232422,
                    -539.7500610351562,
                    76.37735748291016
                ],
                [
                    81.9864501953125,
                    -535.6555786132812,
                    110.0975112915039
                ],
                [
                    -27.063215255737305,
                    -554.51806640625,
                    39.003700256347656
                ],
                [
                    32.076637268066406,
                    -554.9317016601562,
                    -15.651199340820312
                ],
                [
                    -31.172664642333984,
                    -554.653076171875,
                    -29.32461929321289
                ],
                [
                    -18.222408294677734,
                    557.6546630859375,
                    27.484439849853516
                ],
                [
                    -57.42168045043945,
                    554.6053466796875,
                    23.851831436157227
                ],
                [
                    57.1394157409668,
                    554.652587890625,
                    41.065494537353516
                ],
                [
                    -535.3067626953125,
                    -105.59473419189453,
                    111.77915954589844
                ],
                [
                    -540.6792602539062,
                    -4.493841648101807,
                    133.69210815429688
                ],
                [
                    218.25418090820312,
                    -140.77366638183594,
                    -491.7081604003906
                ],
                [
                    196.7489471435547,
                    -108.4613037109375,
                    -509.9773254394531
                ],
                [
                    254.2279510498047,
                    -71.05367279052734,
                    -491.48712158203125
                ],
                [
                    382.99310302734375,
                    -114.36791229248047,
                    388.5982360839844
                ],
                [
                    330.93792724609375,
                    -105.99042510986328,
                    435.1566467285156
                ],
                [
                    347.7135314941406,
                    -164.6098175048828,
                    402.8719177246094
                ],
                [
                    -432.1326904296875,
                    168.26344299316406,
                    309.55938720703125
                ],
                [
                    -365.280029296875,
                    178.7187957763672,
                    381.64886474609375
                ],
                [
                    -375.834228515625,
                    219.60594177246094,
                    348.1632080078125
                ],
                [
                    -340.68853759765625,
                    155.4666748046875,
                    413.1499328613281
                ],
                [
                    -310.59722900390625,
                    121.219970703125,
                    446.99945068359375
                ],
                [
                    -366.59112548828125,
                    250.76197814941406,
                    336.2044372558594
                ],
                [
                    102.24510955810547,
                    466.939697265625,
                    286.561279296875
                ],
                [
                    137.13018798828125,
                    439.632080078125,
                    312.2579345703125
                ],
                [
                    231.9882049560547,
                    467.76318359375,
                    195.5184326171875
                ],
                [
                    257.6571044921875,
                    448.9288330078125,
                    206.44244384765625
                ],
                [
                    275.06463623046875,
                    466.93115234375,
                    133.2142333984375
                ],
                [
                    284.632568359375,
                    445.7607421875,
                    176.31475830078125
                ],
                [
                    175.5978240966797,
                    448.2613525390625,
                    279.4283447265625
                ],
                [
                    -46.931217193603516,
                    325.15618896484375,
                    453.108154296875
                ],
                [
                    93.43441009521484,
                    212.091796875,
                    507.4581298828125
                ],
                [
                    71.20805358886719,
                    174.0205078125,
                    525.4599609375
                ],
                [
                    6.757040023803711,
                    169.2081298828125,
                    532.9085693359375
                ],
                [
                    32.03974533081055,
                    136.85760498046875,
                    541.3729248046875
                ],
                [
                    473.0252685546875,
                    115.25153350830078,
                    271.9490966796875
                ],
                [
                    292.91253662109375,
                    -265.955810546875,
                    390.9329833984375
                ],
                [
                    312.5186767578125,
                    -195.66876220703125,
                    417.1016845703125
                ],
                [
                    357.202880859375,
                    -247.33612060546875,
                    349.0028076171875
                ],
                [
                    317.2088623046875,
                    -286.8990783691406,
                    355.4111022949219
                ],
                [
                    245.031982421875,
                    -266.5281982421875,
                    421.86834716796875
                ],
                [
                    270.7880859375,
                    -463.0216064453125,
                    132.02349853515625
                ],
                [
                    190.018798828125,
                    -509.8958740234375,
                    88.890625
                ],
                [
                    216.5816650390625,
                    -454.9481201171875,
                    224.47274780273438
                ],
                [
                    168.9443359375,
                    -476.114013671875,
                    -229.24859619140625
                ],
                [
                    209.39794921875,
                    -464.35546875,
                    -219.19647216796875
                ],
                [
                    154.29733276367188,
                    -494.02679443359375,
                    -199.53598022460938
                ],
                [
                    404.9566650390625,
                    -329.0909423828125,
                    -185.99205017089844
                ],
                [
                    390.345458984375,
                    -317.10687255859375,
                    -231.4197235107422
                ],
                [
                    363.03826904296875,
                    -353.8529052734375,
                    -223.619384765625
                ],
                [
                    357.3045654296875,
                    -323.84088134765625,
                    -274.0465087890625
                ],
                [
                    413.30889892578125,
                    -256.66839599609375,
                    -263.9140930175781
                ],
                [
                    455.37396240234375,
                    -188.42657470703125,
                    -251.30377197265625
                ],
                [
                    -502.6185302734375,
                    -120.58732604980469,
                    205.957275390625
                ],
                [
                    -445.47406005859375,
                    -258.5128173828125,
                    206.94696044921875
                ],
                [
                    -27.2144775390625,
                    -388.5843505859375,
                    396.3062744140625
                ],
                [
                    -200.6396484375,
                    -452.4111328125,
                    251.53472900390625
                ],
                [
                    -248.19326782226562,
                    -409.5506591796875,
                    280.56243896484375
                ],
                [
                    -288.1236267089844,
                    -412.5072021484375,
                    233.570556640625
                ],
                [
                    -200.41583251953125,
                    -418.511962890625,
                    305.41754150390625
                ],
                [
                    -236.8023681640625,
                    -430.1580810546875,
                    258.515380859375
                ],
                [
                    -304.1084289550781,
                    -369.314697265625,
                    280.9093017578125
                ],
                [
                    -320.473876953125,
                    -218.96771240234375,
                    397.559326171875
                ],
                [
                    -175.2439422607422,
                    -259.2705078125,
                    459.2255859375
                ],
                [
                    -241.77581787109375,
                    -130.37625122070312,
                    484.102294921875
                ],
                [
                    -357.5897216796875,
                    107.54986572265625,
                    413.67730712890625
                ],
                [
                    491.4031982421875,
                    254.1126708984375,
                    58.904693603515625
                ],
                [
                    471.527099609375,
                    292.3882751464844,
                    31.5194091796875
                ],
                [
                    485.7196044921875,
                    268.25238037109375,
                    -28.0941162109375
                ],
                [
                    510.594970703125,
                    220.69076538085938,
                    5.245452880859375
                ],
                [
                    444.3294677734375,
                    332.2253723144531,
                    -17.33447265625
                ],
                [
                    423.5828857421875,
                    356.7475280761719,
                    -39.4837646484375
                ],
                [
                    394.7589111328125,
                    391.4462890625,
                    -2.319854736328125
                ],
                [
                    425.5113525390625,
                    220.8552703857422,
                    -280.70281982421875
                ],
                [
                    459.98046875,
                    190.95907592773438,
                    -246.28228759765625
                ],
                [
                    481.071533203125,
                    129.03114318847656,
                    -244.30950927734375
                ],
                [
                    444.5015869140625,
                    176.28396606445312,
                    -281.62738037109375
                ],
                [
                    398.5205078125,
                    224.38446044921875,
                    -315.70428466796875
                ],
                [
                    317.11334228515625,
                    175.53277587890625,
                    423.98736572265625
                ],
                [
                    273.77154541015625,
                    163.75946044921875,
                    457.24566650390625
                ],
                [
                    314.58013916015625,
                    129.832763671875,
                    442.12054443359375
                ],
                [
                    328.31195068359375,
                    70.1075439453125,
                    446.2862548828125
                ],
                [
                    337.25640869140625,
                    211.5377197265625,
                    390.8365478515625
                ],
                [
                    162.2808837890625,
                    313.20556640625,
                    430.98931884765625
                ],
                [
                    144.93316650390625,
                    280.1749267578125,
                    459.1495361328125
                ],
                [
                    -361.8206787109375,
                    19.23626708984375,
                    423.74761962890625
                ],
                [
                    -376.95361328125,
                    -28.3079833984375,
                    409.5985107421875
                ],
                [
                    -398.842529296875,
                    -38.94903564453125,
                    387.64776611328125
                ],
                [
                    -457.1513671875,
                    -134.96820068359375,
                    287.36724853515625
                ],
                [
                    -418.1612548828125,
                    -155.01495361328125,
                    333.24066162109375
                ],
                [
                    -419.167724609375,
                    -199.44406127929688,
                    306.51568603515625
                ],
                [
                    -335.5839538574219,
                    -417.724365234375,
                    -143.49710083007812
                ],
                [
                    -263.17852783203125,
                    -467.0570068359375,
                    -141.317626953125
                ],
                [
                    -235.28411865234375,
                    -490.169189453125,
                    -108.3701171875
                ],
                [
                    -290.61041259765625,
                    -450.75048828125,
                    -140.16494750976562
                ],
                [
                    -286.22113037109375,
                    -416.900634765625,
                    -227.05331420898438
                ],
                [
                    -325.11376953125,
                    -373.0655517578125,
                    -249.968505859375
                ],
                [
                    -222.60906982421875,
                    -475.269287109375,
                    -179.51104736328125
                ],
                [
                    -169.35247802734375,
                    -499.59716796875,
                    -171.81515502929688
                ],
                [
                    -350.02685546875,
                    -428.05224609375,
                    17.84698486328125
                ],
                [
                    -386.279541015625,
                    -393.98272705078125,
                    36.680694580078125
                ],
                [
                    -541.59765625,
                    -117.80078125,
                    -55.33819580078125
                ],
                [
                    -540.5809326171875,
                    -99.5098876953125,
                    -91.64962768554688
                ],
                [
                    -528.324462890625,
                    -123.2052001953125,
                    -125.40069580078125
                ],
                [
                    -519.4830322265625,
                    -159.63079833984375,
                    117.72531127929688
                ],
                [
                    -442.32275390625,
                    -272.79608154296875,
                    -194.21197509765625
                ],
                [
                    -469.5294189453125,
                    -214.61181640625,
                    -203.93365478515625
                ],
                [
                    -558.362548828125,
                    -5.636688232421875,
                    -30.897525787353516
                ],
                [
                    -467.6727294921875,
                    215.48211669921875,
                    -214.97323608398438
                ],
                [
                    -266.21624755859375,
                    394.8448486328125,
                    -287.01483154296875
                ],
                [
                    -320.6112060546875,
                    371.87127685546875,
                    -259.86419677734375
                ],
                [
                    -339.403564453125,
                    382.481689453125,
                    -217.21533203125
                ],
                [
                    -297.40863037109375,
                    349.5098876953125,
                    -314.2550048828125
                ],
                [
                    -251.53607177734375,
                    275.716552734375,
                    -411.28363037109375
                ],
                [
                    -406.08154296875,
                    165.58978271484375,
                    344.8187255859375
                ],
                [
                    -346.559326171875,
                    211.41949462890625,
                    381.9232177734375
                ],
                [
                    -384.00146484375,
                    187.8389892578125,
                    358.41473388671875
                ],
                [
                    -387.26629638671875,
                    140.56524658203125,
                    375.9647216796875
                ],
                [
                    -512.3720703125,
                    -12.652755737304688,
                    217.85098266601562
                ],
                [
                    115.56832885742188,
                    -314.4365234375,
                    -441.2169189453125
                ],
                [
                    -93.17378234863281,
                    512.3402099609375,
                    200.10113525390625
                ],
                [
                    -145.90451049804688,
                    535.1320190429688,
                    50.05029296875
                ],
                [
                    -148.88929748535156,
                    525.9249267578125,
                    109.23468017578125
                ],
                [
                    -362.196533203125,
                    397.38592529296875,
                    -142.52748107910156
                ],
                [
                    -381.30902099609375,
                    366.925048828125,
                    -173.098388671875
                ],
                [
                    -368.8638916015625,
                    344.95977783203125,
                    -232.67547607421875
                ],
                [
                    -381.79205322265625,
                    292.38104248046875,
                    -280.5728759765625
                ],
                [
                    -415.9002685546875,
                    221.28213500976562,
                    -297.9992370605469
                ],
                [
                    -437.2896728515625,
                    158.50621032714844,
                    -307.67510986328125
                ],
                [
                    110.141357421875,
                    -362.931396484375,
                    -405.85107421875
                ],
                [
                    155.69915771484375,
                    -308.437744140625,
                    -433.2623291015625
                ],
                [
                    141.34332275390625,
                    -509.217529296875,
                    -168.65353393554688
                ],
                [
                    -342.77685546875,
                    51.761322021484375,
                    -433.73052978515625
                ],
                [
                    -369.33258056640625,
                    102.62745666503906,
                    -403.223388671875
                ],
                [
                    -534.9688720703125,
                    78.04428100585938,
                    135.4017333984375
                ],
                [
                    271.207275390625,
                    -304.01971435546875,
                    378.024658203125
                ],
                [
                    189.16488647460938,
                    -487.3704833984375,
                    -183.99560546875
                ],
                [
                    -408.57647705078125,
                    -310.8031005859375,
                    211.006103515625
                ],
                [
                    -446.0506591796875,
                    -198.64007568359375,
                    266.10552978515625
                ],
                [
                    -381.47821044921875,
                    -392.39617919921875,
                    85.04194641113281
                ],
                [
                    -161.54263305664062,
                    -383.81158447265625,
                    -363.99737548828125
                ],
                [
                    -188.57684326171875,
                    -338.310302734375,
                    -394.36566162109375
                ]
            ],
            "landing_zones": {
                "list": [],
                "rules": []
            }
        }
    ]
}